<?xml version="1.0"?>
<opencv_storage>
<cascade>
  <stageType>BOOST</stageType>
  <featureType>HAAR</featureType>
  <height>30</height>
  <width>20</width>
  <stageParams>
    <boostType>GAB</boostType>
    <minHitRate>9.9500000476837158e-01</minHitRate>
    <maxFalseAlarm>4.0000000596046448e-01</maxFalseAlarm>
    <weightTrimRate>9.4999999999999996e-01</weightTrimRate>
    <maxDepth>1</maxDepth>
    <maxWeakCount>100</maxWeakCount></stageParams>
  <featureParams>
    <maxCatCount>0</maxCatCount>
    <featSize>1</featSize>
    <mode>ALL</mode></featureParams>
  <stageNum>7</stageNum>
  <stages>
    <!-- stage 0 -->
    <_>
      <maxWeakCount>2</maxWeakCount>
      <stageThreshold>-6.2222946435213089e-02</stageThreshold>
      <weakClassifiers>
        <_>
          <internalNodes>
            0 -1 16 6.2479674816131592e-02</internalNodes>
          <leafValues>
            -9.8742139339447021e-01 9.5061731338500977e-01</leafValues></_>
        <_>
          <internalNodes>
            0 -1 2 -1.0314050316810608e-01</internalNodes>
          <leafValues>
            9.2519843578338623e-01 -9.8048800230026245e-01</leafValues></_></weakClassifiers></_>
    <!-- stage 1 -->
    <_>
      <maxWeakCount>3</maxWeakCount>
      <stageThreshold>-1.1229974031448364e+00</stageThreshold>
      <weakClassifiers>
        <_>
          <internalNodes>
            0 -1 12 7.3415979743003845e-02</internalNodes>
          <leafValues>
            -9.5244055986404419e-01 9.0024936199188232e-01</leafValues></_>
        <_>
          <internalNodes>
            0 -1 18 -5.4523125290870667e-02</internalNodes>
          <leafValues>
            8.0130589008331299e-01 -9.1150087118148804e-01</leafValues></_>
        <_>
          <internalNodes>
            0 -1 21 6.1898268759250641e-03</internalNodes>
          <leafValues>
            -8.4612679481506348e-01 7.4094396829605103e-01</leafValues></_></weakClassifiers></_>
    <!-- stage 2 -->
    <_>
      <maxWeakCount>3</maxWeakCount>
      <stageThreshold>-1.1589726209640503e+00</stageThreshold>
      <weakClassifiers>
        <_>
          <internalNodes>
            0 -1 15 1.0164967179298401e-01</internalNodes>
          <leafValues>
            -9.0841585397720337e-01 8.5204082727432251e-01</leafValues></_>
        <_>
          <internalNodes>
            0 -1 8 -8.5280396044254303e-02</internalNodes>
          <leafValues>
            7.2614252567291260e-01 -8.5569292306900024e-01</leafValues></_>
        <_>
          <internalNodes>
            0 -1 0 -1.2824785709381104e-01</internalNodes>
          <leafValues>
            6.0513615608215332e-01 -9.2606067657470703e-01</leafValues></_></weakClassifiers></_>
    <!-- stage 3 -->
    <_>
      <maxWeakCount>4</maxWeakCount>
      <stageThreshold>-1.9019496440887451e+00</stageThreshold>
      <weakClassifiers>
        <_>
          <internalNodes>
            0 -1 19 7.3902614414691925e-02</internalNodes>
          <leafValues>
            -9.5256918668746948e-01 7.3242628574371338e-01</leafValues></_>
        <_>
          <internalNodes>
            0 -1 20 -3.8626737892627716e-02</internalNodes>
          <leafValues>
            7.0582079887390137e-01 -8.4773159027099609e-01</leafValues></_>
        <_>
          <internalNodes>
            0 -1 7 -4.0218975394964218e-02</internalNodes>
          <leafValues>
            7.0138353109359741e-01 -7.3420166969299316e-01</leafValues></_>
        <_>
          <internalNodes>
            0 -1 5 -7.5569786131381989e-02</internalNodes>
          <leafValues>
            6.3255274295806885e-01 -8.6071664094924927e-01</leafValues></_></weakClassifiers></_>
    <!-- stage 4 -->
    <_>
      <maxWeakCount>4</maxWeakCount>
      <stageThreshold>-1.9584023952484131e+00</stageThreshold>
      <weakClassifiers>
        <_>
          <internalNodes>
            0 -1 11 -6.2541358172893524e-02</internalNodes>
          <leafValues>
            7.3333334922790527e-01 -9.0769231319427490e-01</leafValues></_>
        <_>
          <internalNodes>
            0 -1 14 -8.5027128458023071e-02</internalNodes>
          <leafValues>
            6.4137887954711914e-01 -8.7603360414505005e-01</leafValues></_>
        <_>
          <internalNodes>
            0 -1 4 4.0333941578865051e-02</internalNodes>
          <leafValues>
            -9.0597349405288696e-01 5.5373507738113403e-01</leafValues></_>
        <_>
          <internalNodes>
            0 -1 1 -6.2338829040527344e-02</internalNodes>
          <leafValues>
            4.5436537265777588e-01 -9.0972864627838135e-01</leafValues></_></weakClassifiers></_>
    <!-- stage 5 -->
    <_>
      <maxWeakCount>3</maxWeakCount>
      <stageThreshold>-1.1917201280593872e+00</stageThreshold>
      <weakClassifiers>
        <_>
          <internalNodes>
            0 -1 10 1.7526319622993469e-01</internalNodes>
          <leafValues>
            -9.0885418653488159e-01 6.8981480598449707e-01</leafValues></_>
        <_>
          <internalNodes>
            0 -1 3 -2.9225680232048035e-01</internalNodes>
          <leafValues>
            6.0967922210693359e-01 -8.9961433410644531e-01</leafValues></_>
        <_>
          <internalNodes>
            0 -1 13 8.6602479219436646e-02</internalNodes>
          <leafValues>
            -8.5187524557113647e-01 6.1674845218658447e-01</leafValues></_></weakClassifiers></_>
    <!-- stage 6 -->
    <_>
      <maxWeakCount>4</maxWeakCount>
      <stageThreshold>-6.0389178991317749e-01</stageThreshold>
      <weakClassifiers>
        <_>
          <internalNodes>
            0 -1 9 2.3889067769050598e-01</internalNodes>
          <leafValues>
            -8.5158151388168335e-01 7.9365080595016479e-01</leafValues></_>
        <_>
          <internalNodes>
            0 -1 7 -3.9887491613626480e-02</internalNodes>
          <leafValues>
            6.8780344724655151e-01 -7.8121495246887207e-01</leafValues></_>
        <_>
          <internalNodes>
            0 -1 17 2.0229240879416466e-02</internalNodes>
          <leafValues>
            -8.9556282758712769e-01 5.7009696960449219e-01</leafValues></_>
        <_>
          <internalNodes>
            0 -1 6 2.2921191155910492e-01</internalNodes>
          <leafValues>
            -8.9582139253616333e-01 4.5880764722824097e-01</leafValues></_></weakClassifiers></_></stages>
  <features>
    <_>
      <rects>
        <_>
          0 17 20 12 -1.</_>
        <_>
          5 17 10 12 2.</_></rects>
      <tilted>0</tilted></_>
    <_>
      <rects>
        <_>
          0 20 16 10 -1.</_>
        <_>
          0 20 8 5 2.</_>
        <_>
          8 25 8 5 2.</_></rects>
      <tilted>0</tilted></_>
    <_>
      <rects>
        <_>
          1 9 8 16 -1.</_>
        <_>
          3 9 4 16 2.</_></rects>
      <tilted>0</tilted></_>
    <_>
      <rects>
        <_>
          2 0 6 27 -1.</_>
        <_>
          4 9 2 9 9.</_></rects>
      <tilted>0</tilted></_>
    <_>
      <rects>
        <_>
          2 21 18 7 -1.</_>
        <_>
          11 21 9 7 2.</_></rects>
      <tilted>0</tilted></_>
    <_>
      <rects>
        <_>
          3 24 14 6 -1.</_>
        <_>
          3 26 14 2 3.</_></rects>
      <tilted>0</tilted></_>
    <_>
      <rects>
        <_>
          4 9 9 12 -1.</_>
        <_>
          7 13 3 4 9.</_></rects>
      <tilted>0</tilted></_>
    <_>
      <rects>
        <_>
          4 12 16 1 -1.</_>
        <_>
          4 12 8 1 2.</_></rects>
      <tilted>1</tilted></_>
    <_>
      <rects>
        <_>
          5 5 8 4 -1.</_>
        <_>
          7 7 4 4 2.</_></rects>
      <tilted>1</tilted></_>
    <_>
      <rects>
        <_>
          5 17 15 12 -1.</_>
        <_>
          5 21 15 4 3.</_></rects>
      <tilted>0</tilted></_>
    <_>
      <rects>
        <_>
          6 10 11 9 -1.</_>
        <_>
          6 13 11 3 3.</_></rects>
      <tilted>0</tilted></_>
    <_>
      <rects>
        <_>
          6 15 6 5 -1.</_>
        <_>
          8 17 2 5 3.</_></rects>
      <tilted>1</tilted></_>
    <_>
      <rects>
        <_>
          6 19 8 8 -1.</_>
        <_>
          6 21 8 4 2.</_></rects>
      <tilted>0</tilted></_>
    <_>
      <rects>
        <_>
          7 8 13 10 -1.</_>
        <_>
          7 13 13 5 2.</_></rects>
      <tilted>0</tilted></_>
    <_>
      <rects>
        <_>
          7 14 13 6 -1.</_>
        <_>
          7 17 13 3 2.</_></rects>
      <tilted>0</tilted></_>
    <_>
      <rects>
        <_>
          7 19 10 8 -1.</_>
        <_>
          7 21 10 4 2.</_></rects>
      <tilted>0</tilted></_>
    <_>
      <rects>
        <_>
          8 10 5 9 -1.</_>
        <_>
          8 13 5 3 3.</_></rects>
      <tilted>0</tilted></_>
    <_>
      <rects>
        <_>
          11 0 8 22 -1.</_>
        <_>
          15 0 4 22 2.</_></rects>
      <tilted>0</tilted></_>
    <_>
      <rects>
        <_>
          11 4 8 4 -1.</_>
        <_>
          13 6 4 4 2.</_></rects>
      <tilted>1</tilted></_>
    <_>
      <rects>
        <_>
          13 9 2 9 -1.</_>
        <_>
          10 12 2 3 3.</_></rects>
      <tilted>1</tilted></_>
    <_>
      <rects>
        <_>
          14 5 6 4 -1.</_>
        <_>
          16 7 2 4 3.</_></rects>
      <tilted>1</tilted></_>
    <_>
      <rects>
        <_>
          14 22 4 2 -1.</_>
        <_>
          14 22 4 1 2.</_></rects>
      <tilted>1</tilted></_></features></cascade>
</opencv_storage>
