<?xml version="1.0"?>
<opencv_storage>
<stage6>
  <maxWeakCount>5</maxWeakCount>
  <stageThreshold>-1.2572827339172363e+00</stageThreshold>
  <weakClassifiers>
    <_>
      <internalNodes>
        0 -1 109597 1.1587828397750854e-01</internalNodes>
      <leafValues>
        -7.8390806913375854e-01 8.5454547405242920e-01</leafValues></_>
    <_>
      <internalNodes>
        0 -1 155438 1.4134356379508972e-01</internalNodes>
      <leafValues>
        -7.6821845769882202e-01 5.6553047895431519e-01</leafValues></_>
    <_>
      <internalNodes>
        0 -1 222565 3.9547227323055267e-02</internalNodes>
      <leafValues>
        -8.3150511980056763e-01 5.4484456777572632e-01</leafValues></_>
    <_>
      <internalNodes>
        0 -1 64810 3.1049409881234169e-04</internalNodes>
      <leafValues>
        -6.7425042390823364e-01 5.9908187389373779e-01</leafValues></_>
    <_>
      <internalNodes>
        0 -1 17087 -3.2219827175140381e-02</internalNodes>
      <leafValues>
        4.8533749580383301e-01 -9.0949934720993042e-01</leafValues></_></weakClassifiers></stage6>
</opencv_storage>
