<?xml version="1.0"?>
<opencv_storage>
<cascade>
  <stageType>BOOST</stageType>
  <featureType>HAAR</featureType>
  <height>30</height>
  <width>20</width>
  <stageParams>
    <boostType>GAB</boostType>
    <minHitRate>9.9500000476837158e-01</minHitRate>
    <maxFalseAlarm>4.0000000596046448e-01</maxFalseAlarm>
    <weightTrimRate>9.4999999999999996e-01</weightTrimRate>
    <maxDepth>1</maxDepth>
    <maxWeakCount>100</maxWeakCount></stageParams>
  <featureParams>
    <maxCatCount>0</maxCatCount>
    <featSize>1</featSize>
    <mode>ALL</mode></featureParams>
  <stageNum>8</stageNum>
  <stages>
    <!-- stage 0 -->
    <_>
      <maxWeakCount>2</maxWeakCount>
      <stageThreshold>-8.3822272717952728e-02</stageThreshold>
      <weakClassifiers>
        <_>
          <internalNodes>
            0 -1 6 7.0284843444824219e-02</internalNodes>
          <leafValues>
            -9.8238992691040039e-01 9.4074076414108276e-01</leafValues></_>
        <_>
          <internalNodes>
            0 -1 21 -5.0894018262624741e-02</internalNodes>
          <leafValues>
            8.9856767654418945e-01 -9.7565704584121704e-01</leafValues></_></weakClassifiers></_>
    <!-- stage 1 -->
    <_>
      <maxWeakCount>2</maxWeakCount>
      <stageThreshold>-2.8422859311103821e-01</stageThreshold>
      <weakClassifiers>
        <_>
          <internalNodes>
            0 -1 5 -6.7749574780464172e-02</internalNodes>
          <leafValues>
            7.8231292963027954e-01 -9.8155468702316284e-01</leafValues></_>
        <_>
          <internalNodes>
            0 -1 13 -3.4337483346462250e-02</internalNodes>
          <leafValues>
            6.9732612371444702e-01 -9.4499999284744263e-01</leafValues></_></weakClassifiers></_>
    <!-- stage 2 -->
    <_>
      <maxWeakCount>3</maxWeakCount>
      <stageThreshold>-1.0413107872009277e+00</stageThreshold>
      <weakClassifiers>
        <_>
          <internalNodes>
            0 -1 8 7.1536257863044739e-02</internalNodes>
          <leafValues>
            -9.2602038383483887e-01 7.8365385532379150e-01</leafValues></_>
        <_>
          <internalNodes>
            0 -1 12 -1.1771024018526077e-01</internalNodes>
          <leafValues>
            6.9156908988952637e-01 -8.8533437252044678e-01</leafValues></_>
        <_>
          <internalNodes>
            0 -1 3 -1.0633443295955658e-01</internalNodes>
          <leafValues>
            7.7811706066131592e-01 -8.0685949325561523e-01</leafValues></_></weakClassifiers></_>
    <!-- stage 3 -->
    <_>
      <maxWeakCount>5</maxWeakCount>
      <stageThreshold>-1.1953117847442627e+00</stageThreshold>
      <weakClassifiers>
        <_>
          <internalNodes>
            0 -1 22 -5.2078217267990112e-02</internalNodes>
          <leafValues>
            7.6863753795623779e-01 -8.6189889907836914e-01</leafValues></_>
        <_>
          <internalNodes>
            0 -1 0 -3.6721712350845337e-01</internalNodes>
          <leafValues>
            6.3143098354339600e-01 -8.7375569343566895e-01</leafValues></_>
        <_>
          <internalNodes>
            0 -1 4 -7.4259512126445770e-02</internalNodes>
          <leafValues>
            6.8351954221725464e-01 -7.5041168928146362e-01</leafValues></_>
        <_>
          <internalNodes>
            0 -1 26 -5.7009523734450340e-03</internalNodes>
          <leafValues>
            6.7236202955245972e-01 -7.6666748523712158e-01</leafValues></_>
        <_>
          <internalNodes>
            0 -1 1 -6.3842318952083588e-02</internalNodes>
          <leafValues>
            6.2349081039428711e-01 -6.9073432683944702e-01</leafValues></_></weakClassifiers></_>
    <!-- stage 4 -->
    <_>
      <maxWeakCount>3</maxWeakCount>
      <stageThreshold>-1.2242161035537720e+00</stageThreshold>
      <weakClassifiers>
        <_>
          <internalNodes>
            0 -1 18 -1.9582804292440414e-02</internalNodes>
          <leafValues>
            7.6247030496597290e-01 -9.2554557323455811e-01</leafValues></_>
        <_>
          <internalNodes>
            0 -1 11 -3.2946310937404633e-02</internalNodes>
          <leafValues>
            7.2540038824081421e-01 -8.5230439901351929e-01</leafValues></_>
        <_>
          <internalNodes>
            0 -1 10 2.5003707408905029e-01</internalNodes>
          <leafValues>
            -8.9605230093002319e-01 5.5363380908966064e-01</leafValues></_></weakClassifiers></_>
    <!-- stage 5 -->
    <_>
      <maxWeakCount>5</maxWeakCount>
      <stageThreshold>-1.3500627279281616e+00</stageThreshold>
      <weakClassifiers>
        <_>
          <internalNodes>
            0 -1 24 8.7892562150955200e-02</internalNodes>
          <leafValues>
            -7.8947371244430542e-01 7.9710143804550171e-01</leafValues></_>
        <_>
          <internalNodes>
            0 -1 3 -1.0179332643747330e-01</internalNodes>
          <leafValues>
            5.0434654951095581e-01 -8.6177134513854980e-01</leafValues></_>
        <_>
          <internalNodes>
            0 -1 7 1.0197542607784271e-02</internalNodes>
          <leafValues>
            -9.1047304868698120e-01 4.7171318531036377e-01</leafValues></_>
        <_>
          <internalNodes>
            0 -1 14 -1.1625967919826508e-02</internalNodes>
          <leafValues>
            8.3822911977767944e-01 -5.2716779708862305e-01</leafValues></_>
        <_>
          <internalNodes>
            0 -1 17 9.0237304568290710e-02</internalNodes>
          <leafValues>
            -9.8137998580932617e-01 3.7270519137382507e-01</leafValues></_></weakClassifiers></_>
    <!-- stage 6 -->
    <_>
      <maxWeakCount>4</maxWeakCount>
      <stageThreshold>-1.8654530048370361e+00</stageThreshold>
      <weakClassifiers>
        <_>
          <internalNodes>
            0 -1 25 7.1923779323697090e-03</internalNodes>
          <leafValues>
            -8.3961117267608643e-01 7.7188330888748169e-01</leafValues></_>
        <_>
          <internalNodes>
            0 -1 16 -7.2230612859129906e-03</internalNodes>
          <leafValues>
            5.0155383348464966e-01 -8.3891659975051880e-01</leafValues></_>
        <_>
          <internalNodes>
            0 -1 23 3.9080707356333733e-03</internalNodes>
          <leafValues>
            -8.9173448085784912e-01 4.8073932528495789e-01</leafValues></_>
        <_>
          <internalNodes>
            0 -1 9 -2.2292651236057281e-02</internalNodes>
          <leafValues>
            6.1345547437667847e-01 -6.6766452789306641e-01</leafValues></_></weakClassifiers></_>
    <!-- stage 7 -->
    <_>
      <maxWeakCount>5</maxWeakCount>
      <stageThreshold>-1.8747829198837280e+00</stageThreshold>
      <weakClassifiers>
        <_>
          <internalNodes>
            0 -1 20 -1.6545230522751808e-02</internalNodes>
          <leafValues>
            8.0000001192092896e-01 -8.0000001192092896e-01</leafValues></_>
        <_>
          <internalNodes>
            0 -1 13 -4.2817555367946625e-02</internalNodes>
          <leafValues>
            9.5069766044616699e-01 -5.6008499860763550e-01</leafValues></_>
        <_>
          <internalNodes>
            0 -1 19 -1.6179688274860382e-02</internalNodes>
          <leafValues>
            6.1974102258682251e-01 -7.4936163425445557e-01</leafValues></_>
        <_>
          <internalNodes>
            0 -1 15 -1.9131475128233433e-03</internalNodes>
          <leafValues>
            7.0346230268478394e-01 -6.9285851716995239e-01</leafValues></_>
        <_>
          <internalNodes>
            0 -1 2 -3.0823433771729469e-02</internalNodes>
          <leafValues>
            9.2752218246459961e-01 -5.5252224206924438e-01</leafValues></_></weakClassifiers></_></stages>
  <features>
    <_>
      <rects>
        <_>
          0 7 18 9 -1.</_>
        <_>
          6 10 6 3 9.</_></rects>
      <tilted>0</tilted></_>
    <_>
      <rects>
        <_>
          0 10 20 2 -1.</_>
        <_>
          5 10 10 2 2.</_></rects>
      <tilted>0</tilted></_>
    <_>
      <rects>
        <_>
          0 24 8 2 -1.</_>
        <_>
          4 24 4 2 2.</_></rects>
      <tilted>0</tilted></_>
    <_>
      <rects>
        <_>
          0 24 20 5 -1.</_>
        <_>
          5 24 10 5 2.</_></rects>
      <tilted>0</tilted></_>
    <_>
      <rects>
        <_>
          1 18 8 7 -1.</_>
        <_>
          3 18 4 7 2.</_></rects>
      <tilted>0</tilted></_>
    <_>
      <rects>
        <_>
          1 21 10 8 -1.</_>
        <_>
          1 21 5 4 2.</_>
        <_>
          6 25 5 4 2.</_></rects>
      <tilted>0</tilted></_>
    <_>
      <rects>
        <_>
          2 9 10 8 -1.</_>
        <_>
          2 9 5 4 2.</_>
        <_>
          7 13 5 4 2.</_></rects>
      <tilted>0</tilted></_>
    <_>
      <rects>
        <_>
          2 14 18 3 -1.</_>
        <_>
          11 14 9 3 2.</_></rects>
      <tilted>0</tilted></_>
    <_>
      <rects>
        <_>
          3 9 6 12 -1.</_>
        <_>
          3 9 3 6 2.</_>
        <_>
          6 15 3 6 2.</_></rects>
      <tilted>0</tilted></_>
    <_>
      <rects>
        <_>
          3 23 6 4 -1.</_>
        <_>
          5 23 2 4 3.</_></rects>
      <tilted>0</tilted></_>
    <_>
      <rects>
        <_>
          6 9 14 20 -1.</_>
        <_>
          6 14 14 10 2.</_></rects>
      <tilted>0</tilted></_>
    <_>
      <rects>
        <_>
          6 14 3 6 -1.</_>
        <_>
          4 16 3 2 3.</_></rects>
      <tilted>1</tilted></_>
    <_>
      <rects>
        <_>
          6 20 14 8 -1.</_>
        <_>
          6 24 14 4 2.</_></rects>
      <tilted>0</tilted></_>
    <_>
      <rects>
        <_>
          8 5 12 1 -1.</_>
        <_>
          11 8 6 1 2.</_></rects>
      <tilted>1</tilted></_>
    <_>
      <rects>
        <_>
          8 20 8 6 -1.</_>
        <_>
          8 20 4 3 2.</_>
        <_>
          12 23 4 3 2.</_></rects>
      <tilted>0</tilted></_>
    <_>
      <rects>
        <_>
          9 16 4 9 -1.</_>
        <_>
          11 16 2 9 2.</_></rects>
      <tilted>0</tilted></_>
    <_>
      <rects>
        <_>
          10 2 4 20 -1.</_>
        <_>
          10 2 2 10 2.</_>
        <_>
          12 12 2 10 2.</_></rects>
      <tilted>0</tilted></_>
    <_>
      <rects>
        <_>
          11 0 6 11 -1.</_>
        <_>
          11 0 3 11 2.</_></rects>
      <tilted>1</tilted></_>
    <_>
      <rects>
        <_>
          11 23 6 1 -1.</_>
        <_>
          13 25 2 1 3.</_></rects>
      <tilted>1</tilted></_>
    <_>
      <rects>
        <_>
          12 9 6 16 -1.</_>
        <_>
          12 9 3 8 2.</_>
        <_>
          15 17 3 8 2.</_></rects>
      <tilted>0</tilted></_>
    <_>
      <rects>
        <_>
          12 23 6 4 -1.</_>
        <_>
          14 23 2 4 3.</_></rects>
      <tilted>0</tilted></_>
    <_>
      <rects>
        <_>
          13 6 5 6 -1.</_>
        <_>
          11 8 5 2 3.</_></rects>
      <tilted>1</tilted></_>
    <_>
      <rects>
        <_>
          13 21 3 9 -1.</_>
        <_>
          14 24 1 3 9.</_></rects>
      <tilted>0</tilted></_>
    <_>
      <rects>
        <_>
          14 18 6 4 -1.</_>
        <_>
          14 18 6 2 2.</_></rects>
      <tilted>1</tilted></_>
    <_>
      <rects>
        <_>
          15 10 2 12 -1.</_>
        <_>
          12 13 2 6 2.</_></rects>
      <tilted>1</tilted></_>
    <_>
      <rects>
        <_>
          16 22 3 2 -1.</_>
        <_>
          16 22 3 1 2.</_></rects>
      <tilted>1</tilted></_>
    <_>
      <rects>
        <_>
          17 11 2 17 -1.</_>
        <_>
          17 11 1 17 2.</_></rects>
      <tilted>1</tilted></_></features></cascade>
</opencv_storage>
