<?xml version="1.0"?>
<opencv_storage>
<stage5>
  <maxWeakCount>6</maxWeakCount>
  <stageThreshold>-1.7094571590423584e+00</stageThreshold>
  <weakClassifiers>
    <_>
      <internalNodes>
        0 -1 103040 -5.9495117515325546e-02</internalNodes>
      <leafValues>
        7.8969073295593262e-01 -8.6995071172714233e-01</leafValues></_>
    <_>
      <internalNodes>
        0 -1 116361 2.5467497110366821e-01</internalNodes>
      <leafValues>
        -7.2280359268188477e-01 7.8946584463119507e-01</leafValues></_>
    <_>
      <internalNodes>
        0 -1 260470 -7.2368152439594269e-02</internalNodes>
      <leafValues>
        6.5135705471038818e-01 -7.4834012985229492e-01</leafValues></_>
    <_>
      <internalNodes>
        0 -1 85022 2.0758612081408501e-03</internalNodes>
      <leafValues>
        -7.5668215751647949e-01 5.8254927396774292e-01</leafValues></_>
    <_>
      <internalNodes>
        0 -1 250481 -6.3070610165596008e-02</internalNodes>
      <leafValues>
        5.1802319288253784e-01 -7.0752096176147461e-01</leafValues></_>
    <_>
      <internalNodes>
        0 -1 234943 -2.9803235083818436e-03</internalNodes>
      <leafValues>
        7.5660896301269531e-01 -5.0538778305053711e-01</leafValues></_></weakClassifiers></stage5>
</opencv_storage>
