<?xml version="1.0"?>
<opencv_storage>
<cascade>
  <stageType>BOOST</stageType>
  <featureType>HAAR</featureType>
  <height>30</height>
  <width>20</width>
  <stageParams>
    <boostType>GAB</boostType>
    <minHitRate>9.9500000476837158e-01</minHitRate>
    <maxFalseAlarm>4.0000000596046448e-01</maxFalseAlarm>
    <weightTrimRate>9.4999999999999996e-01</weightTrimRate>
    <maxDepth>1</maxDepth>
    <maxWeakCount>100</maxWeakCount></stageParams>
  <featureParams>
    <maxCatCount>0</maxCatCount>
    <featSize>1</featSize>
    <mode>ALL</mode></featureParams>
  <stageNum>13</stageNum>
  <stages>
    <!-- stage 0 -->
    <_>
      <maxWeakCount>5</maxWeakCount>
      <stageThreshold>-1.3399736881256104e+00</stageThreshold>
      <weakClassifiers>
        <_>
          <internalNodes>
            0 -1 35 -2.4558788165450096e-02</internalNodes>
          <leafValues>
            5.9943181276321411e-01 -9.3248176574707031e-01</leafValues></_>
        <_>
          <internalNodes>
            0 -1 18 -7.0373088121414185e-02</internalNodes>
          <leafValues>
            7.3628878593444824e-01 -7.5818252563476562e-01</leafValues></_>
        <_>
          <internalNodes>
            0 -1 75 -1.1764026433229446e-01</internalNodes>
          <leafValues>
            8.1362205743789673e-01 -6.5639144182205200e-01</leafValues></_>
        <_>
          <internalNodes>
            0 -1 32 7.4886865913867950e-03</internalNodes>
          <leafValues>
            -8.0400371551513672e-01 5.7443630695343018e-01</leafValues></_>
        <_>
          <internalNodes>
            0 -1 47 -1.3298052549362183e-01</internalNodes>
          <leafValues>
            4.3264570832252502e-01 -8.5283613204956055e-01</leafValues></_></weakClassifiers></_>
    <!-- stage 1 -->
    <_>
      <maxWeakCount>6</maxWeakCount>
      <stageThreshold>-1.6912965774536133e+00</stageThreshold>
      <weakClassifiers>
        <_>
          <internalNodes>
            0 -1 81 4.0528446435928345e-02</internalNodes>
          <leafValues>
            -7.1538460254669189e-01 6.6000002622604370e-01</leafValues></_>
        <_>
          <internalNodes>
            0 -1 85 3.0954932793974876e-02</internalNodes>
          <leafValues>
            -8.4960126876831055e-01 4.7220116853713989e-01</leafValues></_>
        <_>
          <internalNodes>
            0 -1 40 4.8455661162734032e-03</internalNodes>
          <leafValues>
            -7.3407793045043945e-01 3.9898186922073364e-01</leafValues></_>
        <_>
          <internalNodes>
            0 -1 41 -1.2227034568786621e-01</internalNodes>
          <leafValues>
            3.6006245017051697e-01 -8.4854865074157715e-01</leafValues></_>
        <_>
          <internalNodes>
            0 -1 42 6.8878225982189178e-02</internalNodes>
          <leafValues>
            -6.0427325963973999e-01 4.6418833732604980e-01</leafValues></_>
        <_>
          <internalNodes>
            0 -1 38 -9.0747633948922157e-03</internalNodes>
          <leafValues>
            8.5197800397872925e-01 -3.6029896140098572e-01</leafValues></_></weakClassifiers></_>
    <!-- stage 2 -->
    <_>
      <maxWeakCount>6</maxWeakCount>
      <stageThreshold>-1.5891631841659546e+00</stageThreshold>
      <weakClassifiers>
        <_>
          <internalNodes>
            0 -1 58 -1.0102243721485138e-01</internalNodes>
          <leafValues>
            7.2354209423065186e-01 -6.9932687282562256e-01</leafValues></_>
        <_>
          <internalNodes>
            0 -1 91 3.9707511663436890e-02</internalNodes>
          <leafValues>
            -6.2837660312652588e-01 5.9752339124679565e-01</leafValues></_>
        <_>
          <internalNodes>
            0 -1 44 -2.2997353225946426e-02</internalNodes>
          <leafValues>
            4.2529404163360596e-01 -8.0405807495117188e-01</leafValues></_>
        <_>
          <internalNodes>
            0 -1 96 1.7785504460334778e-02</internalNodes>
          <leafValues>
            -4.7601038217544556e-01 5.7310670614242554e-01</leafValues></_>
        <_>
          <internalNodes>
            0 -1 32 7.7095199376344681e-03</internalNodes>
          <leafValues>
            -7.8073149919509888e-01 3.8192072510719299e-01</leafValues></_>
        <_>
          <internalNodes>
            0 -1 17 -1.8292325735092163e-01</internalNodes>
          <leafValues>
            6.9281357526779175e-01 -4.7567683458328247e-01</leafValues></_></weakClassifiers></_>
    <!-- stage 3 -->
    <_>
      <maxWeakCount>8</maxWeakCount>
      <stageThreshold>-1.2886308431625366e+00</stageThreshold>
      <weakClassifiers>
        <_>
          <internalNodes>
            0 -1 76 -8.9917043223977089e-03</internalNodes>
          <leafValues>
            4.6166950464248657e-01 -7.1805441379547119e-01</leafValues></_>
        <_>
          <internalNodes>
            0 -1 24 -4.5408248901367188e-02</internalNodes>
          <leafValues>
            6.4539521932601929e-01 -6.2262648344039917e-01</leafValues></_>
        <_>
          <internalNodes>
            0 -1 31 2.6891392190009356e-03</internalNodes>
          <leafValues>
            -8.2029187679290771e-01 2.7160188555717468e-01</leafValues></_>
        <_>
          <internalNodes>
            0 -1 82 1.8342491239309311e-02</internalNodes>
          <leafValues>
            -3.7338888645172119e-01 6.7532736063003540e-01</leafValues></_>
        <_>
          <internalNodes>
            0 -1 74 -6.4031437039375305e-02</internalNodes>
          <leafValues>
            4.2783886194229126e-01 -7.4575263261795044e-01</leafValues></_>
        <_>
          <internalNodes>
            0 -1 63 -5.4194688796997070e-02</internalNodes>
          <leafValues>
            6.5141344070434570e-01 -3.6322623491287231e-01</leafValues></_>
        <_>
          <internalNodes>
            0 -1 16 -8.6839318275451660e-02</internalNodes>
          <leafValues>
            6.7207783460617065e-01 -3.0995929241180420e-01</leafValues></_>
        <_>
          <internalNodes>
            0 -1 101 7.1291564963757992e-03</internalNodes>
          <leafValues>
            -5.8898586034774780e-01 4.0051001310348511e-01</leafValues></_></weakClassifiers></_>
    <!-- stage 4 -->
    <_>
      <maxWeakCount>8</maxWeakCount>
      <stageThreshold>-1.3497902154922485e+00</stageThreshold>
      <weakClassifiers>
        <_>
          <internalNodes>
            0 -1 21 -2.3403204977512360e-02</internalNodes>
          <leafValues>
            5.3003531694412231e-01 -7.2933548688888550e-01</leafValues></_>
        <_>
          <internalNodes>
            0 -1 14 -3.8073754310607910e-01</internalNodes>
          <leafValues>
            6.9612348079681396e-01 -4.4061136245727539e-01</leafValues></_>
        <_>
          <internalNodes>
            0 -1 68 9.8478682339191437e-03</internalNodes>
          <leafValues>
            -7.5164926052093506e-01 3.6306092143058777e-01</leafValues></_>
        <_>
          <internalNodes>
            0 -1 86 -1.3827311992645264e-01</internalNodes>
          <leafValues>
            5.1874941587448120e-01 -4.4499355554580688e-01</leafValues></_>
        <_>
          <internalNodes>
            0 -1 57 -4.4126078486442566e-02</internalNodes>
          <leafValues>
            5.6204801797866821e-01 -4.6579313278198242e-01</leafValues></_>
        <_>
          <internalNodes>
            0 -1 71 -1.3495389372110367e-02</internalNodes>
          <leafValues>
            2.1898594498634338e-01 -9.3367385864257812e-01</leafValues></_>
        <_>
          <internalNodes>
            0 -1 23 -1.4926689863204956e-01</internalNodes>
          <leafValues>
            5.3800225257873535e-01 -3.9751130342483521e-01</leafValues></_>
        <_>
          <internalNodes>
            0 -1 37 -2.3105376958847046e-01</internalNodes>
          <leafValues>
            7.6763987541198730e-01 -3.0223673582077026e-01</leafValues></_></weakClassifiers></_>
    <!-- stage 5 -->
    <_>
      <maxWeakCount>7</maxWeakCount>
      <stageThreshold>-1.5757074356079102e+00</stageThreshold>
      <weakClassifiers>
        <_>
          <internalNodes>
            0 -1 4 -1.9609967246651649e-02</internalNodes>
          <leafValues>
            5.8091288805007935e-01 -6.6767829656600952e-01</leafValues></_>
        <_>
          <internalNodes>
            0 -1 46 1.2840538285672665e-02</internalNodes>
          <leafValues>
            -5.3653603792190552e-01 6.0193783044815063e-01</leafValues></_>
        <_>
          <internalNodes>
            0 -1 34 2.7131908573210239e-03</internalNodes>
          <leafValues>
            -6.9567006826400757e-01 3.6026322841644287e-01</leafValues></_>
        <_>
          <internalNodes>
            0 -1 0 2.7634413912892342e-02</internalNodes>
          <leafValues>
            2.1062417328357697e-01 -8.7718653678894043e-01</leafValues></_>
        <_>
          <internalNodes>
            0 -1 49 -4.7135107219219208e-02</internalNodes>
          <leafValues>
            8.3013659715652466e-01 -2.6903888583183289e-01</leafValues></_>
        <_>
          <internalNodes>
            0 -1 103 1.3067403051536530e-04</internalNodes>
          <leafValues>
            4.3430119752883911e-01 -4.2516633868217468e-01</leafValues></_>
        <_>
          <internalNodes>
            0 -1 79 -9.7523890435695648e-03</internalNodes>
          <leafValues>
            6.8468254804611206e-01 -2.4817527830600739e-01</leafValues></_></weakClassifiers></_>
    <!-- stage 6 -->
    <_>
      <maxWeakCount>10</maxWeakCount>
      <stageThreshold>-1.2587157487869263e+00</stageThreshold>
      <weakClassifiers>
        <_>
          <internalNodes>
            0 -1 13 -2.5153800845146179e-01</internalNodes>
          <leafValues>
            4.5414847135543823e-01 -6.0208642482757568e-01</leafValues></_>
        <_>
          <internalNodes>
            0 -1 94 -1.0858879250008613e-05</internalNodes>
          <leafValues>
            3.4574213624000549e-01 -5.1955056190490723e-01</leafValues></_>
        <_>
          <internalNodes>
            0 -1 97 -8.4396926686167717e-03</internalNodes>
          <leafValues>
            5.7747626304626465e-01 -3.4590217471122742e-01</leafValues></_>
        <_>
          <internalNodes>
            0 -1 87 -2.4269483983516693e-03</internalNodes>
          <leafValues>
            6.0005468130111694e-01 -3.7332418560981750e-01</leafValues></_>
        <_>
          <internalNodes>
            0 -1 92 4.6490542590618134e-02</internalNodes>
          <leafValues>
            -7.4511456489562988e-01 2.3775106668472290e-01</leafValues></_>
        <_>
          <internalNodes>
            0 -1 39 4.5500338077545166e-02</internalNodes>
          <leafValues>
            -2.4617914855480194e-01 6.5646350383758545e-01</leafValues></_>
        <_>
          <internalNodes>
            0 -1 93 2.6617072522640228e-02</internalNodes>
          <leafValues>
            -4.6743083000183105e-01 3.4208387136459351e-01</leafValues></_>
        <_>
          <internalNodes>
            0 -1 15 -4.0872985124588013e-01</internalNodes>
          <leafValues>
            7.5384223461151123e-01 -2.3751373589038849e-01</leafValues></_>
        <_>
          <internalNodes>
            0 -1 33 2.3537015076726675e-03</internalNodes>
          <leafValues>
            -5.7411831617355347e-01 2.4546997249126434e-01</leafValues></_>
        <_>
          <internalNodes>
            0 -1 83 -1.6568401828408241e-02</internalNodes>
          <leafValues>
            3.5810849070549011e-01 -4.3231615424156189e-01</leafValues></_></weakClassifiers></_>
    <!-- stage 7 -->
    <_>
      <maxWeakCount>9</maxWeakCount>
      <stageThreshold>-1.4651992321014404e+00</stageThreshold>
      <weakClassifiers>
        <_>
          <internalNodes>
            0 -1 12 -2.1749343723058701e-03</internalNodes>
          <leafValues>
            2.4637681245803833e-01 -6.9369369745254517e-01</leafValues></_>
        <_>
          <internalNodes>
            0 -1 84 1.5402945689857006e-02</internalNodes>
          <leafValues>
            -3.8868045806884766e-01 5.7428419589996338e-01</leafValues></_>
        <_>
          <internalNodes>
            0 -1 88 -3.4298039972782135e-02</internalNodes>
          <leafValues>
            5.0102579593658447e-01 -3.5303685069084167e-01</leafValues></_>
        <_>
          <internalNodes>
            0 -1 62 7.4134301394224167e-03</internalNodes>
          <leafValues>
            -8.0056542158126831e-01 2.5344040989875793e-01</leafValues></_>
        <_>
          <internalNodes>
            0 -1 11 -7.7308014035224915e-02</internalNodes>
          <leafValues>
            4.7961339354515076e-01 -4.1156145930290222e-01</leafValues></_>
        <_>
          <internalNodes>
            0 -1 60 -4.1406031697988510e-02</internalNodes>
          <leafValues>
            7.6839858293533325e-01 -1.9577769935131073e-01</leafValues></_>
        <_>
          <internalNodes>
            0 -1 109 9.4820745289325714e-03</internalNodes>
          <leafValues>
            2.4586229026317596e-01 -7.9321175813674927e-01</leafValues></_>
        <_>
          <internalNodes>
            0 -1 56 7.8177191317081451e-03</internalNodes>
          <leafValues>
            -4.6000349521636963e-01 3.0161714553833008e-01</leafValues></_>
        <_>
          <internalNodes>
            0 -1 95 -1.9962256774306297e-02</internalNodes>
          <leafValues>
            5.3825175762176514e-01 -3.1307575106620789e-01</leafValues></_></weakClassifiers></_>
    <!-- stage 8 -->
    <_>
      <maxWeakCount>9</maxWeakCount>
      <stageThreshold>-1.2413303852081299e+00</stageThreshold>
      <weakClassifiers>
        <_>
          <internalNodes>
            0 -1 59 3.5283789038658142e-02</internalNodes>
          <leafValues>
            -5.3764861822128296e-01 7.4825173616409302e-01</leafValues></_>
        <_>
          <internalNodes>
            0 -1 3 -2.0847612177021801e-04</internalNodes>
          <leafValues>
            4.6930351853370667e-01 -4.9901908636093140e-01</leafValues></_>
        <_>
          <internalNodes>
            0 -1 70 2.0066058263182640e-02</internalNodes>
          <leafValues>
            -7.1890473365783691e-01 2.5721400976181030e-01</leafValues></_>
        <_>
          <internalNodes>
            0 -1 90 5.6439633481204510e-03</internalNodes>
          <leafValues>
            2.6345652341842651e-01 -7.0431357622146606e-01</leafValues></_>
        <_>
          <internalNodes>
            0 -1 54 8.5348471999168396e-02</internalNodes>
          <leafValues>
            -3.3479601144790649e-01 5.8579325675964355e-01</leafValues></_>
        <_>
          <internalNodes>
            0 -1 111 -8.6032282561063766e-03</internalNodes>
          <leafValues>
            7.3739463090896606e-01 -1.9871872663497925e-01</leafValues></_>
        <_>
          <internalNodes>
            0 -1 45 -2.5420647859573364e-01</internalNodes>
          <leafValues>
            8.1273251771926880e-01 -1.8900448083877563e-01</leafValues></_>
        <_>
          <internalNodes>
            0 -1 7 1.2029564008116722e-02</internalNodes>
          <leafValues>
            -2.6349040865898132e-01 6.2601363658905029e-01</leafValues></_>
        <_>
          <internalNodes>
            0 -1 30 3.6795956548303366e-03</internalNodes>
          <leafValues>
            3.3894243836402893e-01 -5.0526028871536255e-01</leafValues></_></weakClassifiers></_>
    <!-- stage 9 -->
    <_>
      <maxWeakCount>14</maxWeakCount>
      <stageThreshold>-1.5026448965072632e+00</stageThreshold>
      <weakClassifiers>
        <_>
          <internalNodes>
            0 -1 53 1.4954248070716858e-01</internalNodes>
          <leafValues>
            -5.0288277864456177e-01 7.7405858039855957e-01</leafValues></_>
        <_>
          <internalNodes>
            0 -1 28 -3.9047207683324814e-03</internalNodes>
          <leafValues>
            -8.0064868927001953e-01 1.6973869502544403e-01</leafValues></_>
        <_>
          <internalNodes>
            0 -1 20 9.8662858363240957e-04</internalNodes>
          <leafValues>
            1.5227147936820984e-01 -7.4123317003250122e-01</leafValues></_>
        <_>
          <internalNodes>
            0 -1 66 -1.3457526266574860e-01</internalNodes>
          <leafValues>
            4.9067145586013794e-01 -2.6406523585319519e-01</leafValues></_>
        <_>
          <internalNodes>
            0 -1 9 -8.6347796022891998e-02</internalNodes>
          <leafValues>
            3.3209952712059021e-01 -4.6554085612297058e-01</leafValues></_>
        <_>
          <internalNodes>
            0 -1 99 -4.7348188236355782e-03</internalNodes>
          <leafValues>
            3.0323645472526550e-01 -4.9855083227157593e-01</leafValues></_>
        <_>
          <internalNodes>
            0 -1 55 -1.9548488780856133e-02</internalNodes>
          <leafValues>
            -8.6821156740188599e-01 1.8784844875335693e-01</leafValues></_>
        <_>
          <internalNodes>
            0 -1 105 2.4739196524024010e-02</internalNodes>
          <leafValues>
            1.1111119389533997e-01 -7.9236441850662231e-01</leafValues></_>
        <_>
          <internalNodes>
            0 -1 102 5.1297945901751518e-03</internalNodes>
          <leafValues>
            1.7776452004909515e-01 -8.0374652147293091e-01</leafValues></_>
        <_>
          <internalNodes>
            0 -1 25 2.2829200315754861e-04</internalNodes>
          <leafValues>
            1.8361926078796387e-01 -5.5440640449523926e-01</leafValues></_>
        <_>
          <internalNodes>
            0 -1 29 1.0489152744412422e-02</internalNodes>
          <leafValues>
            9.7659662365913391e-02 -8.3902013301849365e-01</leafValues></_>
        <_>
          <internalNodes>
            0 -1 64 -2.1964728832244873e-01</internalNodes>
          <leafValues>
            4.5981112122535706e-01 -3.1282708048820496e-01</leafValues></_>
        <_>
          <internalNodes>
            0 -1 110 -7.6398001983761787e-03</internalNodes>
          <leafValues>
            -7.8030681610107422e-01 1.7052660882472992e-01</leafValues></_>
        <_>
          <internalNodes>
            0 -1 80 -1.5190332196652889e-03</internalNodes>
          <leafValues>
            2.8358906507492065e-01 -3.8809591531753540e-01</leafValues></_></weakClassifiers></_>
    <!-- stage 10 -->
    <_>
      <maxWeakCount>13</maxWeakCount>
      <stageThreshold>-1.3395317792892456e+00</stageThreshold>
      <weakClassifiers>
        <_>
          <internalNodes>
            0 -1 53 1.4954248070716858e-01</internalNodes>
          <leafValues>
            -4.9902912974357605e-01 6.7058825492858887e-01</leafValues></_>
        <_>
          <internalNodes>
            0 -1 43 -4.4100619852542877e-02</internalNodes>
          <leafValues>
            3.2684680819511414e-01 -4.3732720613479614e-01</leafValues></_>
        <_>
          <internalNodes>
            0 -1 61 7.7274486422538757e-02</internalNodes>
          <leafValues>
            -2.2956307232379913e-01 9.4046890735626221e-01</leafValues></_>
        <_>
          <internalNodes>
            0 -1 67 -2.3951011826284230e-04</internalNodes>
          <leafValues>
            2.9479831457138062e-01 -6.6436290740966797e-01</leafValues></_>
        <_>
          <internalNodes>
            0 -1 19 -2.6675178669393063e-03</internalNodes>
          <leafValues>
            -4.8439264297485352e-01 2.9308378696441650e-01</leafValues></_>
        <_>
          <internalNodes>
            0 -1 22 -7.7842533588409424e-02</internalNodes>
          <leafValues>
            8.0536711215972900e-01 -2.0160721242427826e-01</leafValues></_>
        <_>
          <internalNodes>
            0 -1 2 -3.3466849708929658e-04</internalNodes>
          <leafValues>
            3.8393071293830872e-01 -3.6615735292434692e-01</leafValues></_>
        <_>
          <internalNodes>
            0 -1 73 8.6042374372482300e-02</internalNodes>
          <leafValues>
            -1.3753749430179596e-01 9.3362408876419067e-01</leafValues></_>
        <_>
          <internalNodes>
            0 -1 8 -6.1477772891521454e-02</internalNodes>
          <leafValues>
            2.8105098009109497e-01 -5.9988790750503540e-01</leafValues></_>
        <_>
          <internalNodes>
            0 -1 65 -1.3807134702801704e-02</internalNodes>
          <leafValues>
            6.4020675420761108e-01 -2.6787993311882019e-01</leafValues></_>
        <_>
          <internalNodes>
            0 -1 5 3.7417566636577249e-04</internalNodes>
          <leafValues>
            -8.1053107976913452e-01 1.8234339356422424e-01</leafValues></_>
        <_>
          <internalNodes>
            0 -1 100 3.6367407301440835e-04</internalNodes>
          <leafValues>
            -3.1044119596481323e-01 4.6154260635375977e-01</leafValues></_>
        <_>
          <internalNodes>
            0 -1 104 2.8663771227002144e-03</internalNodes>
          <leafValues>
            1.7549918591976166e-01 -6.6088491678237915e-01</leafValues></_></weakClassifiers></_>
    <!-- stage 11 -->
    <_>
      <maxWeakCount>11</maxWeakCount>
      <stageThreshold>-1.5345320701599121e+00</stageThreshold>
      <weakClassifiers>
        <_>
          <internalNodes>
            0 -1 48 8.3097383379936218e-02</internalNodes>
          <leafValues>
            -5.4378819465637207e-01 6.1467891931533813e-01</leafValues></_>
        <_>
          <internalNodes>
            0 -1 1 -1.5429264749400318e-04</internalNodes>
          <leafValues>
            4.1012921929359436e-01 -4.7278511524200439e-01</leafValues></_>
        <_>
          <internalNodes>
            0 -1 26 2.7857657521963120e-02</internalNodes>
          <leafValues>
            -2.3018313944339752e-01 8.0316936969757080e-01</leafValues></_>
        <_>
          <internalNodes>
            0 -1 89 9.0644415467977524e-03</internalNodes>
          <leafValues>
            -3.0550667643547058e-01 6.6629922389984131e-01</leafValues></_>
        <_>
          <internalNodes>
            0 -1 107 -1.2802606761397328e-05</internalNodes>
          <leafValues>
            3.7099912762641907e-01 -4.7769123315811157e-01</leafValues></_>
        <_>
          <internalNodes>
            0 -1 106 -3.2279886305332184e-02</internalNodes>
          <leafValues>
            -9.8199605941772461e-01 2.3552899062633514e-01</leafValues></_>
        <_>
          <internalNodes>
            0 -1 36 4.0283557027578354e-03</internalNodes>
          <leafValues>
            2.6659590005874634e-01 -6.0016775131225586e-01</leafValues></_>
        <_>
          <internalNodes>
            0 -1 52 -2.8657320886850357e-02</internalNodes>
          <leafValues>
            4.6912971138954163e-01 -4.0503379702568054e-01</leafValues></_>
        <_>
          <internalNodes>
            0 -1 50 -1.3620583922602236e-04</internalNodes>
          <leafValues>
            -4.1221672296524048e-01 4.4414252042770386e-01</leafValues></_>
        <_>
          <internalNodes>
            0 -1 51 1.1556466342881322e-03</internalNodes>
          <leafValues>
            -9.0820443630218506e-01 2.1384724974632263e-01</leafValues></_>
        <_>
          <internalNodes>
            0 -1 6 2.0247951149940491e-02</internalNodes>
          <leafValues>
            -3.8250517845153809e-01 5.6967562437057495e-01</leafValues></_></weakClassifiers></_>
    <!-- stage 12 -->
    <_>
      <maxWeakCount>8</maxWeakCount>
      <stageThreshold>-1.0690325498580933e+00</stageThreshold>
      <weakClassifiers>
        <_>
          <internalNodes>
            0 -1 78 -3.5787564702332020e-03</internalNodes>
          <leafValues>
            6.3207548856735229e-01 -6.3081395626068115e-01</leafValues></_>
        <_>
          <internalNodes>
            0 -1 98 -1.6248825704678893e-04</internalNodes>
          <leafValues>
            6.1094355583190918e-01 -5.1467221975326538e-01</leafValues></_>
        <_>
          <internalNodes>
            0 -1 77 -1.5925675630569458e-02</internalNodes>
          <leafValues>
            1. -2.9780700802803040e-01</leafValues></_>
        <_>
          <internalNodes>
            0 -1 10 -3.2257638871669769e-02</internalNodes>
          <leafValues>
            -8.2447612285614014e-01 4.1659328341484070e-01</leafValues></_>
        <_>
          <internalNodes>
            0 -1 27 -6.1506091151386499e-04</internalNodes>
          <leafValues>
            -6.0683363676071167e-01 5.7156062126159668e-01</leafValues></_>
        <_>
          <internalNodes>
            0 -1 69 -3.4371469169855118e-02</internalNodes>
          <leafValues>
            6.6819405555725098e-01 -4.3661549687385559e-01</leafValues></_>
        <_>
          <internalNodes>
            0 -1 72 -4.1403174400329590e-03</internalNodes>
          <leafValues>
            5.5261069536209106e-01 -5.0832915306091309e-01</leafValues></_>
        <_>
          <internalNodes>
            0 -1 108 6.9060843088664114e-05</internalNodes>
          <leafValues>
            5.1154571771621704e-01 -6.5630382299423218e-01</leafValues></_></weakClassifiers></_></stages>
  <features>
    <_>
      <rects>
        <_>
          0 0 18 10 -1.</_>
        <_>
          9 0 9 10 2.</_></rects>
      <tilted>0</tilted></_>
    <_>
      <rects>
        <_>
          0 1 5 8 -1.</_>
        <_>
          0 5 5 4 2.</_></rects>
      <tilted>0</tilted></_>
    <_>
      <rects>
        <_>
          0 2 5 4 -1.</_>
        <_>
          0 4 5 2 2.</_></rects>
      <tilted>0</tilted></_>
    <_>
      <rects>
        <_>
          0 2 10 2 -1.</_>
        <_>
          0 3 10 1 2.</_></rects>
      <tilted>0</tilted></_>
    <_>
      <rects>
        <_>
          0 6 6 6 -1.</_>
        <_>
          0 6 3 3 2.</_>
        <_>
          3 9 3 3 2.</_></rects>
      <tilted>0</tilted></_>
    <_>
      <rects>
        <_>
          0 6 15 4 -1.</_>
        <_>
          0 7 15 2 2.</_></rects>
      <tilted>0</tilted></_>
    <_>
      <rects>
        <_>
          0 8 4 20 -1.</_>
        <_>
          1 8 2 20 2.</_></rects>
      <tilted>0</tilted></_>
    <_>
      <rects>
        <_>
          0 15 4 15 -1.</_>
        <_>
          1 15 2 15 2.</_></rects>
      <tilted>0</tilted></_>
    <_>
      <rects>
        <_>
          0 18 20 12 -1.</_>
        <_>
          5 18 10 12 2.</_></rects>
      <tilted>0</tilted></_>
    <_>
      <rects>
        <_>
          0 20 20 10 -1.</_>
        <_>
          5 20 10 10 2.</_></rects>
      <tilted>0</tilted></_>
    <_>
      <rects>
        <_>
          0 21 20 9 -1.</_>
        <_>
          10 21 10 9 2.</_></rects>
      <tilted>0</tilted></_>
    <_>
      <rects>
        <_>
          0 23 12 4 -1.</_>
        <_>
          4 23 4 4 3.</_></rects>
      <tilted>0</tilted></_>
    <_>
      <rects>
        <_>
          1 1 18 6 -1.</_>
        <_>
          1 3 18 2 3.</_></rects>
      <tilted>0</tilted></_>
    <_>
      <rects>
        <_>
          1 5 9 12 -1.</_>
        <_>
          4 9 3 4 9.</_></rects>
      <tilted>0</tilted></_>
    <_>
      <rects>
        <_>
          1 6 18 9 -1.</_>
        <_>
          7 9 6 3 9.</_></rects>
      <tilted>0</tilted></_>
    <_>
      <rects>
        <_>
          1 7 18 9 -1.</_>
        <_>
          7 10 6 3 9.</_></rects>
      <tilted>0</tilted></_>
    <_>
      <rects>
        <_>
          1 8 9 6 -1.</_>
        <_>
          4 10 3 2 9.</_></rects>
      <tilted>0</tilted></_>
    <_>
      <rects>
        <_>
          1 8 18 6 -1.</_>
        <_>
          7 10 6 2 9.</_></rects>
      <tilted>0</tilted></_>
    <_>
      <rects>
        <_>
          1 9 6 19 -1.</_>
        <_>
          4 9 3 19 2.</_></rects>
      <tilted>0</tilted></_>
    <_>
      <rects>
        <_>
          1 10 5 16 -1.</_>
        <_>
          1 14 5 8 2.</_></rects>
      <tilted>0</tilted></_>
    <_>
      <rects>
        <_>
          1 10 7 3 -1.</_>
        <_>
          1 11 7 1 3.</_></rects>
      <tilted>0</tilted></_>
    <_>
      <rects>
        <_>
          1 12 9 2 -1.</_>
        <_>
          4 12 3 2 3.</_></rects>
      <tilted>0</tilted></_>
    <_>
      <rects>
        <_>
          1 14 4 12 -1.</_>
        <_>
          3 14 2 12 2.</_></rects>
      <tilted>0</tilted></_>
    <_>
      <rects>
        <_>
          1 21 9 9 -1.</_>
        <_>
          4 24 3 3 9.</_></rects>
      <tilted>0</tilted></_>
    <_>
      <rects>
        <_>
          1 21 6 7 -1.</_>
        <_>
          4 21 3 7 2.</_></rects>
      <tilted>0</tilted></_>
    <_>
      <rects>
        <_>
          1 25 2 4 -1.</_>
        <_>
          1 26 2 2 2.</_></rects>
      <tilted>0</tilted></_>
    <_>
      <rects>
        <_>
          1 26 18 1 -1.</_>
        <_>
          7 26 6 1 3.</_></rects>
      <tilted>0</tilted></_>
    <_>
      <rects>
        <_>
          2 0 4 6 -1.</_>
        <_>
          3 0 2 6 2.</_></rects>
      <tilted>0</tilted></_>
    <_>
      <rects>
        <_>
          2 7 18 15 -1.</_>
        <_>
          11 7 9 15 2.</_></rects>
      <tilted>0</tilted></_>
    <_>
      <rects>
        <_>
          2 9 1 16 -1.</_>
        <_>
          2 17 1 8 2.</_></rects>
      <tilted>0</tilted></_>
    <_>
      <rects>
        <_>
          2 15 4 8 -1.</_>
        <_>
          2 19 4 4 2.</_></rects>
      <tilted>0</tilted></_>
    <_>
      <rects>
        <_>
          2 18 18 7 -1.</_>
        <_>
          11 18 9 7 2.</_></rects>
      <tilted>0</tilted></_>
    <_>
      <rects>
        <_>
          2 26 8 4 -1.</_>
        <_>
          2 28 8 2 2.</_></rects>
      <tilted>0</tilted></_>
    <_>
      <rects>
        <_>
          2 27 7 2 -1.</_>
        <_>
          2 28 7 1 2.</_></rects>
      <tilted>0</tilted></_>
    <_>
      <rects>
        <_>
          2 28 8 2 -1.</_>
        <_>
          2 29 8 1 2.</_></rects>
      <tilted>0</tilted></_>
    <_>
      <rects>
        <_>
          3 7 14 4 -1.</_>
        <_>
          3 9 14 2 2.</_></rects>
      <tilted>0</tilted></_>
    <_>
      <rects>
        <_>
          3 13 2 12 -1.</_>
        <_>
          3 19 2 6 2.</_></rects>
      <tilted>0</tilted></_>
    <_>
      <rects>
        <_>
          3 18 15 9 -1.</_>
        <_>
          8 21 5 3 9.</_></rects>
      <tilted>0</tilted></_>
    <_>
      <rects>
        <_>
          3 23 4 5 -1.</_>
        <_>
          4 23 2 5 2.</_></rects>
      <tilted>0</tilted></_>
    <_>
      <rects>
        <_>
          3 26 15 2 -1.</_>
        <_>
          8 26 5 2 3.</_></rects>
      <tilted>0</tilted></_>
    <_>
      <rects>
        <_>
          3 28 13 2 -1.</_>
        <_>
          3 29 13 1 2.</_></rects>
      <tilted>0</tilted></_>
    <_>
      <rects>
        <_>
          4 1 11 18 -1.</_>
        <_>
          4 10 11 9 2.</_></rects>
      <tilted>0</tilted></_>
    <_>
      <rects>
        <_>
          4 2 16 21 -1.</_>
        <_>
          12 2 8 21 2.</_></rects>
      <tilted>0</tilted></_>
    <_>
      <rects>
        <_>
          4 4 3 18 -1.</_>
        <_>
          4 10 3 6 3.</_></rects>
      <tilted>0</tilted></_>
    <_>
      <rects>
        <_>
          4 7 15 4 -1.</_>
        <_>
          4 9 15 2 2.</_></rects>
      <tilted>0</tilted></_>
    <_>
      <rects>
        <_>
          4 16 12 9 -1.</_>
        <_>
          8 19 4 3 9.</_></rects>
      <tilted>0</tilted></_>
    <_>
      <rects>
        <_>
          4 24 12 1 -1.</_>
        <_>
          8 24 4 1 3.</_></rects>
      <tilted>0</tilted></_>
    <_>
      <rects>
        <_>
          5 0 10 30 -1.</_>
        <_>
          5 10 10 10 3.</_></rects>
      <tilted>0</tilted></_>
    <_>
      <rects>
        <_>
          5 11 14 9 -1.</_>
        <_>
          5 14 14 3 3.</_></rects>
      <tilted>0</tilted></_>
    <_>
      <rects>
        <_>
          6 2 4 28 -1.</_>
        <_>
          6 2 2 14 2.</_>
        <_>
          8 16 2 14 2.</_></rects>
      <tilted>0</tilted></_>
    <_>
      <rects>
        <_>
          6 2 6 1 -1.</_>
        <_>
          9 2 3 1 2.</_></rects>
      <tilted>0</tilted></_>
    <_>
      <rects>
        <_>
          6 5 6 6 -1.</_>
        <_>
          6 5 3 6 2.</_></rects>
      <tilted>1</tilted></_>
    <_>
      <rects>
        <_>
          6 11 12 2 -1.</_>
        <_>
          6 11 6 2 2.</_></rects>
      <tilted>1</tilted></_>
    <_>
      <rects>
        <_>
          6 17 6 12 -1.</_>
        <_>
          8 21 2 4 9.</_></rects>
      <tilted>0</tilted></_>
    <_>
      <rects>
        <_>
          7 9 6 9 -1.</_>
        <_>
          9 12 2 3 9.</_></rects>
      <tilted>0</tilted></_>
    <_>
      <rects>
        <_>
          7 10 9 18 -1.</_>
        <_>
          7 19 9 9 2.</_></rects>
      <tilted>0</tilted></_>
    <_>
      <rects>
        <_>
          7 12 6 8 -1.</_>
        <_>
          9 12 2 8 3.</_></rects>
      <tilted>0</tilted></_>
    <_>
      <rects>
        <_>
          7 12 12 6 -1.</_>
        <_>
          7 12 12 3 2.</_></rects>
      <tilted>1</tilted></_>
    <_>
      <rects>
        <_>
          7 13 6 12 -1.</_>
        <_>
          9 17 2 4 9.</_></rects>
      <tilted>0</tilted></_>
    <_>
      <rects>
        <_>
          7 19 8 2 -1.</_>
        <_>
          9 21 4 2 2.</_></rects>
      <tilted>1</tilted></_>
    <_>
      <rects>
        <_>
          7 20 6 6 -1.</_>
        <_>
          9 22 2 2 9.</_></rects>
      <tilted>0</tilted></_>
    <_>
      <rects>
        <_>
          7 21 6 8 -1.</_>
        <_>
          7 25 6 4 2.</_></rects>
      <tilted>0</tilted></_>
    <_>
      <rects>
        <_>
          7 26 13 4 -1.</_>
        <_>
          7 28 13 2 2.</_></rects>
      <tilted>0</tilted></_>
    <_>
      <rects>
        <_>
          8 5 9 2 -1.</_>
        <_>
          11 8 3 2 3.</_></rects>
      <tilted>1</tilted></_>
    <_>
      <rects>
        <_>
          8 7 12 9 -1.</_>
        <_>
          12 10 4 3 9.</_></rects>
      <tilted>0</tilted></_>
    <_>
      <rects>
        <_>
          8 12 1 12 -1.</_>
        <_>
          8 15 1 6 2.</_></rects>
      <tilted>0</tilted></_>
    <_>
      <rects>
        <_>
          8 12 6 15 -1.</_>
        <_>
          10 17 2 5 9.</_></rects>
      <tilted>0</tilted></_>
    <_>
      <rects>
        <_>
          8 25 12 4 -1.</_>
        <_>
          8 26 12 2 2.</_></rects>
      <tilted>0</tilted></_>
    <_>
      <rects>
        <_>
          8 26 10 4 -1.</_>
        <_>
          8 28 10 2 2.</_></rects>
      <tilted>0</tilted></_>
    <_>
      <rects>
        <_>
          9 0 9 8 -1.</_>
        <_>
          7 2 9 4 2.</_></rects>
      <tilted>1</tilted></_>
    <_>
      <rects>
        <_>
          9 3 9 9 -1.</_>
        <_>
          9 6 9 3 3.</_></rects>
      <tilted>0</tilted></_>
    <_>
      <rects>
        <_>
          9 6 9 6 -1.</_>
        <_>
          9 9 9 3 2.</_></rects>
      <tilted>0</tilted></_>
    <_>
      <rects>
        <_>
          9 16 6 4 -1.</_>
        <_>
          9 16 6 2 2.</_></rects>
      <tilted>1</tilted></_>
    <_>
      <rects>
        <_>
          9 19 9 9 -1.</_>
        <_>
          12 19 3 9 3.</_></rects>
      <tilted>0</tilted></_>
    <_>
      <rects>
        <_>
          10 0 5 20 -1.</_>
        <_>
          10 10 5 10 2.</_></rects>
      <tilted>0</tilted></_>
    <_>
      <rects>
        <_>
          10 7 9 9 -1.</_>
        <_>
          13 10 3 3 9.</_></rects>
      <tilted>0</tilted></_>
    <_>
      <rects>
        <_>
          10 15 4 4 -1.</_>
        <_>
          9 16 4 2 2.</_></rects>
      <tilted>1</tilted></_>
    <_>
      <rects>
        <_>
          10 17 3 9 -1.</_>
        <_>
          11 20 1 3 9.</_></rects>
      <tilted>0</tilted></_>
    <_>
      <rects>
        <_>
          10 19 2 2 -1.</_>
        <_>
          10 19 2 1 2.</_></rects>
      <tilted>1</tilted></_>
    <_>
      <rects>
        <_>
          10 22 6 4 -1.</_>
        <_>
          10 22 3 2 2.</_>
        <_>
          13 24 3 2 2.</_></rects>
      <tilted>0</tilted></_>
    <_>
      <rects>
        <_>
          11 5 2 14 -1.</_>
        <_>
          11 5 1 7 2.</_>
        <_>
          12 12 1 7 2.</_></rects>
      <tilted>0</tilted></_>
    <_>
      <rects>
        <_>
          11 8 6 6 -1.</_>
        <_>
          9 10 6 2 3.</_></rects>
      <tilted>1</tilted></_>
    <_>
      <rects>
        <_>
          11 10 4 6 -1.</_>
        <_>
          12 11 2 6 2.</_></rects>
      <tilted>1</tilted></_>
    <_>
      <rects>
        <_>
          11 14 3 6 -1.</_>
        <_>
          9 16 3 2 3.</_></rects>
      <tilted>1</tilted></_>
    <_>
      <rects>
        <_>
          11 19 1 6 -1.</_>
        <_>
          9 21 1 2 3.</_></rects>
      <tilted>1</tilted></_>
    <_>
      <rects>
        <_>
          12 0 8 18 -1.</_>
        <_>
          12 0 4 9 2.</_>
        <_>
          16 9 4 9 2.</_></rects>
      <tilted>0</tilted></_>
    <_>
      <rects>
        <_>
          12 4 6 15 -1.</_>
        <_>
          14 9 2 5 9.</_></rects>
      <tilted>0</tilted></_>
    <_>
      <rects>
        <_>
          12 19 2 1 -1.</_>
        <_>
          12 19 1 1 2.</_></rects>
      <tilted>1</tilted></_>
    <_>
      <rects>
        <_>
          13 5 3 8 -1.</_>
        <_>
          13 9 3 4 2.</_></rects>
      <tilted>0</tilted></_>
    <_>
      <rects>
        <_>
          13 11 6 1 -1.</_>
        <_>
          16 11 3 1 2.</_></rects>
      <tilted>0</tilted></_>
    <_>
      <rects>
        <_>
          13 20 7 9 -1.</_>
        <_>
          13 23 7 3 3.</_></rects>
      <tilted>0</tilted></_>
    <_>
      <rects>
        <_>
          14 0 4 29 -1.</_>
        <_>
          16 0 2 29 2.</_></rects>
      <tilted>0</tilted></_>
    <_>
      <rects>
        <_>
          14 0 6 12 -1.</_>
        <_>
          14 0 6 6 2.</_></rects>
      <tilted>1</tilted></_>
    <_>
      <rects>
        <_>
          14 2 6 12 -1.</_>
        <_>
          14 2 3 6 2.</_>
        <_>
          17 8 3 6 2.</_></rects>
      <tilted>0</tilted></_>
    <_>
      <rects>
        <_>
          14 2 6 4 -1.</_>
        <_>
          14 4 6 2 2.</_></rects>
      <tilted>0</tilted></_>
    <_>
      <rects>
        <_>
          14 7 6 18 -1.</_>
        <_>
          14 7 3 9 2.</_>
        <_>
          17 16 3 9 2.</_></rects>
      <tilted>0</tilted></_>
    <_>
      <rects>
        <_>
          14 11 5 6 -1.</_>
        <_>
          12 13 5 2 3.</_></rects>
      <tilted>1</tilted></_>
    <_>
      <rects>
        <_>
          14 26 6 4 -1.</_>
        <_>
          14 26 3 2 2.</_>
        <_>
          17 28 3 2 2.</_></rects>
      <tilted>0</tilted></_>
    <_>
      <rects>
        <_>
          15 3 5 2 -1.</_>
        <_>
          15 4 5 1 2.</_></rects>
      <tilted>0</tilted></_>
    <_>
      <rects>
        <_>
          15 22 5 8 -1.</_>
        <_>
          15 24 5 4 2.</_></rects>
      <tilted>0</tilted></_>
    <_>
      <rects>
        <_>
          16 0 4 8 -1.</_>
        <_>
          18 0 2 8 2.</_></rects>
      <tilted>0</tilted></_>
    <_>
      <rects>
        <_>
          16 1 2 29 -1.</_>
        <_>
          17 1 1 29 2.</_></rects>
      <tilted>0</tilted></_>
    <_>
      <rects>
        <_>
          16 3 3 16 -1.</_>
        <_>
          16 7 3 8 2.</_></rects>
      <tilted>0</tilted></_>
    <_>
      <rects>
        <_>
          17 1 1 6 -1.</_>
        <_>
          17 4 1 3 2.</_></rects>
      <tilted>0</tilted></_>
    <_>
      <rects>
        <_>
          17 4 1 15 -1.</_>
        <_>
          17 9 1 5 3.</_></rects>
      <tilted>0</tilted></_>
    <_>
      <rects>
        <_>
          17 8 3 16 -1.</_>
        <_>
          17 16 3 8 2.</_></rects>
      <tilted>0</tilted></_>
    <_>
      <rects>
        <_>
          17 16 3 14 -1.</_>
        <_>
          17 23 3 7 2.</_></rects>
      <tilted>0</tilted></_>
    <_>
      <rects>
        <_>
          17 23 3 3 -1.</_>
        <_>
          18 24 1 3 3.</_></rects>
      <tilted>1</tilted></_>
    <_>
      <rects>
        <_>
          17 28 2 2 -1.</_>
        <_>
          17 28 1 1 2.</_>
        <_>
          18 29 1 1 2.</_></rects>
      <tilted>0</tilted></_>
    <_>
      <rects>
        <_>
          18 1 2 15 -1.</_>
        <_>
          18 6 2 5 3.</_></rects>
      <tilted>0</tilted></_>
    <_>
      <rects>
        <_>
          18 5 2 20 -1.</_>
        <_>
          18 10 2 10 2.</_></rects>
      <tilted>0</tilted></_>
    <_>
      <rects>
        <_>
          18 25 2 3 -1.</_>
        <_>
          18 25 1 3 2.</_></rects>
      <tilted>1</tilted></_></features></cascade>
</opencv_storage>
