<?xml version="1.0"?>
<opencv_storage>
<stage5>
  <maxWeakCount>7</maxWeakCount>
  <stageThreshold>-1.5757074356079102e+00</stageThreshold>
  <weakClassifiers>
    <_>
      <internalNodes>
        0 -1 8311 -1.9609967246651649e-02</internalNodes>
      <leafValues>
        5.8091288805007935e-01 -6.6767829656600952e-01</leafValues></_>
    <_>
      <internalNodes>
        0 -1 104971 1.2840538285672665e-02</internalNodes>
      <leafValues>
        -5.3653603792190552e-01 6.0193783044815063e-01</leafValues></_>
    <_>
      <internalNodes>
        0 -1 64848 2.7131908573210239e-03</internalNodes>
      <leafValues>
        -6.9567006826400757e-01 3.6026322841644287e-01</leafValues></_>
    <_>
      <internalNodes>
        0 -1 1049 2.7634413912892342e-02</internalNodes>
      <leafValues>
        2.1062417328357697e-01 -8.7718653678894043e-01</leafValues></_>
    <_>
      <internalNodes>
        0 -1 127279 -4.7135107219219208e-02</internalNodes>
      <leafValues>
        8.3013659715652466e-01 -2.6903888583183289e-01</leafValues></_>
    <_>
      <internalNodes>
        0 -1 269352 1.3067403051536530e-04</internalNodes>
      <leafValues>
        4.3430119752883911e-01 -4.2516633868217468e-01</leafValues></_>
    <_>
      <internalNodes>
        0 -1 207529 -9.7523890435695648e-03</internalNodes>
      <leafValues>
        6.8468254804611206e-01 -2.4817527830600739e-01</leafValues></_></weakClassifiers></stage5>
</opencv_storage>
