<?xml version="1.0"?>
<opencv_storage>
<stage12>
  <maxWeakCount>8</maxWeakCount>
  <stageThreshold>-1.0690325498580933e+00</stageThreshold>
  <weakClassifiers>
    <_>
      <internalNodes>
        0 -1 206569 -3.5787564702332020e-03</internalNodes>
      <leafValues>
        6.3207548856735229e-01 -6.3081395626068115e-01</leafValues></_>
    <_>
      <internalNodes>
        0 -1 256376 -1.6248825704678893e-04</internalNodes>
      <leafValues>
        6.1094355583190918e-01 -5.1467221975326538e-01</leafValues></_>
    <_>
      <internalNodes>
        0 -1 205658 -1.5925675630569458e-02</internalNodes>
      <leafValues>
        1. -2.9780700802803040e-01</leafValues></_>
    <_>
      <internalNodes>
        0 -1 20704 -3.2257638871669769e-02</internalNodes>
      <leafValues>
        -8.2447612285614014e-01 4.1659328341484070e-01</leafValues></_>
    <_>
      <internalNodes>
        0 -1 43568 -6.1506091151386499e-04</internalNodes>
      <leafValues>
        -6.0683363676071167e-01 5.7156062126159668e-01</leafValues></_>
    <_>
      <internalNodes>
        0 -1 179119 -3.4371469169855118e-02</internalNodes>
      <leafValues>
        6.6819405555725098e-01 -4.3661549687385559e-01</leafValues></_>
    <_>
      <internalNodes>
        0 -1 190580 -4.1403174400329590e-03</internalNodes>
      <leafValues>
        5.5261069536209106e-01 -5.0832915306091309e-01</leafValues></_>
    <_>
      <internalNodes>
        0 -1 273450 6.9060843088664114e-05</internalNodes>
      <leafValues>
        5.1154571771621704e-01 -6.5630382299423218e-01</leafValues></_></weakClassifiers></stage12>
</opencv_storage>
