<?xml version="1.0"?>
<opencv_storage>
<stage8>
  <maxWeakCount>9</maxWeakCount>
  <stageThreshold>-1.2413303852081299e+00</stageThreshold>
  <weakClassifiers>
    <_>
      <internalNodes>
        0 -1 158630 3.5283789038658142e-02</internalNodes>
      <leafValues>
        -5.3764861822128296e-01 7.4825173616409302e-01</leafValues></_>
    <_>
      <internalNodes>
        0 -1 3894 -2.0847612177021801e-04</internalNodes>
      <leafValues>
        4.6930351853370667e-01 -4.9901908636093140e-01</leafValues></_>
    <_>
      <internalNodes>
        0 -1 181794 2.0066058263182640e-02</internalNodes>
      <leafValues>
        -7.1890473365783691e-01 2.5721400976181030e-01</leafValues></_>
    <_>
      <internalNodes>
        0 -1 243974 5.6439633481204510e-03</internalNodes>
      <leafValues>
        2.6345652341842651e-01 -7.0431357622146606e-01</leafValues></_>
    <_>
      <internalNodes>
        0 -1 152181 8.5348471999168396e-02</internalNodes>
      <leafValues>
        -3.3479601144790649e-01 5.8579325675964355e-01</leafValues></_>
    <_>
      <internalNodes>
        0 -1 276139 -8.6032282561063766e-03</internalNodes>
      <leafValues>
        7.3739463090896606e-01 -1.9871872663497925e-01</leafValues></_>
    <_>
      <internalNodes>
        0 -1 101459 -2.5420647859573364e-01</internalNodes>
      <leafValues>
        8.1273251771926880e-01 -1.8900448083877563e-01</leafValues></_>
    <_>
      <internalNodes>
        0 -1 16866 1.2029564008116722e-02</internalNodes>
      <leafValues>
        -2.6349040865898132e-01 6.2601363658905029e-01</leafValues></_>
    <_>
      <internalNodes>
        0 -1 59809 3.6795956548303366e-03</internalNodes>
      <leafValues>
        3.3894243836402893e-01 -5.0526028871536255e-01</leafValues></_></weakClassifiers></stage8>
</opencv_storage>
