<?xml version="1.0"?>
<opencv_storage>
<cascade>
  <stageType>BOOST</stageType>
  <featureType>HAAR</featureType>
  <height>30</height>
  <width>20</width>
  <stageParams>
    <boostType>GAB</boostType>
    <minHitRate>9.9500000476837158e-01</minHitRate>
    <maxFalseAlarm>4.0000000596046448e-01</maxFalseAlarm>
    <weightTrimRate>9.4999999999999996e-01</weightTrimRate>
    <maxDepth>1</maxDepth>
    <maxWeakCount>100</maxWeakCount></stageParams>
  <featureParams>
    <maxCatCount>0</maxCatCount>
    <featSize>1</featSize>
    <mode>ALL</mode></featureParams>
  <stageNum>8</stageNum>
  <stages>
    <!-- stage 0 -->
    <_>
      <maxWeakCount>2</maxWeakCount>
      <stageThreshold>-3.4497383981943130e-02</stageThreshold>
      <weakClassifiers>
        <_>
          <internalNodes>
            0 -1 5 -1.0471942275762558e-01</internalNodes>
          <leafValues>
            9.8989897966384888e-01 -9.8507463932037354e-01</leafValues></_>
        <_>
          <internalNodes>
            0 -1 0 -1.4962410926818848e-01</internalNodes>
          <leafValues>
            9.5057725906372070e-01 -9.9751949310302734e-01</leafValues></_></weakClassifiers></_>
    <!-- stage 1 -->
    <_>
      <maxWeakCount>3</maxWeakCount>
      <stageThreshold>-1.1093922853469849e+00</stageThreshold>
      <weakClassifiers>
        <_>
          <internalNodes>
            0 -1 15 7.2476372122764587e-02</internalNodes>
          <leafValues>
            -9.1283291578292847e-01 9.4652408361434937e-01</leafValues></_>
        <_>
          <internalNodes>
            0 -1 4 -1.0668423026800156e-01</internalNodes>
          <leafValues>
            7.2203469276428223e-01 -8.9259594678878784e-01</leafValues></_>
        <_>
          <internalNodes>
            0 -1 6 8.9042618870735168e-02</internalNodes>
          <leafValues>
            -9.1859400272369385e-01 7.1047884225845337e-01</leafValues></_></weakClassifiers></_>
    <!-- stage 2 -->
    <_>
      <maxWeakCount>3</maxWeakCount>
      <stageThreshold>-1.1501926183700562e+00</stageThreshold>
      <weakClassifiers>
        <_>
          <internalNodes>
            0 -1 16 1.2298679351806641e-01</internalNodes>
          <leafValues>
            -9.1594558954238892e-01 8.7212276458740234e-01</leafValues></_>
        <_>
          <internalNodes>
            0 -1 2 -1.0265324264764786e-01</internalNodes>
          <leafValues>
            8.0451273918151855e-01 -8.5304373502731323e-01</leafValues></_>
        <_>
          <internalNodes>
            0 -1 7 -1.2551879882812500e-01</internalNodes>
          <leafValues>
            6.1879676580429077e-01 -9.2288607358932495e-01</leafValues></_></weakClassifiers></_>
    <!-- stage 3 -->
    <_>
      <maxWeakCount>3</maxWeakCount>
      <stageThreshold>-1.1186344623565674e+00</stageThreshold>
      <weakClassifiers>
        <_>
          <internalNodes>
            0 -1 22 -2.6032404974102974e-02</internalNodes>
          <leafValues>
            9.0155440568923950e-01 -9.1891890764236450e-01</leafValues></_>
        <_>
          <internalNodes>
            0 -1 20 7.8166732564568520e-03</internalNodes>
          <leafValues>
            -9.4728940725326538e-01 5.4667353630065918e-01</leafValues></_>
        <_>
          <internalNodes>
            0 -1 9 -5.5316451936960220e-02</internalNodes>
          <leafValues>
            8.0737400054931641e-01 -7.4638903141021729e-01</leafValues></_></weakClassifiers></_>
    <!-- stage 4 -->
    <_>
      <maxWeakCount>3</maxWeakCount>
      <stageThreshold>-9.1397684812545776e-01</stageThreshold>
      <weakClassifiers>
        <_>
          <internalNodes>
            0 -1 1 -3.8540923595428467e-01</internalNodes>
          <leafValues>
            9.6417909860610962e-01 -8.3583813905715942e-01</leafValues></_>
        <_>
          <internalNodes>
            0 -1 19 1.5030203387141228e-02</internalNodes>
          <leafValues>
            -8.0795383453369141e-01 7.3976838588714600e-01</leafValues></_>
        <_>
          <internalNodes>
            0 -1 3 -2.4716448038816452e-02</internalNodes>
          <leafValues>
            7.5246495008468628e-01 -8.1790709495544434e-01</leafValues></_></weakClassifiers></_>
    <!-- stage 5 -->
    <_>
      <maxWeakCount>3</maxWeakCount>
      <stageThreshold>-1.0248633623123169e+00</stageThreshold>
      <weakClassifiers>
        <_>
          <internalNodes>
            0 -1 8 -9.4470724463462830e-02</internalNodes>
          <leafValues>
            9.0348523855209351e-01 -8.9117288589477539e-01</leafValues></_>
        <_>
          <internalNodes>
            0 -1 11 2.7313809841871262e-02</internalNodes>
          <leafValues>
            -9.2555147409439087e-01 7.1656233072280884e-01</leafValues></_>
        <_>
          <internalNodes>
            0 -1 18 -3.9221145212650299e-02</internalNodes>
          <leafValues>
            7.9186105728149414e-01 -8.3206027746200562e-01</leafValues></_></weakClassifiers></_>
    <!-- stage 6 -->
    <_>
      <maxWeakCount>3</maxWeakCount>
      <stageThreshold>-8.8578706979751587e-01</stageThreshold>
      <weakClassifiers>
        <_>
          <internalNodes>
            0 -1 13 -8.9514657855033875e-02</internalNodes>
          <leafValues>
            9.0960454940795898e-01 -8.5342788696289062e-01</leafValues></_>
        <_>
          <internalNodes>
            0 -1 17 -3.6054778099060059e-01</internalNodes>
          <leafValues>
            7.6152080297470093e-01 -7.5018757581710815e-01</leafValues></_>
        <_>
          <internalNodes>
            0 -1 21 -1.0315757244825363e-01</internalNodes>
          <leafValues>
            7.5968182086944580e-01 -7.9387998580932617e-01</leafValues></_></weakClassifiers></_>
    <!-- stage 7 -->
    <_>
      <maxWeakCount>3</maxWeakCount>
      <stageThreshold>-1.0295042991638184e+00</stageThreshold>
      <weakClassifiers>
        <_>
          <internalNodes>
            0 -1 12 4.4850025326013565e-02</internalNodes>
          <leafValues>
            -8.4971100091934204e-01 1.</leafValues></_>
        <_>
          <internalNodes>
            0 -1 10 1.1709803715348244e-02</internalNodes>
          <leafValues>
            -9.4211477041244507e-01 7.1159398555755615e-01</leafValues></_>
        <_>
          <internalNodes>
            0 -1 14 4.4620931148529053e-02</internalNodes>
          <leafValues>
            -7.7797132730484009e-01 7.6232147216796875e-01</leafValues></_></weakClassifiers></_></stages>
  <features>
    <_>
      <rects>
        <_>
          1 18 18 4 -1.</_>
        <_>
          7 18 6 4 3.</_></rects>
      <tilted>0</tilted></_>
    <_>
      <rects>
        <_>
          2 4 9 18 -1.</_>
        <_>
          5 10 3 6 9.</_></rects>
      <tilted>0</tilted></_>
    <_>
      <rects>
        <_>
          2 9 16 2 -1.</_>
        <_>
          6 13 8 2 2.</_></rects>
      <tilted>1</tilted></_>
    <_>
      <rects>
        <_>
          3 2 4 16 -1.</_>
        <_>
          5 2 2 16 2.</_></rects>
      <tilted>0</tilted></_>
    <_>
      <rects>
        <_>
          4 6 6 20 -1.</_>
        <_>
          4 6 3 10 2.</_>
        <_>
          7 16 3 10 2.</_></rects>
      <tilted>0</tilted></_>
    <_>
      <rects>
        <_>
          4 9 8 14 -1.</_>
        <_>
          4 9 4 7 2.</_>
        <_>
          8 16 4 7 2.</_></rects>
      <tilted>0</tilted></_>
    <_>
      <rects>
        <_>
          4 12 12 18 -1.</_>
        <_>
          4 21 12 9 2.</_></rects>
      <tilted>0</tilted></_>
    <_>
      <rects>
        <_>
          4 16 9 12 -1.</_>
        <_>
          7 16 3 12 3.</_></rects>
      <tilted>0</tilted></_>
    <_>
      <rects>
        <_>
          4 18 12 4 -1.</_>
        <_>
          7 18 6 4 2.</_></rects>
      <tilted>0</tilted></_>
    <_>
      <rects>
        <_>
          5 23 6 6 -1.</_>
        <_>
          7 25 2 2 9.</_></rects>
      <tilted>0</tilted></_>
    <_>
      <rects>
        <_>
          6 8 12 2 -1.</_>
        <_>
          6 8 12 1 2.</_></rects>
      <tilted>1</tilted></_>
    <_>
      <rects>
        <_>
          6 9 8 4 -1.</_>
        <_>
          8 9 4 4 2.</_></rects>
      <tilted>0</tilted></_>
    <_>
      <rects>
        <_>
          6 10 8 4 -1.</_>
        <_>
          8 10 4 4 2.</_></rects>
      <tilted>0</tilted></_>
    <_>
      <rects>
        <_>
          6 19 9 2 -1.</_>
        <_>
          9 22 3 2 3.</_></rects>
      <tilted>1</tilted></_>
    <_>
      <rects>
        <_>
          8 19 10 2 -1.</_>
        <_>
          13 19 5 2 2.</_></rects>
      <tilted>0</tilted></_>
    <_>
      <rects>
        <_>
          10 8 4 18 -1.</_>
        <_>
          10 8 2 9 2.</_>
        <_>
          12 17 2 9 2.</_></rects>
      <tilted>0</tilted></_>
    <_>
      <rects>
        <_>
          10 8 6 16 -1.</_>
        <_>
          10 8 3 8 2.</_>
        <_>
          13 16 3 8 2.</_></rects>
      <tilted>0</tilted></_>
    <_>
      <rects>
        <_>
          11 0 6 27 -1.</_>
        <_>
          13 9 2 9 9.</_></rects>
      <tilted>0</tilted></_>
    <_>
      <rects>
        <_>
          12 19 4 3 -1.</_>
        <_>
          12 19 2 3 2.</_></rects>
      <tilted>1</tilted></_>
    <_>
      <rects>
        <_>
          15 3 5 4 -1.</_>
        <_>
          15 3 5 2 2.</_></rects>
      <tilted>1</tilted></_>
    <_>
      <rects>
        <_>
          15 4 4 10 -1.</_>
        <_>
          15 4 2 5 2.</_>
        <_>
          17 9 2 5 2.</_></rects>
      <tilted>0</tilted></_>
    <_>
      <rects>
        <_>
          15 14 3 12 -1.</_>
        <_>
          11 18 3 4 3.</_></rects>
      <tilted>1</tilted></_>
    <_>
      <rects>
        <_>
          18 6 2 8 -1.</_>
        <_>
          16 8 2 4 2.</_></rects>
      <tilted>1</tilted></_></features></cascade>
</opencv_storage>
