<?xml version="1.0"?>
<opencv_storage>
<stage6>
  <maxWeakCount>5</maxWeakCount>
  <stageThreshold>-1.1861151456832886e+00</stageThreshold>
  <weakClassifiers>
    <_>
      <internalNodes>
        0 -1 110612 -1.1970025300979614e-01</internalNodes>
      <leafValues>
        8.3298540115356445e-01 -8.8050931692123413e-01</leafValues></_>
    <_>
      <internalNodes>
        0 -1 193931 -1.3598179817199707e-01</internalNodes>
      <leafValues>
        7.0313447713851929e-01 -8.3904308080673218e-01</leafValues></_>
    <_>
      <internalNodes>
        0 -1 193320 7.2739226743578911e-03</internalNodes>
      <leafValues>
        -7.0620971918106079e-01 6.3456082344055176e-01</leafValues></_>
    <_>
      <internalNodes>
        0 -1 83141 3.7761285901069641e-02</internalNodes>
      <leafValues>
        -6.4347267150878906e-01 8.7202185392379761e-01</leafValues></_>
    <_>
      <internalNodes>
        0 -1 268373 1.6506526153534651e-03</internalNodes>
      <leafValues>
        -8.5973006486892700e-01 5.4234915971755981e-01</leafValues></_></weakClassifiers></stage6>
</opencv_storage>
