<?xml version="1.0"?>
<opencv_storage>
<cascade>
  <stageType>BOOST</stageType>
  <featureType>HAAR</featureType>
  <height>30</height>
  <width>20</width>
  <stageParams>
    <boostType>GAB</boostType>
    <minHitRate>9.9500000476837158e-01</minHitRate>
    <maxFalseAlarm>4.0000000596046448e-01</maxFalseAlarm>
    <weightTrimRate>9.4999999999999996e-01</weightTrimRate>
    <maxDepth>1</maxDepth>
    <maxWeakCount>100</maxWeakCount></stageParams>
  <featureParams>
    <maxCatCount>0</maxCatCount>
    <featSize>1</featSize>
    <mode>ALL</mode></featureParams>
  <stageNum>7</stageNum>
  <stages>
    <!-- stage 0 -->
    <_>
      <maxWeakCount>2</maxWeakCount>
      <stageThreshold>-2.3847380653023720e-02</stageThreshold>
      <weakClassifiers>
        <_>
          <internalNodes>
            0 -1 22 1.6442537307739258e-01</internalNodes>
          <leafValues>
            -9.8745292425155640e-01 9.6029776334762573e-01</leafValues></_>
        <_>
          <internalNodes>
            0 -1 17 8.4339216351509094e-02</internalNodes>
          <leafValues>
            -9.7583365440368652e-01 9.6360558271408081e-01</leafValues></_></weakClassifiers></_>
    <!-- stage 1 -->
    <_>
      <maxWeakCount>3</maxWeakCount>
      <stageThreshold>-1.1779320240020752e+00</stageThreshold>
      <weakClassifiers>
        <_>
          <internalNodes>
            0 -1 10 4.1268222033977509e-02</internalNodes>
          <leafValues>
            -9.1697192192077637e-01 9.2125982046127319e-01</leafValues></_>
        <_>
          <internalNodes>
            0 -1 4 -7.7187091112136841e-02</internalNodes>
          <leafValues>
            8.1219410896301270e-01 -8.9317190647125244e-01</leafValues></_>
        <_>
          <internalNodes>
            0 -1 9 4.7437444329261780e-02</internalNodes>
          <leafValues>
            -9.6701937913894653e-01 6.3221186399459839e-01</leafValues></_></weakClassifiers></_>
    <!-- stage 2 -->
    <_>
      <maxWeakCount>4</maxWeakCount>
      <stageThreshold>-1.7650607824325562e+00</stageThreshold>
      <weakClassifiers>
        <_>
          <internalNodes>
            0 -1 13 -8.0991640686988831e-02</internalNodes>
          <leafValues>
            8.7500000000000000e-01 -9.3750000000000000e-01</leafValues></_>
        <_>
          <internalNodes>
            0 -1 14 -2.3174324631690979e-01</internalNodes>
          <leafValues>
            7.7945029735565186e-01 -7.9532355070114136e-01</leafValues></_>
        <_>
          <internalNodes>
            0 -1 6 -1.1331710964441299e-02</internalNodes>
          <leafValues>
            7.6222157478332520e-01 -6.0784423351287842e-01</leafValues></_>
        <_>
          <internalNodes>
            0 -1 5 -8.1231802701950073e-02</internalNodes>
          <leafValues>
            6.1325103044509888e-01 -7.9445880651473999e-01</leafValues></_></weakClassifiers></_>
    <!-- stage 3 -->
    <_>
      <maxWeakCount>3</maxWeakCount>
      <stageThreshold>-1.1825779676437378e+00</stageThreshold>
      <weakClassifiers>
        <_>
          <internalNodes>
            0 -1 24 -4.4904097914695740e-02</internalNodes>
          <leafValues>
            8.6422973871231079e-01 -8.9473682641983032e-01</leafValues></_>
        <_>
          <internalNodes>
            0 -1 12 -8.9063644409179688e-02</internalNodes>
          <leafValues>
            8.8167101144790649e-01 -7.9710692167282104e-01</leafValues></_>
        <_>
          <internalNodes>
            0 -1 7 5.1156692206859589e-02</internalNodes>
          <leafValues>
            -9.4203972816467285e-01 5.0926572084426880e-01</leafValues></_></weakClassifiers></_>
    <!-- stage 4 -->
    <_>
      <maxWeakCount>5</maxWeakCount>
      <stageThreshold>-1.6337100267410278e+00</stageThreshold>
      <weakClassifiers>
        <_>
          <internalNodes>
            0 -1 2 -3.6197227239608765e-01</internalNodes>
          <leafValues>
            8.5522788763046265e-01 -8.6940747499465942e-01</leafValues></_>
        <_>
          <internalNodes>
            0 -1 0 -7.0295102894306183e-02</internalNodes>
          <leafValues>
            7.4605399370193481e-01 -7.7567249536514282e-01</leafValues></_>
        <_>
          <internalNodes>
            0 -1 21 -2.2326443344354630e-02</internalNodes>
          <leafValues>
            5.9037578105926514e-01 -7.2874999046325684e-01</leafValues></_>
        <_>
          <internalNodes>
            0 -1 19 6.4986706711351871e-03</internalNodes>
          <leafValues>
            -9.6683329343795776e-01 3.6871278285980225e-01</leafValues></_>
        <_>
          <internalNodes>
            0 -1 1 2.2434336133301258e-03</internalNodes>
          <leafValues>
            3.7140718102455139e-01 -8.8250064849853516e-01</leafValues></_></weakClassifiers></_>
    <!-- stage 5 -->
    <_>
      <maxWeakCount>5</maxWeakCount>
      <stageThreshold>-1.3808870315551758e+00</stageThreshold>
      <weakClassifiers>
        <_>
          <internalNodes>
            0 -1 17 1.1396023631095886e-01</internalNodes>
          <leafValues>
            -9.1139239072799683e-01 7.8048777580261230e-01</leafValues></_>
        <_>
          <internalNodes>
            0 -1 20 2.7259573340415955e-01</internalNodes>
          <leafValues>
            -7.1745562553405762e-01 8.1006199121475220e-01</leafValues></_>
        <_>
          <internalNodes>
            0 -1 8 -4.7955587506294250e-02</internalNodes>
          <leafValues>
            5.5787897109985352e-01 -6.6195648908615112e-01</leafValues></_>
        <_>
          <internalNodes>
            0 -1 18 3.2808467745780945e-02</internalNodes>
          <leafValues>
            -6.4840096235275269e-01 6.7491084337234497e-01</leafValues></_>
        <_>
          <internalNodes>
            0 -1 15 9.4910841435194016e-03</internalNodes>
          <leafValues>
            -8.2199835777282715e-01 3.3848300576210022e-01</leafValues></_></weakClassifiers></_>
    <!-- stage 6 -->
    <_>
      <maxWeakCount>5</maxWeakCount>
      <stageThreshold>-1.1338243484497070e+00</stageThreshold>
      <weakClassifiers>
        <_>
          <internalNodes>
            0 -1 20 2.8745001554489136e-01</internalNodes>
          <leafValues>
            -7.8226709365844727e-01 9.6116507053375244e-01</leafValues></_>
        <_>
          <internalNodes>
            0 -1 23 -4.9726031720638275e-02</internalNodes>
          <leafValues>
            7.4637413024902344e-01 -7.3894953727722168e-01</leafValues></_>
        <_>
          <internalNodes>
            0 -1 3 -3.1041043996810913e-01</internalNodes>
          <leafValues>
            5.9097683429718018e-01 -6.9313561916351318e-01</leafValues></_>
        <_>
          <internalNodes>
            0 -1 11 -1.4927648589946330e-04</internalNodes>
          <leafValues>
            -5.4237884283065796e-01 7.0622289180755615e-01</leafValues></_>
        <_>
          <internalNodes>
            0 -1 16 -2.9625954106450081e-02</internalNodes>
          <leafValues>
            3.7430506944656372e-01 -9.8154544830322266e-01</leafValues></_></weakClassifiers></_></stages>
  <features>
    <_>
      <rects>
        <_>
          0 8 20 2 -1.</_>
        <_>
          5 8 10 2 2.</_></rects>
      <tilted>0</tilted></_>
    <_>
      <rects>
        <_>
          0 18 20 12 -1.</_>
        <_>
          0 21 20 6 2.</_></rects>
      <tilted>0</tilted></_>
    <_>
      <rects>
        <_>
          2 2 9 18 -1.</_>
        <_>
          5 8 3 6 9.</_></rects>
      <tilted>0</tilted></_>
    <_>
      <rects>
        <_>
          3 5 16 25 -1.</_>
        <_>
          7 5 8 25 2.</_></rects>
      <tilted>0</tilted></_>
    <_>
      <rects>
        <_>
          3 6 16 3 -1.</_>
        <_>
          7 6 8 3 2.</_></rects>
      <tilted>0</tilted></_>
    <_>
      <rects>
        <_>
          5 3 15 3 -1.</_>
        <_>
          10 4 5 1 9.</_></rects>
      <tilted>0</tilted></_>
    <_>
      <rects>
        <_>
          5 12 9 2 -1.</_>
        <_>
          5 12 9 1 2.</_></rects>
      <tilted>1</tilted></_>
    <_>
      <rects>
        <_>
          6 8 14 6 -1.</_>
        <_>
          6 8 7 6 2.</_></rects>
      <tilted>1</tilted></_>
    <_>
      <rects>
        <_>
          6 9 10 4 -1.</_>
        <_>
          6 9 10 2 2.</_></rects>
      <tilted>1</tilted></_>
    <_>
      <rects>
        <_>
          7 4 3 16 -1.</_>
        <_>
          7 12 3 8 2.</_></rects>
      <tilted>0</tilted></_>
    <_>
      <rects>
        <_>
          7 10 8 2 -1.</_>
        <_>
          9 12 4 2 2.</_></rects>
      <tilted>1</tilted></_>
    <_>
      <rects>
        <_>
          8 0 3 4 -1.</_>
        <_>
          8 0 3 2 2.</_></rects>
      <tilted>1</tilted></_>
    <_>
      <rects>
        <_>
          8 1 12 2 -1.</_>
        <_>
          11 4 6 2 2.</_></rects>
      <tilted>1</tilted></_>
    <_>
      <rects>
        <_>
          8 2 12 2 -1.</_>
        <_>
          11 5 6 2 2.</_></rects>
      <tilted>1</tilted></_>
    <_>
      <rects>
        <_>
          9 18 9 12 -1.</_>
        <_>
          12 22 3 4 9.</_></rects>
      <tilted>0</tilted></_>
    <_>
      <rects>
        <_>
          10 4 6 24 -1.</_>
        <_>
          10 10 6 12 2.</_></rects>
      <tilted>0</tilted></_>
    <_>
      <rects>
        <_>
          10 15 9 5 -1.</_>
        <_>
          13 15 3 5 3.</_></rects>
      <tilted>0</tilted></_>
    <_>
      <rects>
        <_>
          11 0 4 9 -1.</_>
        <_>
          11 0 2 9 2.</_></rects>
      <tilted>1</tilted></_>
    <_>
      <rects>
        <_>
          11 7 6 5 -1.</_>
        <_>
          13 9 2 5 3.</_></rects>
      <tilted>1</tilted></_>
    <_>
      <rects>
        <_>
          12 0 7 2 -1.</_>
        <_>
          12 0 7 1 2.</_></rects>
      <tilted>1</tilted></_>
    <_>
      <rects>
        <_>
          12 3 6 26 -1.</_>
        <_>
          15 3 3 26 2.</_></rects>
      <tilted>0</tilted></_>
    <_>
      <rects>
        <_>
          12 22 6 2 -1.</_>
        <_>
          14 24 2 2 3.</_></rects>
      <tilted>1</tilted></_>
    <_>
      <rects>
        <_>
          13 3 6 25 -1.</_>
        <_>
          16 3 3 25 2.</_></rects>
      <tilted>0</tilted></_>
    <_>
      <rects>
        <_>
          17 0 1 16 -1.</_>
        <_>
          13 4 1 8 2.</_></rects>
      <tilted>1</tilted></_>
    <_>
      <rects>
        <_>
          17 20 2 8 -1.</_>
        <_>
          15 22 2 4 2.</_></rects>
      <tilted>1</tilted></_></features></cascade>
</opencv_storage>
