<?xml version="1.0"?>
<opencv_storage>
<stage6>
  <maxWeakCount>5</maxWeakCount>
  <stageThreshold>-1.1338243484497070e+00</stageThreshold>
  <weakClassifiers>
    <_>
      <internalNodes>
        0 -1 224536 2.8745001554489136e-01</internalNodes>
      <leafValues>
        -7.8226709365844727e-01 9.6116507053375244e-01</leafValues></_>
    <_>
      <internalNodes>
        0 -1 269108 -4.9726031720638275e-02</internalNodes>
      <leafValues>
        7.4637413024902344e-01 -7.3894953727722168e-01</leafValues></_>
    <_>
      <internalNodes>
        0 -1 71491 -3.1041043996810913e-01</internalNodes>
      <leafValues>
        5.9097683429718018e-01 -6.9313561916351318e-01</leafValues></_>
    <_>
      <internalNodes>
        0 -1 161143 -1.4927648589946330e-04</internalNodes>
      <leafValues>
        -5.4237884283065796e-01 7.0622289180755615e-01</leafValues></_>
    <_>
      <internalNodes>
        0 -1 204892 -2.9625954106450081e-02</internalNodes>
      <leafValues>
        3.7430506944656372e-01 -9.8154544830322266e-01</leafValues></_></weakClassifiers></stage6>
</opencv_storage>
