<?xml version="1.0"?>
<opencv_storage>
<cascade>
  <stageType>BOOST</stageType>
  <featureType>HAAR</featureType>
  <height>30</height>
  <width>20</width>
  <stageParams>
    <boostType>GAB</boostType>
    <minHitRate>9.9500000476837158e-01</minHitRate>
    <maxFalseAlarm>4.0000000596046448e-01</maxFalseAlarm>
    <weightTrimRate>9.4999999999999996e-01</weightTrimRate>
    <maxDepth>1</maxDepth>
    <maxWeakCount>100</maxWeakCount></stageParams>
  <featureParams>
    <maxCatCount>0</maxCatCount>
    <featSize>1</featSize>
    <mode>ALL</mode></featureParams>
  <stageNum>10</stageNum>
  <stages>
    <!-- stage 0 -->
    <_>
      <maxWeakCount>3</maxWeakCount>
      <stageThreshold>-1.0833699703216553e+00</stageThreshold>
      <weakClassifiers>
        <_>
          <internalNodes>
            0 -1 8 1.8617624044418335e-01</internalNodes>
          <leafValues>
            -9.8207169771194458e-01 9.7983872890472412e-01</leafValues></_>
        <_>
          <internalNodes>
            0 -1 18 -1.6069650650024414e-01</internalNodes>
          <leafValues>
            8.9738315343856812e-01 -9.2596775293350220e-01</leafValues></_>
        <_>
          <internalNodes>
            0 -1 12 3.8820981979370117e-02</internalNodes>
          <leafValues>
            -9.5572394132614136e-01 8.2466953992843628e-01</leafValues></_></weakClassifiers></_>
    <!-- stage 1 -->
    <_>
      <maxWeakCount>4</maxWeakCount>
      <stageThreshold>-2.0058465003967285e+00</stageThreshold>
      <weakClassifiers>
        <_>
          <internalNodes>
            0 -1 0 -5.5369820445775986e-02</internalNodes>
          <leafValues>
            8.8235294818878174e-01 -9.5959597826004028e-01</leafValues></_>
        <_>
          <internalNodes>
            0 -1 4 2.9639518260955811e-01</internalNodes>
          <leafValues>
            -8.6082267761230469e-01 8.9909261465072632e-01</leafValues></_>
        <_>
          <internalNodes>
            0 -1 14 -4.0439173579216003e-02</internalNodes>
          <leafValues>
            8.2514923810958862e-01 -7.3420047760009766e-01</leafValues></_>
        <_>
          <internalNodes>
            0 -1 26 2.0193220116198063e-03</internalNodes>
          <leafValues>
            -9.7774636745452881e-01 5.4877251386642456e-01</leafValues></_></weakClassifiers></_>
    <!-- stage 2 -->
    <_>
      <maxWeakCount>3</maxWeakCount>
      <stageThreshold>-1.1804548501968384e+00</stageThreshold>
      <weakClassifiers>
        <_>
          <internalNodes>
            0 -1 11 2.1428628265857697e-01</internalNodes>
          <leafValues>
            -9.2246520519256592e-01 8.6639678478240967e-01</leafValues></_>
        <_>
          <internalNodes>
            0 -1 25 4.7042250633239746e-02</internalNodes>
          <leafValues>
            -9.3485468626022339e-01 6.8664199113845825e-01</leafValues></_>
        <_>
          <internalNodes>
            0 -1 9 -1.6255445778369904e-02</internalNodes>
          <leafValues>
            6.7686498165130615e-01 -8.0023097991943359e-01</leafValues></_></weakClassifiers></_>
    <!-- stage 3 -->
    <_>
      <maxWeakCount>3</maxWeakCount>
      <stageThreshold>-1.1019035577774048e+00</stageThreshold>
      <weakClassifiers>
        <_>
          <internalNodes>
            0 -1 23 -6.5414316952228546e-02</internalNodes>
          <leafValues>
            8.0645161867141724e-01 -9.5066803693771362e-01</leafValues></_>
        <_>
          <internalNodes>
            0 -1 16 4.1262496262788773e-02</internalNodes>
          <leafValues>
            -8.7859225273132324e-01 7.9475653171539307e-01</leafValues></_>
        <_>
          <internalNodes>
            0 -1 5 -4.7536976635456085e-02</internalNodes>
          <leafValues>
            7.2735679149627686e-01 -8.4521746635437012e-01</leafValues></_></weakClassifiers></_>
    <!-- stage 4 -->
    <_>
      <maxWeakCount>3</maxWeakCount>
      <stageThreshold>-1.1269419193267822e+00</stageThreshold>
      <weakClassifiers>
        <_>
          <internalNodes>
            0 -1 15 3.0943129211664200e-02</internalNodes>
          <leafValues>
            -8.7234044075012207e-01 8.6266094446182251e-01</leafValues></_>
        <_>
          <internalNodes>
            0 -1 17 -3.4178156405687332e-02</internalNodes>
          <leafValues>
            6.3592433929443359e-01 -9.0992558002471924e-01</leafValues></_>
        <_>
          <internalNodes>
            0 -1 1 -1.5045255422592163e-01</internalNodes>
          <leafValues>
            6.6204863786697388e-01 -8.9052575826644897e-01</leafValues></_></weakClassifiers></_>
    <!-- stage 5 -->
    <_>
      <maxWeakCount>3</maxWeakCount>
      <stageThreshold>-1.2205840349197388e+00</stageThreshold>
      <weakClassifiers>
        <_>
          <internalNodes>
            0 -1 24 8.6652398109436035e-02</internalNodes>
          <leafValues>
            -9.3020939826965332e-01 8.7122738361358643e-01</leafValues></_>
        <_>
          <internalNodes>
            0 -1 6 -6.8796858191490173e-02</internalNodes>
          <leafValues>
            6.5575170516967773e-01 -9.3329155445098877e-01</leafValues></_>
        <_>
          <internalNodes>
            0 -1 30 -1.5509929507970810e-02</internalNodes>
          <leafValues>
            6.4291691780090332e-01 -8.2232791185379028e-01</leafValues></_></weakClassifiers></_>
    <!-- stage 6 -->
    <_>
      <maxWeakCount>3</maxWeakCount>
      <stageThreshold>-1.1175292730331421e+00</stageThreshold>
      <weakClassifiers>
        <_>
          <internalNodes>
            0 -1 20 -1.3122326135635376e-01</internalNodes>
          <leafValues>
            7.5936883687973022e-01 -8.9123868942260742e-01</leafValues></_>
        <_>
          <internalNodes>
            0 -1 21 6.6343799233436584e-02</internalNodes>
          <leafValues>
            -8.0525732040405273e-01 7.6453942060470581e-01</leafValues></_>
        <_>
          <internalNodes>
            0 -1 2 -1.5541854500770569e-01</internalNodes>
          <leafValues>
            5.7896673679351807e-01 -9.4250702857971191e-01</leafValues></_></weakClassifiers></_>
    <!-- stage 7 -->
    <_>
      <maxWeakCount>3</maxWeakCount>
      <stageThreshold>-1.0631291866302490e+00</stageThreshold>
      <weakClassifiers>
        <_>
          <internalNodes>
            0 -1 29 -1.0565203614532948e-02</internalNodes>
          <leafValues>
            6.9230771064758301e-01 -8.9865565299987793e-01</leafValues></_>
        <_>
          <internalNodes>
            0 -1 27 -8.5884645581245422e-02</internalNodes>
          <leafValues>
            7.3596191406250000e-01 -8.5206675529479980e-01</leafValues></_>
        <_>
          <internalNodes>
            0 -1 13 -4.9609877169132233e-02</internalNodes>
          <leafValues>
            6.8759322166442871e-01 -7.7510541677474976e-01</leafValues></_></weakClassifiers></_>
    <!-- stage 8 -->
    <_>
      <maxWeakCount>3</maxWeakCount>
      <stageThreshold>-1.0486648082733154e+00</stageThreshold>
      <weakClassifiers>
        <_>
          <internalNodes>
            0 -1 19 -4.4430926442146301e-02</internalNodes>
          <leafValues>
            9.3967515230178833e-01 -8.4658557176589966e-01</leafValues></_>
        <_>
          <internalNodes>
            0 -1 22 -6.2552295625209808e-02</internalNodes>
          <leafValues>
            6.7675971984863281e-01 -9.1969120502471924e-01</leafValues></_>
        <_>
          <internalNodes>
            0 -1 28 -9.2648714780807495e-03</internalNodes>
          <leafValues>
            7.1761196851730347e-01 -8.5345959663391113e-01</leafValues></_></weakClassifiers></_>
    <!-- stage 9 -->
    <_>
      <maxWeakCount>3</maxWeakCount>
      <stageThreshold>-1.0724871158599854e+00</stageThreshold>
      <weakClassifiers>
        <_>
          <internalNodes>
            0 -1 3 1.0694777965545654e-01</internalNodes>
          <leafValues>
            -9.7628456354141235e-01 1.</leafValues></_>
        <_>
          <internalNodes>
            0 -1 7 5.3460650146007538e-02</internalNodes>
          <leafValues>
            -8.7383967638015747e-01 1.</leafValues></_>
        <_>
          <internalNodes>
            0 -1 10 -9.3229282647371292e-03</internalNodes>
          <leafValues>
            7.7763718366622925e-01 -9.5147085189819336e-01</leafValues></_></weakClassifiers></_></stages>
  <features>
    <_>
      <rects>
        <_>
          0 18 20 2 -1.</_>
        <_>
          5 18 10 2 2.</_></rects>
      <tilted>0</tilted></_>
    <_>
      <rects>
        <_>
          0 18 20 11 -1.</_>
        <_>
          5 18 10 11 2.</_></rects>
      <tilted>0</tilted></_>
    <_>
      <rects>
        <_>
          4 1 13 28 -1.</_>
        <_>
          4 15 13 14 2.</_></rects>
      <tilted>0</tilted></_>
    <_>
      <rects>
        <_>
          4 9 11 12 -1.</_>
        <_>
          4 13 11 4 3.</_></rects>
      <tilted>0</tilted></_>
    <_>
      <rects>
        <_>
          4 19 12 9 -1.</_>
        <_>
          8 22 4 3 9.</_></rects>
      <tilted>0</tilted></_>
    <_>
      <rects>
        <_>
          5 0 2 16 -1.</_>
        <_>
          5 8 2 8 2.</_></rects>
      <tilted>0</tilted></_>
    <_>
      <rects>
        <_>
          6 6 12 6 -1.</_>
        <_>
          6 9 12 3 2.</_></rects>
      <tilted>0</tilted></_>
    <_>
      <rects>
        <_>
          6 9 6 12 -1.</_>
        <_>
          6 12 6 6 2.</_></rects>
      <tilted>0</tilted></_>
    <_>
      <rects>
        <_>
          6 10 9 9 -1.</_>
        <_>
          9 13 3 3 9.</_></rects>
      <tilted>0</tilted></_>
    <_>
      <rects>
        <_>
          6 16 2 4 -1.</_>
        <_>
          6 16 2 2 2.</_></rects>
      <tilted>1</tilted></_>
    <_>
      <rects>
        <_>
          6 17 1 4 -1.</_>
        <_>
          6 17 1 2 2.</_></rects>
      <tilted>1</tilted></_>
    <_>
      <rects>
        <_>
          6 18 9 9 -1.</_>
        <_>
          9 21 3 3 9.</_></rects>
      <tilted>0</tilted></_>
    <_>
      <rects>
        <_>
          7 22 12 6 -1.</_>
        <_>
          7 22 6 3 2.</_>
        <_>
          13 25 6 3 2.</_></rects>
      <tilted>0</tilted></_>
    <_>
      <rects>
        <_>
          9 5 3 8 -1.</_>
        <_>
          7 7 3 4 2.</_></rects>
      <tilted>1</tilted></_>
    <_>
      <rects>
        <_>
          9 9 8 6 -1.</_>
        <_>
          9 9 4 3 2.</_>
        <_>
          13 12 4 3 2.</_></rects>
      <tilted>0</tilted></_>
    <_>
      <rects>
        <_>
          9 13 8 1 -1.</_>
        <_>
          9 13 4 1 2.</_></rects>
      <tilted>1</tilted></_>
    <_>
      <rects>
        <_>
          9 19 4 8 -1.</_>
        <_>
          9 21 4 4 2.</_></rects>
      <tilted>0</tilted></_>
    <_>
      <rects>
        <_>
          10 8 6 8 -1.</_>
        <_>
          10 8 3 4 2.</_>
        <_>
          13 12 3 4 2.</_></rects>
      <tilted>0</tilted></_>
    <_>
      <rects>
        <_>
          10 10 9 17 -1.</_>
        <_>
          13 10 3 17 3.</_></rects>
      <tilted>0</tilted></_>
    <_>
      <rects>
        <_>
          10 18 8 6 -1.</_>
        <_>
          10 18 4 3 2.</_>
        <_>
          14 21 4 3 2.</_></rects>
      <tilted>0</tilted></_>
    <_>
      <rects>
        <_>
          11 12 8 14 -1.</_>
        <_>
          13 12 4 14 2.</_></rects>
      <tilted>0</tilted></_>
    <_>
      <rects>
        <_>
          11 18 4 6 -1.</_>
        <_>
          9 20 4 2 3.</_></rects>
      <tilted>1</tilted></_>
    <_>
      <rects>
        <_>
          12 2 4 26 -1.</_>
        <_>
          12 15 4 13 2.</_></rects>
      <tilted>0</tilted></_>
    <_>
      <rects>
        <_>
          12 13 2 12 -1.</_>
        <_>
          9 16 2 6 2.</_></rects>
      <tilted>1</tilted></_>
    <_>
      <rects>
        <_>
          13 17 4 8 -1.</_>
        <_>
          11 19 4 4 2.</_></rects>
      <tilted>1</tilted></_>
    <_>
      <rects>
        <_>
          14 5 6 4 -1.</_>
        <_>
          14 5 6 2 2.</_></rects>
      <tilted>1</tilted></_>
    <_>
      <rects>
        <_>
          14 26 1 4 -1.</_>
        <_>
          14 28 1 2 2.</_></rects>
      <tilted>0</tilted></_>
    <_>
      <rects>
        <_>
          15 5 5 8 -1.</_>
        <_>
          13 7 5 4 2.</_></rects>
      <tilted>1</tilted></_>
    <_>
      <rects>
        <_>
          16 17 4 12 -1.</_>
        <_>
          16 21 4 4 3.</_></rects>
      <tilted>0</tilted></_>
    <_>
      <rects>
        <_>
          18 14 2 4 -1.</_>
        <_>
          18 14 1 4 2.</_></rects>
      <tilted>1</tilted></_>
    <_>
      <rects>
        <_>
          18 22 2 6 -1.</_>
        <_>
          18 22 1 6 2.</_></rects>
      <tilted>1</tilted></_></features></cascade>
</opencv_storage>
