<?xml version="1.0"?>
<opencv_storage>
<cascade>
  <stageType>BOOST</stageType>
  <featureType>HAAR</featureType>
  <height>30</height>
  <width>20</width>
  <stageParams>
    <boostType>GAB</boostType>
    <minHitRate>9.9500000476837158e-01</minHitRate>
    <maxFalseAlarm>4.0000000596046448e-01</maxFalseAlarm>
    <weightTrimRate>9.4999999999999996e-01</weightTrimRate>
    <maxDepth>1</maxDepth>
    <maxWeakCount>100</maxWeakCount></stageParams>
  <featureParams>
    <maxCatCount>0</maxCatCount>
    <featSize>1</featSize>
    <mode>ALL</mode></featureParams>
  <stageNum>9</stageNum>
  <stages>
    <!-- stage 0 -->
    <_>
      <maxWeakCount>2</maxWeakCount>
      <stageThreshold>-2.8142325580120087e-02</stageThreshold>
      <weakClassifiers>
        <_>
          <internalNodes>
            0 -1 32 1.6442537307739258e-01</internalNodes>
          <leafValues>
            -9.8791539669036865e-01 9.4871795177459717e-01</leafValues></_>
        <_>
          <internalNodes>
            0 -1 24 8.4339216351509094e-02</internalNodes>
          <leafValues>
            -9.7686028480529785e-01 9.6039915084838867e-01</leafValues></_></weakClassifiers></_>
    <!-- stage 1 -->
    <_>
      <maxWeakCount>3</maxWeakCount>
      <stageThreshold>-1.2043058872222900e+00</stageThreshold>
      <weakClassifiers>
        <_>
          <internalNodes>
            0 -1 17 4.1268222033977509e-02</internalNodes>
          <leafValues>
            -9.1968655586242676e-01 9.1649270057678223e-01</leafValues></_>
        <_>
          <internalNodes>
            0 -1 5 -7.7919557690620422e-02</internalNodes>
          <leafValues>
            7.9387408494949341e-01 -8.8408076763153076e-01</leafValues></_>
        <_>
          <internalNodes>
            0 -1 16 6.0963705182075500e-02</internalNodes>
          <leafValues>
            -9.2454570531845093e-01 5.9946149587631226e-01</leafValues></_></weakClassifiers></_>
    <!-- stage 2 -->
    <_>
      <maxWeakCount>4</maxWeakCount>
      <stageThreshold>-1.9377305507659912e+00</stageThreshold>
      <weakClassifiers>
        <_>
          <internalNodes>
            0 -1 19 -8.0905720591545105e-02</internalNodes>
          <leafValues>
            8.5882353782653809e-01 -9.4747471809387207e-01</leafValues></_>
        <_>
          <internalNodes>
            0 -1 23 -3.8336467742919922e-01</internalNodes>
          <leafValues>
            8.0657005310058594e-01 -8.1098723411560059e-01</leafValues></_>
        <_>
          <internalNodes>
            0 -1 20 -4.5618698000907898e-02</internalNodes>
          <leafValues>
            6.7712479829788208e-01 -7.4591445922851562e-01</leafValues></_>
        <_>
          <internalNodes>
            0 -1 8 -6.5808974206447601e-02</internalNodes>
          <leafValues>
            5.6664597988128662e-01 -7.8834342956542969e-01</leafValues></_></weakClassifiers></_>
    <!-- stage 3 -->
    <_>
      <maxWeakCount>3</maxWeakCount>
      <stageThreshold>-1.1103842258453369e+00</stageThreshold>
      <weakClassifiers>
        <_>
          <internalNodes>
            0 -1 22 -2.2089233994483948e-01</internalNodes>
          <leafValues>
            9.2527472972869873e-01 -8.8133972883224487e-01</leafValues></_>
        <_>
          <internalNodes>
            0 -1 18 -8.9111037552356720e-02</internalNodes>
          <leafValues>
            8.6337202787399292e-01 -7.8379756212234497e-01</leafValues></_>
        <_>
          <internalNodes>
            0 -1 11 -1.9566312432289124e-02</internalNodes>
          <leafValues>
            5.5475300550460815e-01 -9.6608167886734009e-01</leafValues></_></weakClassifiers></_>
    <!-- stage 4 -->
    <_>
      <maxWeakCount>5</maxWeakCount>
      <stageThreshold>-1.6368443965911865e+00</stageThreshold>
      <weakClassifiers>
        <_>
          <internalNodes>
            0 -1 37 -4.1061550378799438e-02</internalNodes>
          <leafValues>
            6.9534051418304443e-01 -9.4267517328262329e-01</leafValues></_>
        <_>
          <internalNodes>
            0 -1 38 -4.3629076331853867e-02</internalNodes>
          <leafValues>
            7.5484889745712280e-01 -8.3150249719619751e-01</leafValues></_>
        <_>
          <internalNodes>
            0 -1 28 -1.6014322638511658e-01</internalNodes>
          <leafValues>
            8.4595686197280884e-01 -5.6321525573730469e-01</leafValues></_>
        <_>
          <internalNodes>
            0 -1 33 -3.0242321081459522e-03</internalNodes>
          <leafValues>
            4.0281179547309875e-01 -9.4894933700561523e-01</leafValues></_>
        <_>
          <internalNodes>
            0 -1 4 -7.3781479150056839e-03</internalNodes>
          <leafValues>
            2.9773670434951782e-01 -9.6773630380630493e-01</leafValues></_></weakClassifiers></_>
    <!-- stage 5 -->
    <_>
      <maxWeakCount>5</maxWeakCount>
      <stageThreshold>-1.2127631902694702e+00</stageThreshold>
      <weakClassifiers>
        <_>
          <internalNodes>
            0 -1 13 -2.3536466062068939e-02</internalNodes>
          <leafValues>
            8.1699347496032715e-01 -8.4053796529769897e-01</leafValues></_>
        <_>
          <internalNodes>
            0 -1 21 1.7795515060424805e-01</internalNodes>
          <leafValues>
            -7.5225299596786499e-01 6.1496490240097046e-01</leafValues></_>
        <_>
          <internalNodes>
            0 -1 26 3.4579336643218994e-01</internalNodes>
          <leafValues>
            -5.5626058578491211e-01 8.5438179969787598e-01</leafValues></_>
        <_>
          <internalNodes>
            0 -1 15 3.6479763220995665e-03</internalNodes>
          <leafValues>
            -8.0288374423980713e-01 5.0014597177505493e-01</leafValues></_>
        <_>
          <internalNodes>
            0 -1 29 6.8820202723145485e-03</internalNodes>
          <leafValues>
            -8.6492073535919189e-01 4.3614235520362854e-01</leafValues></_></weakClassifiers></_>
    <!-- stage 6 -->
    <_>
      <maxWeakCount>8</maxWeakCount>
      <stageThreshold>-1.7865548133850098e+00</stageThreshold>
      <weakClassifiers>
        <_>
          <internalNodes>
            0 -1 31 2.7319866418838501e-01</internalNodes>
          <leafValues>
            -7.7798336744308472e-01 8.1384247541427612e-01</leafValues></_>
        <_>
          <internalNodes>
            0 -1 36 -8.9243754744529724e-02</internalNodes>
          <leafValues>
            6.7854559421539307e-01 -7.4352234601974487e-01</leafValues></_>
        <_>
          <internalNodes>
            0 -1 1 -5.7327123358845711e-03</internalNodes>
          <leafValues>
            5.4132246971130371e-01 -6.4713919162750244e-01</leafValues></_>
        <_>
          <internalNodes>
            0 -1 39 -8.5412729531526566e-03</internalNodes>
          <leafValues>
            4.6525400876998901e-01 -7.2465062141418457e-01</leafValues></_>
        <_>
          <internalNodes>
            0 -1 10 -1.6197212040424347e-02</internalNodes>
          <leafValues>
            7.5714981555938721e-01 -4.1678559780120850e-01</leafValues></_>
        <_>
          <internalNodes>
            0 -1 3 1.8167782574892044e-02</internalNodes>
          <leafValues>
            -8.4476441144943237e-01 3.9112600684165955e-01</leafValues></_>
        <_>
          <internalNodes>
            0 -1 25 -1.3707333803176880e-01</internalNodes>
          <leafValues>
            6.7009764909744263e-01 -4.8141536116600037e-01</leafValues></_>
        <_>
          <internalNodes>
            0 -1 35 -1.1075977236032486e-02</internalNodes>
          <leafValues>
            4.3988019227981567e-01 -8.0150073766708374e-01</leafValues></_></weakClassifiers></_>
    <!-- stage 7 -->
    <_>
      <maxWeakCount>6</maxWeakCount>
      <stageThreshold>-1.5268056392669678e+00</stageThreshold>
      <weakClassifiers>
        <_>
          <internalNodes>
            0 -1 7 2.6633292436599731e-03</internalNodes>
          <leafValues>
            -8.3349281549453735e-01 8.1538462638854980e-01</leafValues></_>
        <_>
          <internalNodes>
            0 -1 30 2.7044874429702759e-01</internalNodes>
          <leafValues>
            -6.1949235200881958e-01 7.9245305061340332e-01</leafValues></_>
        <_>
          <internalNodes>
            0 -1 2 -1.1603577062487602e-02</internalNodes>
          <leafValues>
            6.5144979953765869e-01 -6.5388900041580200e-01</leafValues></_>
        <_>
          <internalNodes>
            0 -1 14 -1.2773804366588593e-01</internalNodes>
          <leafValues>
            6.5081787109375000e-01 -5.1667177677154541e-01</leafValues></_>
        <_>
          <internalNodes>
            0 -1 9 -4.3800628185272217e-01</internalNodes>
          <leafValues>
            6.6743242740631104e-01 -4.8967805504798889e-01</leafValues></_>
        <_>
          <internalNodes>
            0 -1 34 3.8632522337138653e-03</internalNodes>
          <leafValues>
            -7.6466232538223267e-01 4.1892883181571960e-01</leafValues></_></weakClassifiers></_>
    <!-- stage 8 -->
    <_>
      <maxWeakCount>5</maxWeakCount>
      <stageThreshold>-8.4986686706542969e-01</stageThreshold>
      <weakClassifiers>
        <_>
          <internalNodes>
            0 -1 27 6.9286890327930450e-02</internalNodes>
          <leafValues>
            -8.0934578180313110e-01 8.5116279125213623e-01</leafValues></_>
        <_>
          <internalNodes>
            0 -1 39 -7.1793333627283573e-03</internalNodes>
          <leafValues>
            5.4365581274032593e-01 -9.2600071430206299e-01</leafValues></_>
        <_>
          <internalNodes>
            0 -1 6 1.4288590289652348e-02</internalNodes>
          <leafValues>
            -6.7449045181274414e-01 7.3901486396789551e-01</leafValues></_>
        <_>
          <internalNodes>
            0 -1 12 7.8857192420400679e-05</internalNodes>
          <leafValues>
            8.1664031744003296e-01 -5.5116826295852661e-01</leafValues></_>
        <_>
          <internalNodes>
            0 -1 0 -3.5370990633964539e-02</internalNodes>
          <leafValues>
            7.4332976341247559e-01 -6.9785368442535400e-01</leafValues></_></weakClassifiers></_></stages>
  <features>
    <_>
      <rects>
        <_>
          0 9 20 1 -1.</_>
        <_>
          5 9 10 1 2.</_></rects>
      <tilted>0</tilted></_>
    <_>
      <rects>
        <_>
          1 2 14 2 -1.</_>
        <_>
          1 2 7 1 2.</_>
        <_>
          8 3 7 1 2.</_></rects>
      <tilted>0</tilted></_>
    <_>
      <rects>
        <_>
          1 15 13 15 -1.</_>
        <_>
          1 20 13 5 3.</_></rects>
      <tilted>0</tilted></_>
    <_>
      <rects>
        <_>
          2 7 8 22 -1.</_>
        <_>
          2 7 4 11 2.</_>
        <_>
          6 18 4 11 2.</_></rects>
      <tilted>0</tilted></_>
    <_>
      <rects>
        <_>
          3 6 4 12 -1.</_>
        <_>
          5 6 2 12 2.</_></rects>
      <tilted>0</tilted></_>
    <_>
      <rects>
        <_>
          3 6 16 3 -1.</_>
        <_>
          7 6 8 3 2.</_></rects>
      <tilted>0</tilted></_>
    <_>
      <rects>
        <_>
          3 12 14 6 -1.</_>
        <_>
          3 14 14 2 3.</_></rects>
      <tilted>0</tilted></_>
    <_>
      <rects>
        <_>
          3 13 4 4 -1.</_>
        <_>
          3 14 4 2 2.</_></rects>
      <tilted>0</tilted></_>
    <_>
      <rects>
        <_>
          4 4 16 3 -1.</_>
        <_>
          8 4 8 3 2.</_></rects>
      <tilted>0</tilted></_>
    <_>
      <rects>
        <_>
          4 4 16 25 -1.</_>
        <_>
          8 4 8 25 2.</_></rects>
      <tilted>0</tilted></_>
    <_>
      <rects>
        <_>
          4 11 10 2 -1.</_>
        <_>
          4 11 10 1 2.</_></rects>
      <tilted>1</tilted></_>
    <_>
      <rects>
        <_>
          4 14 14 3 -1.</_>
        <_>
          11 14 7 3 2.</_></rects>
      <tilted>0</tilted></_>
    <_>
      <rects>
        <_>
          4 20 4 8 -1.</_>
        <_>
          5 20 2 8 2.</_></rects>
      <tilted>0</tilted></_>
    <_>
      <rects>
        <_>
          5 7 6 1 -1.</_>
        <_>
          7 9 2 1 3.</_></rects>
      <tilted>1</tilted></_>
    <_>
      <rects>
        <_>
          6 1 3 18 -1.</_>
        <_>
          7 7 1 6 9.</_></rects>
      <tilted>0</tilted></_>
    <_>
      <rects>
        <_>
          6 26 9 4 -1.</_>
        <_>
          6 28 9 2 2.</_></rects>
      <tilted>0</tilted></_>
    <_>
      <rects>
        <_>
          7 2 4 20 -1.</_>
        <_>
          7 12 4 10 2.</_></rects>
      <tilted>0</tilted></_>
    <_>
      <rects>
        <_>
          7 10 8 2 -1.</_>
        <_>
          9 12 4 2 2.</_></rects>
      <tilted>1</tilted></_>
    <_>
      <rects>
        <_>
          8 1 12 2 -1.</_>
        <_>
          11 4 6 2 2.</_></rects>
      <tilted>1</tilted></_>
    <_>
      <rects>
        <_>
          8 2 12 2 -1.</_>
        <_>
          11 5 6 2 2.</_></rects>
      <tilted>1</tilted></_>
    <_>
      <rects>
        <_>
          8 8 2 8 -1.</_>
        <_>
          8 8 2 4 2.</_></rects>
      <tilted>1</tilted></_>
    <_>
      <rects>
        <_>
          9 0 6 9 -1.</_>
        <_>
          9 0 3 9 2.</_></rects>
      <tilted>1</tilted></_>
    <_>
      <rects>
        <_>
          9 3 8 23 -1.</_>
        <_>
          11 3 4 23 2.</_></rects>
      <tilted>0</tilted></_>
    <_>
      <rects>
        <_>
          9 3 9 27 -1.</_>
        <_>
          12 3 3 27 3.</_></rects>
      <tilted>0</tilted></_>
    <_>
      <rects>
        <_>
          11 0 4 9 -1.</_>
        <_>
          11 0 2 9 2.</_></rects>
      <tilted>1</tilted></_>
    <_>
      <rects>
        <_>
          11 0 9 4 -1.</_>
        <_>
          14 3 3 4 3.</_></rects>
      <tilted>1</tilted></_>
    <_>
      <rects>
        <_>
          11 2 8 25 -1.</_>
        <_>
          15 2 4 25 2.</_></rects>
      <tilted>0</tilted></_>
    <_>
      <rects>
        <_>
          11 11 6 5 -1.</_>
        <_>
          11 11 3 5 2.</_></rects>
      <tilted>1</tilted></_>
    <_>
      <rects>
        <_>
          12 0 6 9 -1.</_>
        <_>
          14 2 2 9 3.</_></rects>
      <tilted>1</tilted></_>
    <_>
      <rects>
        <_>
          12 0 8 2 -1.</_>
        <_>
          12 0 8 1 2.</_></rects>
      <tilted>1</tilted></_>
    <_>
      <rects>
        <_>
          12 2 6 25 -1.</_>
        <_>
          15 2 3 25 2.</_></rects>
      <tilted>0</tilted></_>
    <_>
      <rects>
        <_>
          12 4 6 24 -1.</_>
        <_>
          15 4 3 24 2.</_></rects>
      <tilted>0</tilted></_>
    <_>
      <rects>
        <_>
          13 3 6 25 -1.</_>
        <_>
          16 3 3 25 2.</_></rects>
      <tilted>0</tilted></_>
    <_>
      <rects>
        <_>
          13 24 4 2 -1.</_>
        <_>
          14 25 2 2 2.</_></rects>
      <tilted>1</tilted></_>
    <_>
      <rects>
        <_>
          14 1 6 5 -1.</_>
        <_>
          16 1 2 5 3.</_></rects>
      <tilted>0</tilted></_>
    <_>
      <rects>
        <_>
          15 22 1 6 -1.</_>
        <_>
          15 22 1 3 2.</_></rects>
      <tilted>1</tilted></_>
    <_>
      <rects>
        <_>
          16 0 2 16 -1.</_>
        <_>
          12 4 2 8 2.</_></rects>
      <tilted>1</tilted></_>
    <_>
      <rects>
        <_>
          17 1 1 16 -1.</_>
        <_>
          13 5 1 8 2.</_></rects>
      <tilted>1</tilted></_>
    <_>
      <rects>
        <_>
          17 20 2 8 -1.</_>
        <_>
          15 22 2 4 2.</_></rects>
      <tilted>1</tilted></_>
    <_>
      <rects>
        <_>
          17 24 2 4 -1.</_>
        <_>
          17 24 1 4 2.</_></rects>
      <tilted>1</tilted></_></features></cascade>
</opencv_storage>
