<?xml version="1.0"?>
<opencv_storage>
<stage7>
  <maxWeakCount>6</maxWeakCount>
  <stageThreshold>-1.5268056392669678e+00</stageThreshold>
  <weakClassifiers>
    <_>
      <internalNodes>
        0 -1 78833 2.6633292436599731e-03</internalNodes>
      <leafValues>
        -8.3349281549453735e-01 8.1538462638854980e-01</leafValues></_>
    <_>
      <internalNodes>
        0 -1 223812 2.7044874429702759e-01</internalNodes>
      <leafValues>
        -6.1949235200881958e-01 7.9245305061340332e-01</leafValues></_>
    <_>
      <internalNodes>
        0 -1 38822 -1.1603577062487602e-02</internalNodes>
      <leafValues>
        6.5144979953765869e-01 -6.5388900041580200e-01</leafValues></_>
    <_>
      <internalNodes>
        0 -1 125940 -1.2773804366588593e-01</internalNodes>
      <leafValues>
        6.5081787109375000e-01 -5.1667177677154541e-01</leafValues></_>
    <_>
      <internalNodes>
        0 -1 90642 -4.3800628185272217e-01</internalNodes>
      <leafValues>
        6.6743242740631104e-01 -4.8967805504798889e-01</leafValues></_>
    <_>
      <internalNodes>
        0 -1 245645 3.8632522337138653e-03</internalNodes>
      <leafValues>
        -7.6466232538223267e-01 4.1892883181571960e-01</leafValues></_></weakClassifiers></stage7>
</opencv_storage>
