<?xml version="1.0"?>
<opencv_storage>
<stage4>
  <maxWeakCount>5</maxWeakCount>
  <stageThreshold>-1.5615179538726807e+00</stageThreshold>
  <weakClassifiers>
    <_>
      <internalNodes>
        0 -1 130405 -2.1739272400736809e-02</internalNodes>
      <leafValues>
        8.7500000000000000e-01 -8.6778843402862549e-01</leafValues></_>
    <_>
      <internalNodes>
        0 -1 219112 -5.2883625030517578e-02</internalNodes>
      <leafValues>
        7.6924061775207520e-01 -7.9200607538223267e-01</leafValues></_>
    <_>
      <internalNodes>
        0 -1 247622 5.4479767568409443e-03</internalNodes>
      <leafValues>
        -9.7141540050506592e-01 5.0227719545364380e-01</leafValues></_>
    <_>
      <internalNodes>
        0 -1 42131 -1.8956929445266724e-02</internalNodes>
      <leafValues>
        4.3196555972099304e-01 -8.5996520519256592e-01</leafValues></_>
    <_>
      <internalNodes>
        0 -1 73711 -9.2701530084013939e-03</internalNodes>
      <leafValues>
        4.5596459507942200e-01 -9.1209012269973755e-01</leafValues></_></weakClassifiers></stage4>
</opencv_storage>
