<?xml version="1.0"?>
<opencv_storage>
<cascade>
  <stageType>BOOST</stageType>
  <featureType>HAAR</featureType>
  <height>15</height>
  <width>10</width>
  <stageParams>
    <boostType>GAB</boostType>
    <minHitRate>9.9500000476837158e-01</minHitRate>
    <maxFalseAlarm>4.0000000596046448e-01</maxFalseAlarm>
    <weightTrimRate>9.4999999999999996e-01</weightTrimRate>
    <maxDepth>1</maxDepth>
    <maxWeakCount>100</maxWeakCount></stageParams>
  <featureParams>
    <maxCatCount>0</maxCatCount>
    <featSize>1</featSize>
    <mode>ALL</mode></featureParams>
  <stageNum>7</stageNum>
  <stages>
    <!-- stage 0 -->
    <_>
      <maxWeakCount>1</maxWeakCount>
      <stageThreshold>9.7619044780731201e-01</stageThreshold>
      <weakClassifiers>
        <_>
          <internalNodes>
            0 -1 12 -7.1780271828174591e-02</internalNodes>
          <leafValues>
            9.7619044780731201e-01 -9.9598395824432373e-01</leafValues></_></weakClassifiers></_>
    <!-- stage 1 -->
    <_>
      <maxWeakCount>2</maxWeakCount>
      <stageThreshold>-1.1271936446428299e-01</stageThreshold>
      <weakClassifiers>
        <_>
          <internalNodes>
            0 -1 3 9.7288340330123901e-02</internalNodes>
          <leafValues>
            -9.5845699310302734e-01 9.5910018682479858e-01</leafValues></_>
        <_>
          <internalNodes>
            0 -1 6 -4.8307549953460693e-01</internalNodes>
          <leafValues>
            8.4573763608932495e-01 -9.9208766222000122e-01</leafValues></_></weakClassifiers></_>
    <!-- stage 2 -->
    <_>
      <maxWeakCount>2</maxWeakCount>
      <stageThreshold>-2.4743841588497162e-01</stageThreshold>
      <weakClassifiers>
        <_>
          <internalNodes>
            0 -1 0 -8.5923731327056885e-01</internalNodes>
          <leafValues>
            9.3131315708160400e-01 -9.5621889829635620e-01</leafValues></_>
        <_>
          <internalNodes>
            0 -1 4 4.2286634445190430e-02</internalNodes>
          <leafValues>
            -9.8026764392852783e-01 7.0878046751022339e-01</leafValues></_></weakClassifiers></_>
    <!-- stage 3 -->
    <_>
      <maxWeakCount>3</maxWeakCount>
      <stageThreshold>-1.0784305334091187e+00</stageThreshold>
      <weakClassifiers>
        <_>
          <internalNodes>
            0 -1 16 -9.1485202312469482e-02</internalNodes>
          <leafValues>
            8.3173996210098267e-01 -9.5701128244400024e-01</leafValues></_>
        <_>
          <internalNodes>
            0 -1 2 -2.0831444859504700e-01</internalNodes>
          <leafValues>
            8.5181045532226562e-01 -8.2722705602645874e-01</leafValues></_>
        <_>
          <internalNodes>
            0 -1 14 -3.2502550631761551e-02</internalNodes>
          <leafValues>
            7.0580774545669556e-01 -7.6921534538269043e-01</leafValues></_></weakClassifiers></_>
    <!-- stage 4 -->
    <_>
      <maxWeakCount>3</maxWeakCount>
      <stageThreshold>-1.1902505159378052e+00</stageThreshold>
      <weakClassifiers>
        <_>
          <internalNodes>
            0 -1 9 6.3255973160266876e-02</internalNodes>
          <leafValues>
            -8.4745764732360840e-01 9.1324198246002197e-01</leafValues></_>
        <_>
          <internalNodes>
            0 -1 7 -6.1545949429273605e-02</internalNodes>
          <leafValues>
            6.1237204074859619e-01 -9.1616487503051758e-01</leafValues></_>
        <_>
          <internalNodes>
            0 -1 10 -1.0221900790929794e-01</internalNodes>
          <leafValues>
            5.7337194681167603e-01 -8.9214086532592773e-01</leafValues></_></weakClassifiers></_>
    <!-- stage 5 -->
    <_>
      <maxWeakCount>3</maxWeakCount>
      <stageThreshold>-1.2073843479156494e+00</stageThreshold>
      <weakClassifiers>
        <_>
          <internalNodes>
            0 -1 11 -1.1646091938018799e-02</internalNodes>
          <leafValues>
            7.4025976657867432e-01 -9.3548387289047241e-01</leafValues></_>
        <_>
          <internalNodes>
            0 -1 15 -5.7601489126682281e-02</internalNodes>
          <leafValues>
            6.7214387655258179e-01 -8.0977928638458252e-01</leafValues></_>
        <_>
          <internalNodes>
            0 -1 5 -2.4951085448265076e-02</internalNodes>
          <leafValues>
            5.3787875175476074e-01 -9.8870909214019775e-01</leafValues></_></weakClassifiers></_>
    <!-- stage 6 -->
    <_>
      <maxWeakCount>3</maxWeakCount>
      <stageThreshold>-1.0036588907241821e+00</stageThreshold>
      <weakClassifiers>
        <_>
          <internalNodes>
            0 -1 8 -1.2526233494281769e-01</internalNodes>
          <leafValues>
            1. -9.3610841035842896e-01</leafValues></_>
        <_>
          <internalNodes>
            0 -1 13 -9.4431981444358826e-02</internalNodes>
          <leafValues>
            9.1699904203414917e-01 -8.5664409399032593e-01</leafValues></_>
        <_>
          <internalNodes>
            0 -1 1 3.5239502787590027e-02</internalNodes>
          <leafValues>
            -8.5606634616851807e-01 7.8909361362457275e-01</leafValues></_></weakClassifiers></_></stages>
  <features>
    <_>
      <rects>
        <_>
          0 3 6 12 -1.</_>
        <_>
          2 7 2 4 9.</_></rects>
      <tilted>0</tilted></_>
    <_>
      <rects>
        <_>
          2 5 8 1 -1.</_>
        <_>
          2 5 4 1 2.</_></rects>
      <tilted>1</tilted></_>
    <_>
      <rects>
        <_>
          2 7 4 6 -1.</_>
        <_>
          2 9 4 2 3.</_></rects>
      <tilted>0</tilted></_>
    <_>
      <rects>
        <_>
          2 9 3 4 -1.</_>
        <_>
          2 11 3 2 2.</_></rects>
      <tilted>0</tilted></_>
    <_>
      <rects>
        <_>
          3 5 2 2 -1.</_>
        <_>
          3 5 1 2 2.</_></rects>
      <tilted>1</tilted></_>
    <_>
      <rects>
        <_>
          3 9 2 2 -1.</_>
        <_>
          3 9 2 1 2.</_></rects>
      <tilted>1</tilted></_>
    <_>
      <rects>
        <_>
          4 6 6 9 -1.</_>
        <_>
          6 9 2 3 9.</_></rects>
      <tilted>0</tilted></_>
    <_>
      <rects>
        <_>
          4 11 4 3 -1.</_>
        <_>
          6 11 2 3 2.</_></rects>
      <tilted>0</tilted></_>
    <_>
      <rects>
        <_>
          5 3 3 4 -1.</_>
        <_>
          6 4 1 4 3.</_></rects>
      <tilted>1</tilted></_>
    <_>
      <rects>
        <_>
          5 4 4 1 -1.</_>
        <_>
          6 5 2 1 2.</_></rects>
      <tilted>1</tilted></_>
    <_>
      <rects>
        <_>
          5 6 5 4 -1.</_>
        <_>
          4 7 5 2 2.</_></rects>
      <tilted>1</tilted></_>
    <_>
      <rects>
        <_>
          5 8 1 2 -1.</_>
        <_>
          5 9 1 1 2.</_></rects>
      <tilted>0</tilted></_>
    <_>
      <rects>
        <_>
          6 0 3 3 -1.</_>
        <_>
          7 1 1 3 3.</_></rects>
      <tilted>1</tilted></_>
    <_>
      <rects>
        <_>
          6 1 3 3 -1.</_>
        <_>
          7 2 1 3 3.</_></rects>
      <tilted>1</tilted></_>
    <_>
      <rects>
        <_>
          6 3 2 1 -1.</_>
        <_>
          6 3 1 1 2.</_></rects>
      <tilted>1</tilted></_>
    <_>
      <rects>
        <_>
          6 4 2 2 -1.</_>
        <_>
          6 4 1 2 2.</_></rects>
      <tilted>1</tilted></_>
    <_>
      <rects>
        <_>
          7 1 1 12 -1.</_>
        <_>
          7 7 1 6 2.</_></rects>
      <tilted>0</tilted></_></features></cascade>
</opencv_storage>
