<?xml version="1.0"?>
<opencv_storage>
<stage6>
  <maxWeakCount>5</maxWeakCount>
  <stageThreshold>-1.4787675142288208e+00</stageThreshold>
  <weakClassifiers>
    <_>
      <internalNodes>
        0 -1 206333 -4.5325152575969696e-02</internalNodes>
      <leafValues>
        7.2774869203567505e-01 -8.2885086536407471e-01</leafValues></_>
    <_>
      <internalNodes>
        0 -1 217096 -1.2045821547508240e-01</internalNodes>
      <leafValues>
        6.3631868362426758e-01 -8.6749964952468872e-01</leafValues></_>
    <_>
      <internalNodes>
        0 -1 246367 7.6400607824325562e-02</internalNodes>
      <leafValues>
        -7.7670902013778687e-01 5.8394724130630493e-01</leafValues></_>
    <_>
      <internalNodes>
        0 -1 234158 -1.3955882750451565e-03</internalNodes>
      <leafValues>
        5.1571708917617798e-01 -8.3603334426879883e-01</leafValues></_>
    <_>
      <internalNodes>
        0 -1 232963 -5.7747866958379745e-03</internalNodes>
      <leafValues>
        4.7857499122619629e-01 -7.8483861684799194e-01</leafValues></_></weakClassifiers></stage6>
</opencv_storage>
