<?xml version="1.0"?>
<opencv_storage>
<stage8>
  <maxWeakCount>6</maxWeakCount>
  <stageThreshold>-1.9165031909942627e+00</stageThreshold>
  <weakClassifiers>
    <_>
      <internalNodes>
        0 -1 243441 6.3335761427879333e-02</internalNodes>
      <leafValues>
        -8.7810945510864258e-01 7.7272725105285645e-01</leafValues></_>
    <_>
      <internalNodes>
        0 -1 225023 -8.4746882319450378e-02</internalNodes>
      <leafValues>
        7.1704250574111938e-01 -8.4848749637603760e-01</leafValues></_>
    <_>
      <internalNodes>
        0 -1 62815 6.3950596377253532e-03</internalNodes>
      <leafValues>
        -8.3296597003936768e-01 4.9853605031967163e-01</leafValues></_>
    <_>
      <internalNodes>
        0 -1 253073 1.6374059487134218e-04</internalNodes>
      <leafValues>
        -6.7941105365753174e-01 6.1918145418167114e-01</leafValues></_>
    <_>
      <internalNodes>
        0 -1 11834 -5.2597112953662872e-02</internalNodes>
      <leafValues>
        8.1698143482208252e-01 -6.1318105459213257e-01</leafValues></_>
    <_>
      <internalNodes>
        0 -1 275210 -6.9135073572397232e-03</internalNodes>
      <leafValues>
        6.3705927133560181e-01 -6.9443088769912720e-01</leafValues></_></weakClassifiers></stage8>
</opencv_storage>
