<?xml version="1.0"?>
<opencv_storage>
<stage3>
  <maxWeakCount>5</maxWeakCount>
  <stageThreshold>-1.1953117847442627e+00</stageThreshold>
  <weakClassifiers>
    <_>
      <internalNodes>
        0 -1 244011 -5.2078217267990112e-02</internalNodes>
      <leafValues>
        7.6863753795623779e-01 -8.6189889907836914e-01</leafValues></_>
    <_>
      <internalNodes>
        0 -1 9815 -3.6721712350845337e-01</internalNodes>
      <leafValues>
        6.3143098354339600e-01 -8.7375569343566895e-01</leafValues></_>
    <_>
      <internalNodes>
        0 -1 40240 -7.4259512126445770e-02</internalNodes>
      <leafValues>
        6.8351954221725464e-01 -7.5041168928146362e-01</leafValues></_>
    <_>
      <internalNodes>
        0 -1 271750 -5.7009523734450340e-03</internalNodes>
      <leafValues>
        6.7236202955245972e-01 -7.6666748523712158e-01</leafValues></_>
    <_>
      <internalNodes>
        0 -1 12837 -6.3842318952083588e-02</internalNodes>
      <leafValues>
        6.2349081039428711e-01 -6.9073432683944702e-01</leafValues></_></weakClassifiers></stage3>
</opencv_storage>
