<?xml version="1.0"?>
<opencv_storage>
<cascade>
  <stageType>BOOST</stageType>
  <featureType>HAAR</featureType>
  <height>30</height>
  <width>20</width>
  <stageParams>
    <boostType>GAB</boostType>
    <minHitRate>9.9500000476837158e-01</minHitRate>
    <maxFalseAlarm>4.0000000596046448e-01</maxFalseAlarm>
    <weightTrimRate>9.4999999999999996e-01</weightTrimRate>
    <maxDepth>1</maxDepth>
    <maxWeakCount>100</maxWeakCount></stageParams>
  <featureParams>
    <maxCatCount>0</maxCatCount>
    <featSize>1</featSize>
    <mode>ALL</mode></featureParams>
  <stageNum>7</stageNum>
  <stages>
    <!-- stage 0 -->
    <_>
      <maxWeakCount>2</maxWeakCount>
      <stageThreshold>-5.1015574485063553e-02</stageThreshold>
      <weakClassifiers>
        <_>
          <internalNodes>
            0 -1 14 7.4150905013084412e-02</internalNodes>
          <leafValues>
            -9.8753118515014648e-01 9.8492461442947388e-01</leafValues></_>
        <_>
          <internalNodes>
            0 -1 9 2.1852061152458191e-01</internalNodes>
          <leafValues>
            -9.8761564493179321e-01 9.3651556968688965e-01</leafValues></_></weakClassifiers></_>
    <!-- stage 1 -->
    <_>
      <maxWeakCount>3</maxWeakCount>
      <stageThreshold>-1.1974623203277588e+00</stageThreshold>
      <weakClassifiers>
        <_>
          <internalNodes>
            0 -1 12 -1.4511567354202271e-01</internalNodes>
          <leafValues>
            8.8888889551162720e-01 -9.3532335758209229e-01</leafValues></_>
        <_>
          <internalNodes>
            0 -1 13 -2.5609750300645828e-02</internalNodes>
          <leafValues>
            7.8511792421340942e-01 -9.3425089120864868e-01</leafValues></_>
        <_>
          <internalNodes>
            0 -1 1 -5.2115216851234436e-02</internalNodes>
          <leafValues>
            6.7211198806762695e-01 -9.5361495018005371e-01</leafValues></_></weakClassifiers></_>
    <!-- stage 2 -->
    <_>
      <maxWeakCount>3</maxWeakCount>
      <stageThreshold>-1.1024837493896484e+00</stageThreshold>
      <weakClassifiers>
        <_>
          <internalNodes>
            0 -1 5 -2.4355938658118248e-02</internalNodes>
          <leafValues>
            8.5822784900665283e-01 -9.1801244020462036e-01</leafValues></_>
        <_>
          <internalNodes>
            0 -1 8 3.0762165784835815e-02</internalNodes>
          <leafValues>
            -9.0436589717864990e-01 7.4622094631195068e-01</leafValues></_>
        <_>
          <internalNodes>
            0 -1 19 -1.3255241326987743e-02</internalNodes>
          <leafValues>
            7.4339050054550171e-01 -9.3069225549697876e-01</leafValues></_></weakClassifiers></_>
    <!-- stage 3 -->
    <_>
      <maxWeakCount>3</maxWeakCount>
      <stageThreshold>-1.0537444353103638e+00</stageThreshold>
      <weakClassifiers>
        <_>
          <internalNodes>
            0 -1 0 -3.5494515299797058e-01</internalNodes>
          <leafValues>
            8.3914208412170410e-01 -8.6215233802795410e-01</leafValues></_>
        <_>
          <internalNodes>
            0 -1 17 -5.1941670477390289e-02</internalNodes>
          <leafValues>
            6.5656769275665283e-01 -9.5747655630111694e-01</leafValues></_>
        <_>
          <internalNodes>
            0 -1 3 -1.2626989185810089e-01</internalNodes>
          <leafValues>
            7.6588445901870728e-01 -7.9930895566940308e-01</leafValues></_></weakClassifiers></_>
    <!-- stage 4 -->
    <_>
      <maxWeakCount>2</maxWeakCount>
      <stageThreshold>-2.8852280974388123e-01</stageThreshold>
      <weakClassifiers>
        <_>
          <internalNodes>
            0 -1 2 -8.3744317293167114e-02</internalNodes>
          <leafValues>
            7.4307304620742798e-01 -8.6550438404083252e-01</leafValues></_>
        <_>
          <internalNodes>
            0 -1 16 -1.0075917094945908e-01</internalNodes>
          <leafValues>
            5.7698154449462891e-01 -9.7548848390579224e-01</leafValues></_></weakClassifiers></_>
    <!-- stage 5 -->
    <_>
      <maxWeakCount>3</maxWeakCount>
      <stageThreshold>-1.1040245294570923e+00</stageThreshold>
      <weakClassifiers>
        <_>
          <internalNodes>
            0 -1 15 -3.6845676600933075e-02</internalNodes>
          <leafValues>
            6.8246448040008545e-01 -8.8431876897811890e-01</leafValues></_>
        <_>
          <internalNodes>
            0 -1 10 2.8084922581911087e-02</internalNodes>
          <leafValues>
            -7.7701473236083984e-01 6.8354284763336182e-01</leafValues></_>
        <_>
          <internalNodes>
            0 -1 6 2.0045346021652222e-01</internalNodes>
          <leafValues>
            -8.6629515886306763e-01 5.5730891227722168e-01</leafValues></_></weakClassifiers></_>
    <!-- stage 6 -->
    <_>
      <maxWeakCount>5</maxWeakCount>
      <stageThreshold>-1.2583115100860596e+00</stageThreshold>
      <weakClassifiers>
        <_>
          <internalNodes>
            0 -1 18 -4.1177265346050262e-02</internalNodes>
          <leafValues>
            5.4767185449600220e-01 -8.6381840705871582e-01</leafValues></_>
        <_>
          <internalNodes>
            0 -1 7 1.9924029707908630e-02</internalNodes>
          <leafValues>
            -8.4669452905654907e-01 6.2003612518310547e-01</leafValues></_>
        <_>
          <internalNodes>
            0 -1 4 3.0128985643386841e-01</internalNodes>
          <leafValues>
            -6.4811545610427856e-01 7.2815281152725220e-01</leafValues></_>
        <_>
          <internalNodes>
            0 -1 11 -4.3817851692438126e-03</internalNodes>
          <leafValues>
            5.9021228551864624e-01 -7.6756852865219116e-01</leafValues></_>
        <_>
          <internalNodes>
            0 -1 20 4.1972775012254715e-02</internalNodes>
          <leafValues>
            -7.5773417949676514e-01 5.1010465621948242e-01</leafValues></_></weakClassifiers></_></stages>
  <features>
    <_>
      <rects>
        <_>
          0 8 12 12 -1.</_>
        <_>
          4 12 4 4 9.</_></rects>
      <tilted>0</tilted></_>
    <_>
      <rects>
        <_>
          0 14 20 2 -1.</_>
        <_>
          5 14 10 2 2.</_></rects>
      <tilted>0</tilted></_>
    <_>
      <rects>
        <_>
          0 25 20 3 -1.</_>
        <_>
          5 25 10 3 2.</_></rects>
      <tilted>0</tilted></_>
    <_>
      <rects>
        <_>
          1 3 6 23 -1.</_>
        <_>
          4 3 3 23 2.</_></rects>
      <tilted>0</tilted></_>
    <_>
      <rects>
        <_>
          4 13 10 15 -1.</_>
        <_>
          4 18 10 5 3.</_></rects>
      <tilted>0</tilted></_>
    <_>
      <rects>
        <_>
          5 0 1 20 -1.</_>
        <_>
          5 5 1 10 2.</_></rects>
      <tilted>0</tilted></_>
    <_>
      <rects>
        <_>
          5 5 12 9 -1.</_>
        <_>
          9 8 4 3 9.</_></rects>
      <tilted>0</tilted></_>
    <_>
      <rects>
        <_>
          5 8 1 20 -1.</_>
        <_>
          5 13 1 10 2.</_></rects>
      <tilted>0</tilted></_>
    <_>
      <rects>
        <_>
          5 12 1 15 -1.</_>
        <_>
          5 17 1 5 3.</_></rects>
      <tilted>0</tilted></_>
    <_>
      <rects>
        <_>
          5 13 8 15 -1.</_>
        <_>
          5 18 8 5 3.</_></rects>
      <tilted>0</tilted></_>
    <_>
      <rects>
        <_>
          5 19 4 4 -1.</_>
        <_>
          5 19 2 4 2.</_></rects>
      <tilted>1</tilted></_>
    <_>
      <rects>
        <_>
          6 2 4 4 -1.</_>
        <_>
          5 3 4 2 2.</_></rects>
      <tilted>1</tilted></_>
    <_>
      <rects>
        <_>
          7 5 13 6 -1.</_>
        <_>
          5 7 13 2 3.</_></rects>
      <tilted>1</tilted></_>
    <_>
      <rects>
        <_>
          10 0 1 9 -1.</_>
        <_>
          7 3 1 3 3.</_></rects>
      <tilted>1</tilted></_>
    <_>
      <rects>
        <_>
          10 4 5 12 -1.</_>
        <_>
          10 7 5 6 2.</_></rects>
      <tilted>0</tilted></_>
    <_>
      <rects>
        <_>
          11 0 8 2 -1.</_>
        <_>
          13 2 4 2 2.</_></rects>
      <tilted>1</tilted></_>
    <_>
      <rects>
        <_>
          11 0 6 28 -1.</_>
        <_>
          11 14 6 14 2.</_></rects>
      <tilted>0</tilted></_>
    <_>
      <rects>
        <_>
          11 12 6 12 -1.</_>
        <_>
          11 12 3 6 2.</_>
        <_>
          14 18 3 6 2.</_></rects>
      <tilted>0</tilted></_>
    <_>
      <rects>
        <_>
          13 0 6 4 -1.</_>
        <_>
          15 2 2 4 3.</_></rects>
      <tilted>1</tilted></_>
    <_>
      <rects>
        <_>
          14 4 6 8 -1.</_>
        <_>
          14 4 3 4 2.</_>
        <_>
          17 8 3 4 2.</_></rects>
      <tilted>0</tilted></_>
    <_>
      <rects>
        <_>
          17 15 1 12 -1.</_>
        <_>
          13 19 1 4 3.</_></rects>
      <tilted>1</tilted></_></features></cascade>
</opencv_storage>
