<?xml version="1.0"?>
<opencv_storage>
<stage5>
  <maxWeakCount>6</maxWeakCount>
  <stageThreshold>-1.5379662513732910e+00</stageThreshold>
  <weakClassifiers>
    <_>
      <internalNodes>
        0 -1 227659 -9.8087400197982788e-02</internalNodes>
      <leafValues>
        7.8260868787765503e-01 -8.2692307233810425e-01</leafValues></_>
    <_>
      <internalNodes>
        0 -1 86551 -2.4914313107728958e-02</internalNodes>
      <leafValues>
        7.6768904924392700e-01 -6.3990831375122070e-01</leafValues></_>
    <_>
      <internalNodes>
        0 -1 39229 -3.7644900381565094e-02</internalNodes>
      <leafValues>
        5.3346902132034302e-01 -7.0097625255584717e-01</leafValues></_>
    <_>
      <internalNodes>
        0 -1 118117 -5.2639710903167725e-01</internalNodes>
      <leafValues>
        7.0797055959701538e-01 -5.2847576141357422e-01</leafValues></_>
    <_>
      <internalNodes>
        0 -1 234751 4.6861879527568817e-03</internalNodes>
      <leafValues>
        -6.8695169687271118e-01 5.6107360124588013e-01</leafValues></_>
    <_>
      <internalNodes>
        0 -1 119909 -8.9997204486280680e-04</internalNodes>
      <leafValues>
        6.1082357168197632e-01 -6.3786435127258301e-01</leafValues></_></weakClassifiers></stage5>
</opencv_storage>
