<?xml version="1.0"?>
<opencv_storage>
<stage7>
  <maxWeakCount>5</maxWeakCount>
  <stageThreshold>-1.4872192144393921e+00</stageThreshold>
  <weakClassifiers>
    <_>
      <internalNodes>
        0 -1 105374 -1.1330943554639816e-02</internalNodes>
      <leafValues>
        8.6111110448837280e-01 -8.4523808956146240e-01</leafValues></_>
    <_>
      <internalNodes>
        0 -1 45554 -1.1256659030914307e-01</internalNodes>
      <leafValues>
        8.5397547483444214e-01 -7.7349245548248291e-01</leafValues></_>
    <_>
      <internalNodes>
        0 -1 159438 -1.9740430638194084e-02</internalNodes>
      <leafValues>
        5.8966183662414551e-01 -7.9111337661743164e-01</leafValues></_>
    <_>
      <internalNodes>
        0 -1 107901 -2.8857741504907608e-02</internalNodes>
      <leafValues>
        3.8933658599853516e-01 -9.3300020694732666e-01</leafValues></_>
    <_>
      <internalNodes>
        0 -1 142727 3.3117916435003281e-02</internalNodes>
      <leafValues>
        -6.8008822202682495e-01 5.3328812122344971e-01</leafValues></_></weakClassifiers></stage7>
</opencv_storage>
