<?xml version="1.0"?>
<opencv_storage>
<cascade>
  <stageType>BOOST</stageType>
  <featureType>HAAR</featureType>
  <height>30</height>
  <width>20</width>
  <stageParams>
    <boostType>GAB</boostType>
    <minHitRate>9.9500000476837158e-01</minHitRate>
    <maxFalseAlarm>4.0000000596046448e-01</maxFalseAlarm>
    <weightTrimRate>9.4999999999999996e-01</weightTrimRate>
    <maxDepth>1</maxDepth>
    <maxWeakCount>100</maxWeakCount></stageParams>
  <featureParams>
    <maxCatCount>0</maxCatCount>
    <featSize>1</featSize>
    <mode>ALL</mode></featureParams>
  <stageNum>13</stageNum>
  <stages>
    <!-- stage 0 -->
    <_>
      <maxWeakCount>3</maxWeakCount>
      <stageThreshold>-1.0426846742630005e+00</stageThreshold>
      <weakClassifiers>
        <_>
          <internalNodes>
            0 -1 105 1.0085839033126831e-01</internalNodes>
          <leafValues>
            -9.3281656503677368e-01 7.5586855411529541e-01</leafValues></_>
        <_>
          <internalNodes>
            0 -1 27 -2.8362628817558289e-01</internalNodes>
          <leafValues>
            8.4791254997253418e-01 -8.1018066406250000e-01</leafValues></_>
        <_>
          <internalNodes>
            0 -1 68 -1.3344936072826385e-02</internalNodes>
          <leafValues>
            7.0031249523162842e-01 -8.4384280443191528e-01</leafValues></_></weakClassifiers></_>
    <!-- stage 1 -->
    <_>
      <maxWeakCount>4</maxWeakCount>
      <stageThreshold>-9.0007257461547852e-01</stageThreshold>
      <weakClassifiers>
        <_>
          <internalNodes>
            0 -1 81 -2.5937080383300781e-02</internalNodes>
          <leafValues>
            6.1815339326858521e-01 -8.5701978206634521e-01</leafValues></_>
        <_>
          <internalNodes>
            0 -1 95 -6.2260918319225311e-02</internalNodes>
          <leafValues>
            5.9016364812850952e-01 -7.8961926698684692e-01</leafValues></_>
        <_>
          <internalNodes>
            0 -1 16 -1.8328504636883736e-02</internalNodes>
          <leafValues>
            4.3915972113609314e-01 -9.1164731979370117e-01</leafValues></_>
        <_>
          <internalNodes>
            0 -1 11 -2.3446375504136086e-02</internalNodes>
          <leafValues>
            3.0740681290626526e-01 -9.3526971340179443e-01</leafValues></_></weakClassifiers></_>
    <!-- stage 2 -->
    <_>
      <maxWeakCount>5</maxWeakCount>
      <stageThreshold>-1.6995612382888794e+00</stageThreshold>
      <weakClassifiers>
        <_>
          <internalNodes>
            0 -1 80 2.4679690599441528e-02</internalNodes>
          <leafValues>
            -8.2071363925933838e-01 5.2688169479370117e-01</leafValues></_>
        <_>
          <internalNodes>
            0 -1 58 6.3627347350120544e-02</internalNodes>
          <leafValues>
            -6.0047799348831177e-01 8.3200478553771973e-01</leafValues></_>
        <_>
          <internalNodes>
            0 -1 75 5.0938867032527924e-02</internalNodes>
          <leafValues>
            -3.8959708809852600e-01 7.7288919687271118e-01</leafValues></_>
        <_>
          <internalNodes>
            0 -1 2 8.2722399383783340e-03</internalNodes>
          <leafValues>
            -6.0924959182739258e-01 5.1381230354309082e-01</leafValues></_>
        <_>
          <internalNodes>
            0 -1 102 8.6796404793858528e-03</internalNodes>
          <leafValues>
            -7.1200567483901978e-01 4.8751026391983032e-01</leafValues></_></weakClassifiers></_>
    <!-- stage 3 -->
    <_>
      <maxWeakCount>5</maxWeakCount>
      <stageThreshold>-9.3576508760452271e-01</stageThreshold>
      <weakClassifiers>
        <_>
          <internalNodes>
            0 -1 84 4.9289286136627197e-02</internalNodes>
          <leafValues>
            -6.4697408676147461e-01 7.2330099344253540e-01</leafValues></_>
        <_>
          <internalNodes>
            0 -1 98 -7.5637251138687134e-02</internalNodes>
          <leafValues>
            6.0317569971084595e-01 -5.7545757293701172e-01</leafValues></_>
        <_>
          <internalNodes>
            0 -1 114 5.6236051023006439e-03</internalNodes>
          <leafValues>
            -8.5748857259750366e-01 3.9920407533645630e-01</leafValues></_>
        <_>
          <internalNodes>
            0 -1 27 -3.2988098263740540e-01</internalNodes>
          <leafValues>
            4.9069488048553467e-01 -5.2809923887252808e-01</leafValues></_>
        <_>
          <internalNodes>
            0 -1 40 5.1506236195564270e-02</internalNodes>
          <leafValues>
            -5.6045627593994141e-01 4.9362111091613770e-01</leafValues></_></weakClassifiers></_>
    <!-- stage 4 -->
    <_>
      <maxWeakCount>6</maxWeakCount>
      <stageThreshold>-9.9001508951187134e-01</stageThreshold>
      <weakClassifiers>
        <_>
          <internalNodes>
            0 -1 69 2.0180061459541321e-02</internalNodes>
          <leafValues>
            -8.0458623170852661e-01 2.5972396135330200e-01</leafValues></_>
        <_>
          <internalNodes>
            0 -1 70 1.0841758921742439e-02</internalNodes>
          <leafValues>
            -5.9928977489471436e-01 4.3483287096023560e-01</leafValues></_>
        <_>
          <internalNodes>
            0 -1 106 8.7235689163208008e-02</internalNodes>
          <leafValues>
            -8.9116483926773071e-01 2.9804846644401550e-01</leafValues></_>
        <_>
          <internalNodes>
            0 -1 29 -1.6641944646835327e-01</internalNodes>
          <leafValues>
            5.6157231330871582e-01 -4.5032081007957458e-01</leafValues></_>
        <_>
          <internalNodes>
            0 -1 30 3.6376804113388062e-02</internalNodes>
          <leafValues>
            -4.1960850358009338e-01 4.8061448335647583e-01</leafValues></_>
        <_>
          <internalNodes>
            0 -1 17 -3.0116576701402664e-02</internalNodes>
          <leafValues>
            2.4060946702957153e-01 -7.7335047721862793e-01</leafValues></_></weakClassifiers></_>
    <!-- stage 5 -->
    <_>
      <maxWeakCount>11</maxWeakCount>
      <stageThreshold>-1.5364553928375244e+00</stageThreshold>
      <weakClassifiers>
        <_>
          <internalNodes>
            0 -1 56 -1.1148722842335701e-02</internalNodes>
          <leafValues>
            5.3921568393707275e-01 -5.8908045291900635e-01</leafValues></_>
        <_>
          <internalNodes>
            0 -1 59 2.2064549848437309e-02</internalNodes>
          <leafValues>
            -4.1117206215858459e-01 5.3488665819168091e-01</leafValues></_>
        <_>
          <internalNodes>
            0 -1 99 -1.2489724904298782e-02</internalNodes>
          <leafValues>
            2.5546026229858398e-01 -7.0836460590362549e-01</leafValues></_>
        <_>
          <internalNodes>
            0 -1 82 1.1125164106488228e-02</internalNodes>
          <leafValues>
            -5.6069022417068481e-01 3.4280297160148621e-01</leafValues></_>
        <_>
          <internalNodes>
            0 -1 61 -1.6049523837864399e-03</internalNodes>
          <leafValues>
            2.5056093931198120e-01 -7.6588928699493408e-01</leafValues></_>
        <_>
          <internalNodes>
            0 -1 39 -5.3675199160352349e-04</internalNodes>
          <leafValues>
            2.1620470285415649e-01 -7.0910215377807617e-01</leafValues></_>
        <_>
          <internalNodes>
            0 -1 19 -4.3823450803756714e-02</internalNodes>
          <leafValues>
            4.0290668606758118e-01 -3.5949334502220154e-01</leafValues></_>
        <_>
          <internalNodes>
            0 -1 66 5.4638892412185669e-02</internalNodes>
          <leafValues>
            2.0594276487827301e-01 -8.2238209247589111e-01</leafValues></_>
        <_>
          <internalNodes>
            0 -1 12 -4.7875298187136650e-03</internalNodes>
          <leafValues>
            1.0965476930141449e-01 -9.3401837348937988e-01</leafValues></_>
        <_>
          <internalNodes>
            0 -1 18 5.6058811023831367e-03</internalNodes>
          <leafValues>
            1.1483797430992126e-01 -8.0278062820434570e-01</leafValues></_>
        <_>
          <internalNodes>
            0 -1 62 -8.7197730317711830e-04</internalNodes>
          <leafValues>
            -5.0275593996047974e-01 2.5950911641120911e-01</leafValues></_></weakClassifiers></_>
    <!-- stage 6 -->
    <_>
      <maxWeakCount>12</maxWeakCount>
      <stageThreshold>-1.5267113447189331e+00</stageThreshold>
      <weakClassifiers>
        <_>
          <internalNodes>
            0 -1 83 5.5780455470085144e-02</internalNodes>
          <leafValues>
            -5.7774388790130615e-01 3.2377049326896667e-01</leafValues></_>
        <_>
          <internalNodes>
            0 -1 50 3.3329688012599945e-02</internalNodes>
          <leafValues>
            -4.5395073294639587e-01 4.5348957180976868e-01</leafValues></_>
        <_>
          <internalNodes>
            0 -1 92 9.8676493507809937e-05</internalNodes>
          <leafValues>
            1.9137443602085114e-01 -8.7629061937332153e-01</leafValues></_>
        <_>
          <internalNodes>
            0 -1 57 -2.0561124384403229e-01</internalNodes>
          <leafValues>
            5.1063984632492065e-01 -3.1052386760711670e-01</leafValues></_>
        <_>
          <internalNodes>
            0 -1 54 -6.6674016416072845e-02</internalNodes>
          <leafValues>
            7.4287372827529907e-01 -2.5712090730667114e-01</leafValues></_>
        <_>
          <internalNodes>
            0 -1 60 4.2921863496303558e-04</internalNodes>
          <leafValues>
            2.4787648022174835e-01 -8.7673640251159668e-01</leafValues></_>
        <_>
          <internalNodes>
            0 -1 63 -7.5795426964759827e-02</internalNodes>
          <leafValues>
            2.6193165779113770e-01 -5.2571058273315430e-01</leafValues></_>
        <_>
          <internalNodes>
            0 -1 88 9.5527037978172302e-02</internalNodes>
          <leafValues>
            -1.9846500456333160e-01 6.3815683126449585e-01</leafValues></_>
        <_>
          <internalNodes>
            0 -1 53 5.4431285709142685e-02</internalNodes>
          <leafValues>
            1.9515264034271240e-01 -7.0527911186218262e-01</leafValues></_>
        <_>
          <internalNodes>
            0 -1 104 -9.9621865956578404e-06</internalNodes>
          <leafValues>
            2.2223794460296631e-01 -5.3921848535537720e-01</leafValues></_>
        <_>
          <internalNodes>
            0 -1 73 -1.5370237641036510e-02</internalNodes>
          <leafValues>
            4.3344995379447937e-01 -3.1099638342857361e-01</leafValues></_>
        <_>
          <internalNodes>
            0 -1 38 3.4969591069966555e-04</internalNodes>
          <leafValues>
            1.7284499108791351e-01 -6.6216051578521729e-01</leafValues></_></weakClassifiers></_>
    <!-- stage 7 -->
    <_>
      <maxWeakCount>12</maxWeakCount>
      <stageThreshold>-1.3049746751785278e+00</stageThreshold>
      <weakClassifiers>
        <_>
          <internalNodes>
            0 -1 112 1.0083764791488647e-02</internalNodes>
          <leafValues>
            -8.0792319774627686e-01 7.5491212308406830e-02</leafValues></_>
        <_>
          <internalNodes>
            0 -1 5 -8.0494463443756104e-02</internalNodes>
          <leafValues>
            1.8105854094028473e-01 -7.2912037372589111e-01</leafValues></_>
        <_>
          <internalNodes>
            0 -1 42 -5.0769504159688950e-03</internalNodes>
          <leafValues>
            3.9566111564636230e-01 -4.0686544775962830e-01</leafValues></_>
        <_>
          <internalNodes>
            0 -1 33 -2.8221060347277671e-05</internalNodes>
          <leafValues>
            -5.0724726915359497e-01 3.2566356658935547e-01</leafValues></_>
        <_>
          <internalNodes>
            0 -1 74 3.7796087563037872e-02</internalNodes>
          <leafValues>
            -3.2196503877639771e-01 4.8218593001365662e-01</leafValues></_>
        <_>
          <internalNodes>
            0 -1 94 1.9741632044315338e-02</internalNodes>
          <leafValues>
            -2.3789659142494202e-01 6.5471869707107544e-01</leafValues></_>
        <_>
          <internalNodes>
            0 -1 103 9.4038863608147949e-05</internalNodes>
          <leafValues>
            3.1492027640342712e-01 -4.7023627161979675e-01</leafValues></_>
        <_>
          <internalNodes>
            0 -1 0 -6.3317324966192245e-03</internalNodes>
          <leafValues>
            -6.7470782995223999e-01 2.0648284256458282e-01</leafValues></_>
        <_>
          <internalNodes>
            0 -1 25 -5.4761249572038651e-02</internalNodes>
          <leafValues>
            3.8182473182678223e-01 -4.0066742897033691e-01</leafValues></_>
        <_>
          <internalNodes>
            0 -1 37 -2.6202218607068062e-02</internalNodes>
          <leafValues>
            4.2411077022552490e-01 -3.5254618525505066e-01</leafValues></_>
        <_>
          <internalNodes>
            0 -1 23 -1.7357380129396915e-03</internalNodes>
          <leafValues>
            3.5838085412979126e-01 -5.9933555126190186e-01</leafValues></_>
        <_>
          <internalNodes>
            0 -1 85 -2.4412490427494049e-02</internalNodes>
          <leafValues>
            1.2287116795778275e-01 -8.6099541187286377e-01</leafValues></_></weakClassifiers></_>
    <!-- stage 8 -->
    <_>
      <maxWeakCount>11</maxWeakCount>
      <stageThreshold>-1.1591252088546753e+00</stageThreshold>
      <weakClassifiers>
        <_>
          <internalNodes>
            0 -1 24 -2.1955543756484985e-01</internalNodes>
          <leafValues>
            1.8604651093482971e-01 -6.5467625856399536e-01</leafValues></_>
        <_>
          <internalNodes>
            0 -1 6 4.1818805038928986e-02</internalNodes>
          <leafValues>
            2.2184622287750244e-01 -6.7342001199722290e-01</leafValues></_>
        <_>
          <internalNodes>
            0 -1 44 -4.5018517994321883e-05</internalNodes>
          <leafValues>
            -5.1814848184585571e-01 3.2264313101768494e-01</leafValues></_>
        <_>
          <internalNodes>
            0 -1 35 -9.2684127390384674e-02</internalNodes>
          <leafValues>
            4.9487826228141785e-01 -3.6444056034088135e-01</leafValues></_>
        <_>
          <internalNodes>
            0 -1 107 -1.3812024146318436e-02</internalNodes>
          <leafValues>
            5.2441275119781494e-01 -2.3193334043025970e-01</leafValues></_>
        <_>
          <internalNodes>
            0 -1 77 2.3683249950408936e-02</internalNodes>
          <leafValues>
            -4.1118723154067993e-01 3.4097114205360413e-01</leafValues></_>
        <_>
          <internalNodes>
            0 -1 13 1.3128214050084352e-04</internalNodes>
          <leafValues>
            -4.1067469120025635e-01 2.8602421283721924e-01</leafValues></_>
        <_>
          <internalNodes>
            0 -1 14 3.0087726190686226e-04</internalNodes>
          <leafValues>
            -8.0859845876693726e-01 1.6819714009761810e-01</leafValues></_>
        <_>
          <internalNodes>
            0 -1 49 -4.7476008534431458e-02</internalNodes>
          <leafValues>
            6.4845013618469238e-01 -2.2549901902675629e-01</leafValues></_>
        <_>
          <internalNodes>
            0 -1 36 -3.0206345021724701e-02</internalNodes>
          <leafValues>
            3.3736965060234070e-01 -3.6001321673393250e-01</leafValues></_>
        <_>
          <internalNodes>
            0 -1 21 4.7547925263643265e-02</internalNodes>
          <leafValues>
            1.3311301171779633e-01 -9.6413803100585938e-01</leafValues></_></weakClassifiers></_>
    <!-- stage 9 -->
    <_>
      <maxWeakCount>15</maxWeakCount>
      <stageThreshold>-1.2756003141403198e+00</stageThreshold>
      <weakClassifiers>
        <_>
          <internalNodes>
            0 -1 101 1.8611431121826172e-01</internalNodes>
          <leafValues>
            -4.3633070588111877e-01 8.6013984680175781e-01</leafValues></_>
        <_>
          <internalNodes>
            0 -1 91 -3.3591270446777344e-02</internalNodes>
          <leafValues>
            4.3462452292442322e-01 -3.4670847654342651e-01</leafValues></_>
        <_>
          <internalNodes>
            0 -1 9 1.2154779396951199e-03</internalNodes>
          <leafValues>
            2.6302933692932129e-01 -5.1491814851760864e-01</leafValues></_>
        <_>
          <internalNodes>
            0 -1 15 -1.3376129209063947e-04</internalNodes>
          <leafValues>
            -4.4912713766098022e-01 2.2055971622467041e-01</leafValues></_>
        <_>
          <internalNodes>
            0 -1 72 7.0468574762344360e-02</internalNodes>
          <leafValues>
            1.7823466658592224e-01 -7.4673014879226685e-01</leafValues></_>
        <_>
          <internalNodes>
            0 -1 48 1.1797127127647400e-01</internalNodes>
          <leafValues>
            -1.7474944889545441e-01 7.2653388977050781e-01</leafValues></_>
        <_>
          <internalNodes>
            0 -1 7 -1.2490254640579224e-01</internalNodes>
          <leafValues>
            4.3856751918792725e-01 -3.6302337050437927e-01</leafValues></_>
        <_>
          <internalNodes>
            0 -1 67 1.0121805826202035e-04</internalNodes>
          <leafValues>
            1.1751881241798401e-01 -8.6205458641052246e-01</leafValues></_>
        <_>
          <internalNodes>
            0 -1 93 1.4859388465993106e-04</internalNodes>
          <leafValues>
            8.7874867022037506e-02 -7.9981184005737305e-01</leafValues></_>
        <_>
          <internalNodes>
            0 -1 46 2.5962978601455688e-02</internalNodes>
          <leafValues>
            -2.4664577841758728e-01 4.3726360797882080e-01</leafValues></_>
        <_>
          <internalNodes>
            0 -1 64 -7.0869707269594073e-04</internalNodes>
          <leafValues>
            2.3233984410762787e-01 -4.1412484645843506e-01</leafValues></_>
        <_>
          <internalNodes>
            0 -1 34 5.8811433613300323e-02</internalNodes>
          <leafValues>
            -1.7100499570369720e-01 5.8700037002563477e-01</leafValues></_>
        <_>
          <internalNodes>
            0 -1 110 -4.1093789041042328e-02</internalNodes>
          <leafValues>
            8.5788416862487793e-01 -1.2636061012744904e-01</leafValues></_>
        <_>
          <internalNodes>
            0 -1 1 -9.9665676316362806e-06</internalNodes>
          <leafValues>
            3.0995133519172668e-01 -3.3194109797477722e-01</leafValues></_>
        <_>
          <internalNodes>
            0 -1 4 -2.4704562500119209e-02</internalNodes>
          <leafValues>
            1.2007882446050644e-01 -8.0034339427947998e-01</leafValues></_></weakClassifiers></_>
    <!-- stage 10 -->
    <_>
      <maxWeakCount>13</maxWeakCount>
      <stageThreshold>-1.3245846033096313e+00</stageThreshold>
      <weakClassifiers>
        <_>
          <internalNodes>
            0 -1 90 9.4858855009078979e-02</internalNodes>
          <leafValues>
            -4.8430192470550537e-01 4.1254124045372009e-01</leafValues></_>
        <_>
          <internalNodes>
            0 -1 79 -3.2183945178985596e-02</internalNodes>
          <leafValues>
            3.8647913932800293e-01 -3.2591328024864197e-01</leafValues></_>
        <_>
          <internalNodes>
            0 -1 41 1.1947334860451519e-04</internalNodes>
          <leafValues>
            1.6354785859584808e-01 -6.7426037788391113e-01</leafValues></_>
        <_>
          <internalNodes>
            0 -1 76 -7.0120813325047493e-03</internalNodes>
          <leafValues>
            -7.4153476953506470e-01 1.6357745230197906e-01</leafValues></_>
        <_>
          <internalNodes>
            0 -1 52 9.9621865956578404e-06</internalNodes>
          <leafValues>
            -4.4471693038940430e-01 2.9260373115539551e-01</leafValues></_>
        <_>
          <internalNodes>
            0 -1 10 -4.2843152768909931e-03</internalNodes>
          <leafValues>
            -7.1215319633483887e-01 1.2623704969882965e-01</leafValues></_>
        <_>
          <internalNodes>
            0 -1 55 1.0637967288494110e-01</internalNodes>
          <leafValues>
            1.7256914079189301e-01 -6.8391370773315430e-01</leafValues></_>
        <_>
          <internalNodes>
            0 -1 108 -3.4647557185962796e-04</internalNodes>
          <leafValues>
            -6.5552592277526855e-01 1.2770096957683563e-01</leafValues></_>
        <_>
          <internalNodes>
            0 -1 32 -2.8213340789079666e-02</internalNodes>
          <leafValues>
            -7.3732107877731323e-01 1.3844165205955505e-01</leafValues></_>
        <_>
          <internalNodes>
            0 -1 51 -1.8553175032138824e-02</internalNodes>
          <leafValues>
            -9.3741136789321899e-01 8.7534323334693909e-02</leafValues></_>
        <_>
          <internalNodes>
            0 -1 89 -2.1206885576248169e-02</internalNodes>
          <leafValues>
            5.7050305604934692e-01 -2.2559106349945068e-01</leafValues></_>
        <_>
          <internalNodes>
            0 -1 87 -1.2853876687586308e-02</internalNodes>
          <leafValues>
            8.1861293315887451e-01 -1.4942258596420288e-01</leafValues></_>
        <_>
          <internalNodes>
            0 -1 78 2.4071369261946529e-04</internalNodes>
          <leafValues>
            2.1004916727542877e-01 -7.8915798664093018e-01</leafValues></_></weakClassifiers></_>
    <!-- stage 11 -->
    <_>
      <maxWeakCount>11</maxWeakCount>
      <stageThreshold>-1.1575111150741577e+00</stageThreshold>
      <weakClassifiers>
        <_>
          <internalNodes>
            0 -1 65 1.3009663671255112e-02</internalNodes>
          <leafValues>
            -5.2188551425933838e-01 5.5555558204650879e-01</leafValues></_>
        <_>
          <internalNodes>
            0 -1 111 -6.7238733172416687e-02</internalNodes>
          <leafValues>
            5.8724081516265869e-01 -3.1198039650917053e-01</leafValues></_>
        <_>
          <internalNodes>
            0 -1 47 1.8301261588931084e-02</internalNodes>
          <leafValues>
            -3.0144783854484558e-01 6.7019170522689819e-01</leafValues></_>
        <_>
          <internalNodes>
            0 -1 45 -6.1218209564685822e-02</internalNodes>
          <leafValues>
            7.4101144075393677e-01 -1.9664055109024048e-01</leafValues></_>
        <_>
          <internalNodes>
            0 -1 113 1.0628154268488288e-04</internalNodes>
          <leafValues>
            3.4810578823089600e-01 -4.5243895053863525e-01</leafValues></_>
        <_>
          <internalNodes>
            0 -1 109 -3.2801576890051365e-04</internalNodes>
          <leafValues>
            -6.3803625106811523e-01 2.1520997583866119e-01</leafValues></_>
        <_>
          <internalNodes>
            0 -1 20 -1.3241181150078773e-03</internalNodes>
          <leafValues>
            6.0608047246932983e-01 -2.1798516809940338e-01</leafValues></_>
        <_>
          <internalNodes>
            0 -1 1 -9.9665676316362806e-06</internalNodes>
          <leafValues>
            3.4462192654609680e-01 -4.4914358854293823e-01</leafValues></_>
        <_>
          <internalNodes>
            0 -1 26 3.5703112371265888e-03</internalNodes>
          <leafValues>
            2.0079009234905243e-01 -9.0796345472335815e-01</leafValues></_>
        <_>
          <internalNodes>
            0 -1 8 -9.1900646686553955e-02</internalNodes>
          <leafValues>
            3.8750690221786499e-01 -4.2642793059349060e-01</leafValues></_>
        <_>
          <internalNodes>
            0 -1 28 -2.9529431834816933e-02</internalNodes>
          <leafValues>
            7.8356319665908813e-01 -2.7194905281066895e-01</leafValues></_></weakClassifiers></_>
    <!-- stage 12 -->
    <_>
      <maxWeakCount>10</maxWeakCount>
      <stageThreshold>-1.2347868680953979e+00</stageThreshold>
      <weakClassifiers>
        <_>
          <internalNodes>
            0 -1 86 5.4079249501228333e-02</internalNodes>
          <leafValues>
            -5.1222652196884155e-01 7.9674798250198364e-01</leafValues></_>
        <_>
          <internalNodes>
            0 -1 96 5.3950566798448563e-03</internalNodes>
          <leafValues>
            -2.6161554455757141e-01 9.0380448102951050e-01</leafValues></_>
        <_>
          <internalNodes>
            0 -1 3 -1.4800338249187917e-04</internalNodes>
          <leafValues>
            7.6356554031372070e-01 -2.4644333124160767e-01</leafValues></_>
        <_>
          <internalNodes>
            0 -1 100 1.6177790239453316e-03</internalNodes>
          <leafValues>
            3.7796679139137268e-01 -5.2646160125732422e-01</leafValues></_>
        <_>
          <internalNodes>
            0 -1 22 4.4304423499852419e-04</internalNodes>
          <leafValues>
            -2.8927129507064819e-01 7.8070098161697388e-01</leafValues></_>
        <_>
          <internalNodes>
            0 -1 31 -1.0289634810760617e-03</internalNodes>
          <leafValues>
            5.6412547826766968e-01 -4.3740263581275940e-01</leafValues></_>
        <_>
          <internalNodes>
            0 -1 71 7.2640888392925262e-02</internalNodes>
          <leafValues>
            4.6528601646423340e-01 -5.9836542606353760e-01</leafValues></_>
        <_>
          <internalNodes>
            0 -1 97 -2.9289835947565734e-04</internalNodes>
          <leafValues>
            7.0959538221359253e-01 -3.6080738902091980e-01</leafValues></_>
        <_>
          <internalNodes>
            0 -1 115 5.0524063408374786e-04</internalNodes>
          <leafValues>
            3.8283807039260864e-01 -6.8394845724105835e-01</leafValues></_>
        <_>
          <internalNodes>
            0 -1 43 2.7175662107765675e-03</internalNodes>
          <leafValues>
            -3.5311099886894226e-01 7.8749203681945801e-01</leafValues></_></weakClassifiers></_></stages>
  <features>
    <_>
      <rects>
        <_>
          0 1 2 26 -1.</_>
        <_>
          1 1 1 26 2.</_></rects>
      <tilted>0</tilted></_>
    <_>
      <rects>
        <_>
          0 1 2 6 -1.</_>
        <_>
          0 4 2 3 2.</_></rects>
      <tilted>0</tilted></_>
    <_>
      <rects>
        <_>
          0 2 4 24 -1.</_>
        <_>
          1 2 2 24 2.</_></rects>
      <tilted>0</tilted></_>
    <_>
      <rects>
        <_>
          0 2 2 4 -1.</_>
        <_>
          0 3 2 2 2.</_></rects>
      <tilted>0</tilted></_>
    <_>
      <rects>
        <_>
          0 2 10 11 -1.</_>
        <_>
          5 2 5 11 2.</_></rects>
      <tilted>0</tilted></_>
    <_>
      <rects>
        <_>
          0 3 20 11 -1.</_>
        <_>
          5 3 10 11 2.</_></rects>
      <tilted>0</tilted></_>
    <_>
      <rects>
        <_>
          0 11 20 16 -1.</_>
        <_>
          0 19 20 8 2.</_></rects>
      <tilted>0</tilted></_>
    <_>
      <rects>
        <_>
          0 12 20 12 -1.</_>
        <_>
          5 12 10 12 2.</_></rects>
      <tilted>0</tilted></_>
    <_>
      <rects>
        <_>
          0 13 20 7 -1.</_>
        <_>
          5 13 10 7 2.</_></rects>
      <tilted>0</tilted></_>
    <_>
      <rects>
        <_>
          0 19 11 2 -1.</_>
        <_>
          0 20 11 1 2.</_></rects>
      <tilted>0</tilted></_>
    <_>
      <rects>
        <_>
          0 22 6 2 -1.</_>
        <_>
          2 22 2 2 3.</_></rects>
      <tilted>0</tilted></_>
    <_>
      <rects>
        <_>
          0 24 16 5 -1.</_>
        <_>
          8 24 8 5 2.</_></rects>
      <tilted>0</tilted></_>
    <_>
      <rects>
        <_>
          0 26 16 1 -1.</_>
        <_>
          8 26 8 1 2.</_></rects>
      <tilted>0</tilted></_>
    <_>
      <rects>
        <_>
          0 28 4 2 -1.</_>
        <_>
          0 29 4 1 2.</_></rects>
      <tilted>0</tilted></_>
    <_>
      <rects>
        <_>
          0 28 16 2 -1.</_>
        <_>
          0 28 8 1 2.</_>
        <_>
          8 29 8 1 2.</_></rects>
      <tilted>0</tilted></_>
    <_>
      <rects>
        <_>
          1 0 10 1 -1.</_>
        <_>
          6 0 5 1 2.</_></rects>
      <tilted>0</tilted></_>
    <_>
      <rects>
        <_>
          1 2 6 14 -1.</_>
        <_>
          4 2 3 14 2.</_></rects>
      <tilted>0</tilted></_>
    <_>
      <rects>
        <_>
          1 2 6 27 -1.</_>
        <_>
          4 2 3 27 2.</_></rects>
      <tilted>0</tilted></_>
    <_>
      <rects>
        <_>
          1 4 4 6 -1.</_>
        <_>
          1 6 4 2 3.</_></rects>
      <tilted>0</tilted></_>
    <_>
      <rects>
        <_>
          1 7 14 6 -1.</_>
        <_>
          8 7 7 6 2.</_></rects>
      <tilted>0</tilted></_>
    <_>
      <rects>
        <_>
          1 13 1 14 -1.</_>
        <_>
          1 20 1 7 2.</_></rects>
      <tilted>0</tilted></_>
    <_>
      <rects>
        <_>
          1 13 4 14 -1.</_>
        <_>
          1 20 4 7 2.</_></rects>
      <tilted>0</tilted></_>
    <_>
      <rects>
        <_>
          1 20 2 6 -1.</_>
        <_>
          1 20 1 3 2.</_>
        <_>
          2 23 1 3 2.</_></rects>
      <tilted>0</tilted></_>
    <_>
      <rects>
        <_>
          1 21 9 3 -1.</_>
        <_>
          4 21 3 3 3.</_></rects>
      <tilted>0</tilted></_>
    <_>
      <rects>
        <_>
          1 24 18 6 -1.</_>
        <_>
          7 26 6 2 9.</_></rects>
      <tilted>0</tilted></_>
    <_>
      <rects>
        <_>
          2 0 7 16 -1.</_>
        <_>
          2 8 7 8 2.</_></rects>
      <tilted>0</tilted></_>
    <_>
      <rects>
        <_>
          2 1 2 2 -1.</_>
        <_>
          2 1 2 1 2.</_></rects>
      <tilted>1</tilted></_>
    <_>
      <rects>
        <_>
          2 1 18 9 -1.</_>
        <_>
          8 4 6 3 9.</_></rects>
      <tilted>0</tilted></_>
    <_>
      <rects>
        <_>
          2 17 6 10 -1.</_>
        <_>
          2 17 3 5 2.</_>
        <_>
          5 22 3 5 2.</_></rects>
      <tilted>0</tilted></_>
    <_>
      <rects>
        <_>
          2 24 15 6 -1.</_>
        <_>
          7 26 5 2 9.</_></rects>
      <tilted>0</tilted></_>
    <_>
      <rects>
        <_>
          3 4 12 8 -1.</_>
        <_>
          3 4 6 4 2.</_>
        <_>
          9 8 6 4 2.</_></rects>
      <tilted>0</tilted></_>
    <_>
      <rects>
        <_>
          3 12 10 2 -1.</_>
        <_>
          3 12 5 1 2.</_>
        <_>
          8 13 5 1 2.</_></rects>
      <tilted>0</tilted></_>
    <_>
      <rects>
        <_>
          3 23 8 6 -1.</_>
        <_>
          3 26 8 3 2.</_></rects>
      <tilted>0</tilted></_>
    <_>
      <rects>
        <_>
          4 0 6 1 -1.</_>
        <_>
          7 0 3 1 2.</_></rects>
      <tilted>0</tilted></_>
    <_>
      <rects>
        <_>
          4 0 12 11 -1.</_>
        <_>
          8 0 4 11 3.</_></rects>
      <tilted>0</tilted></_>
    <_>
      <rects>
        <_>
          4 0 6 27 -1.</_>
        <_>
          4 9 6 9 3.</_></rects>
      <tilted>0</tilted></_>
    <_>
      <rects>
        <_>
          4 12 8 18 -1.</_>
        <_>
          4 12 4 9 2.</_>
        <_>
          8 21 4 9 2.</_></rects>
      <tilted>0</tilted></_>
    <_>
      <rects>
        <_>
          4 15 16 2 -1.</_>
        <_>
          8 15 8 2 2.</_></rects>
      <tilted>0</tilted></_>
    <_>
      <rects>
        <_>
          4 27 2 1 -1.</_>
        <_>
          4 27 1 1 2.</_></rects>
      <tilted>1</tilted></_>
    <_>
      <rects>
        <_>
          5 17 12 1 -1.</_>
        <_>
          11 17 6 1 2.</_></rects>
      <tilted>0</tilted></_>
    <_>
      <rects>
        <_>
          5 20 9 6 -1.</_>
        <_>
          8 22 3 2 9.</_></rects>
      <tilted>0</tilted></_>
    <_>
      <rects>
        <_>
          5 25 2 2 -1.</_>
        <_>
          5 25 1 1 2.</_>
        <_>
          6 26 1 1 2.</_></rects>
      <tilted>0</tilted></_>
    <_>
      <rects>
        <_>
          5 27 8 2 -1.</_>
        <_>
          7 27 4 2 2.</_></rects>
      <tilted>0</tilted></_>
    <_>
      <rects>
        <_>
          5 28 6 2 -1.</_>
        <_>
          5 28 3 1 2.</_>
        <_>
          8 29 3 1 2.</_></rects>
      <tilted>0</tilted></_>
    <_>
      <rects>
        <_>
          6 0 4 4 -1.</_>
        <_>
          6 0 4 2 2.</_></rects>
      <tilted>1</tilted></_>
    <_>
      <rects>
        <_>
          6 1 6 4 -1.</_>
        <_>
          8 3 2 4 3.</_></rects>
      <tilted>1</tilted></_>
    <_>
      <rects>
        <_>
          6 8 2 18 -1.</_>
        <_>
          6 14 2 6 3.</_></rects>
      <tilted>0</tilted></_>
    <_>
      <rects>
        <_>
          6 11 4 9 -1.</_>
        <_>
          6 14 4 3 3.</_></rects>
      <tilted>0</tilted></_>
    <_>
      <rects>
        <_>
          6 12 12 3 -1.</_>
        <_>
          9 15 6 3 2.</_></rects>
      <tilted>1</tilted></_>
    <_>
      <rects>
        <_>
          6 15 12 3 -1.</_>
        <_>
          9 15 6 3 2.</_></rects>
      <tilted>0</tilted></_>
    <_>
      <rects>
        <_>
          6 22 9 5 -1.</_>
        <_>
          9 22 3 5 3.</_></rects>
      <tilted>0</tilted></_>
    <_>
      <rects>
        <_>
          6 23 7 4 -1.</_>
        <_>
          6 24 7 2 2.</_></rects>
      <tilted>0</tilted></_>
    <_>
      <rects>
        <_>
          6 24 2 1 -1.</_>
        <_>
          7 24 1 1 2.</_></rects>
      <tilted>0</tilted></_>
    <_>
      <rects>
        <_>
          7 0 12 18 -1.</_>
        <_>
          7 9 12 9 2.</_></rects>
      <tilted>0</tilted></_>
    <_>
      <rects>
        <_>
          7 3 3 15 -1.</_>
        <_>
          7 8 3 5 3.</_></rects>
      <tilted>0</tilted></_>
    <_>
      <rects>
        <_>
          7 3 13 20 -1.</_>
        <_>
          7 13 13 10 2.</_></rects>
      <tilted>0</tilted></_>
    <_>
      <rects>
        <_>
          7 5 4 1 -1.</_>
        <_>
          7 5 2 1 2.</_></rects>
      <tilted>1</tilted></_>
    <_>
      <rects>
        <_>
          7 12 12 9 -1.</_>
        <_>
          11 15 4 3 9.</_></rects>
      <tilted>0</tilted></_>
    <_>
      <rects>
        <_>
          7 20 12 8 -1.</_>
        <_>
          7 20 6 4 2.</_>
        <_>
          13 24 6 4 2.</_></rects>
      <tilted>0</tilted></_>
    <_>
      <rects>
        <_>
          7 22 8 4 -1.</_>
        <_>
          9 22 4 4 2.</_></rects>
      <tilted>0</tilted></_>
    <_>
      <rects>
        <_>
          7 25 3 3 -1.</_>
        <_>
          7 26 3 1 3.</_></rects>
      <tilted>0</tilted></_>
    <_>
      <rects>
        <_>
          7 25 11 4 -1.</_>
        <_>
          7 26 11 2 2.</_></rects>
      <tilted>0</tilted></_>
    <_>
      <rects>
        <_>
          8 0 1 6 -1.</_>
        <_>
          8 0 1 3 2.</_></rects>
      <tilted>1</tilted></_>
    <_>
      <rects>
        <_>
          8 1 6 9 -1.</_>
        <_>
          10 4 2 3 9.</_></rects>
      <tilted>0</tilted></_>
    <_>
      <rects>
        <_>
          8 5 3 3 -1.</_>
        <_>
          9 6 1 1 9.</_></rects>
      <tilted>0</tilted></_>
    <_>
      <rects>
        <_>
          8 5 6 1 -1.</_>
        <_>
          10 7 2 1 3.</_></rects>
      <tilted>1</tilted></_>
    <_>
      <rects>
        <_>
          8 7 9 20 -1.</_>
        <_>
          8 17 9 10 2.</_></rects>
      <tilted>0</tilted></_>
    <_>
      <rects>
        <_>
          8 24 1 2 -1.</_>
        <_>
          8 25 1 1 2.</_></rects>
      <tilted>0</tilted></_>
    <_>
      <rects>
        <_>
          8 24 8 6 -1.</_>
        <_>
          8 26 8 2 3.</_></rects>
      <tilted>0</tilted></_>
    <_>
      <rects>
        <_>
          8 26 9 4 -1.</_>
        <_>
          8 28 9 2 2.</_></rects>
      <tilted>0</tilted></_>
    <_>
      <rects>
        <_>
          9 1 4 1 -1.</_>
        <_>
          9 1 2 1 2.</_></rects>
      <tilted>1</tilted></_>
    <_>
      <rects>
        <_>
          9 2 9 12 -1.</_>
        <_>
          9 8 9 6 2.</_></rects>
      <tilted>0</tilted></_>
    <_>
      <rects>
        <_>
          9 2 11 22 -1.</_>
        <_>
          9 13 11 11 2.</_></rects>
      <tilted>0</tilted></_>
    <_>
      <rects>
        <_>
          9 9 4 18 -1.</_>
        <_>
          9 18 4 9 2.</_></rects>
      <tilted>0</tilted></_>
    <_>
      <rects>
        <_>
          9 10 6 5 -1.</_>
        <_>
          11 12 2 5 3.</_></rects>
      <tilted>1</tilted></_>
    <_>
      <rects>
        <_>
          9 10 6 6 -1.</_>
        <_>
          11 12 2 6 3.</_></rects>
      <tilted>1</tilted></_>
    <_>
      <rects>
        <_>
          9 10 10 3 -1.</_>
        <_>
          9 10 5 3 2.</_></rects>
      <tilted>1</tilted></_>
    <_>
      <rects>
        <_>
          9 19 6 3 -1.</_>
        <_>
          11 21 2 3 3.</_></rects>
      <tilted>1</tilted></_>
    <_>
      <rects>
        <_>
          9 26 2 3 -1.</_>
        <_>
          9 27 2 1 3.</_></rects>
      <tilted>0</tilted></_>
    <_>
      <rects>
        <_>
          10 0 3 6 -1.</_>
        <_>
          10 3 3 3 2.</_></rects>
      <tilted>0</tilted></_>
    <_>
      <rects>
        <_>
          10 0 10 6 -1.</_>
        <_>
          10 0 5 3 2.</_>
        <_>
          15 3 5 3 2.</_></rects>
      <tilted>0</tilted></_>
    <_>
      <rects>
        <_>
          10 1 3 9 -1.</_>
        <_>
          10 4 3 3 3.</_></rects>
      <tilted>0</tilted></_>
    <_>
      <rects>
        <_>
          10 1 10 4 -1.</_>
        <_>
          10 1 5 2 2.</_>
        <_>
          15 3 5 2 2.</_></rects>
      <tilted>0</tilted></_>
    <_>
      <rects>
        <_>
          10 4 6 5 -1.</_>
        <_>
          12 6 2 5 3.</_></rects>
      <tilted>1</tilted></_>
    <_>
      <rects>
        <_>
          10 5 6 5 -1.</_>
        <_>
          12 7 2 5 3.</_></rects>
      <tilted>1</tilted></_>
    <_>
      <rects>
        <_>
          10 10 9 9 -1.</_>
        <_>
          13 10 3 9 3.</_></rects>
      <tilted>0</tilted></_>
    <_>
      <rects>
        <_>
          10 16 6 14 -1.</_>
        <_>
          10 16 3 7 2.</_>
        <_>
          13 23 3 7 2.</_></rects>
      <tilted>0</tilted></_>
    <_>
      <rects>
        <_>
          10 17 4 3 -1.</_>
        <_>
          11 18 2 3 2.</_></rects>
      <tilted>1</tilted></_>
    <_>
      <rects>
        <_>
          10 19 8 10 -1.</_>
        <_>
          10 19 4 5 2.</_>
        <_>
          14 24 4 5 2.</_></rects>
      <tilted>0</tilted></_>
    <_>
      <rects>
        <_>
          10 20 8 1 -1.</_>
        <_>
          12 22 4 1 2.</_></rects>
      <tilted>1</tilted></_>
    <_>
      <rects>
        <_>
          10 20 8 10 -1.</_>
        <_>
          10 20 4 5 2.</_>
        <_>
          14 25 4 5 2.</_></rects>
      <tilted>0</tilted></_>
    <_>
      <rects>
        <_>
          11 0 2 12 -1.</_>
        <_>
          11 3 2 6 2.</_></rects>
      <tilted>0</tilted></_>
    <_>
      <rects>
        <_>
          11 3 2 3 -1.</_>
        <_>
          11 4 2 1 3.</_></rects>
      <tilted>0</tilted></_>
    <_>
      <rects>
        <_>
          11 4 1 3 -1.</_>
        <_>
          11 5 1 1 3.</_></rects>
      <tilted>0</tilted></_>
    <_>
      <rects>
        <_>
          11 5 4 6 -1.</_>
        <_>
          12 6 2 6 2.</_></rects>
      <tilted>1</tilted></_>
    <_>
      <rects>
        <_>
          11 7 8 18 -1.</_>
        <_>
          13 7 4 18 2.</_></rects>
      <tilted>0</tilted></_>
    <_>
      <rects>
        <_>
          11 13 1 16 -1.</_>
        <_>
          11 21 1 8 2.</_></rects>
      <tilted>0</tilted></_>
    <_>
      <rects>
        <_>
          11 17 3 10 -1.</_>
        <_>
          12 18 1 10 3.</_></rects>
      <tilted>1</tilted></_>
    <_>
      <rects>
        <_>
          11 21 6 9 -1.</_>
        <_>
          13 24 2 3 9.</_></rects>
      <tilted>0</tilted></_>
    <_>
      <rects>
        <_>
          12 0 4 20 -1.</_>
        <_>
          12 10 4 10 2.</_></rects>
      <tilted>0</tilted></_>
    <_>
      <rects>
        <_>
          12 21 8 3 -1.</_>
        <_>
          12 22 8 1 3.</_></rects>
      <tilted>0</tilted></_>
    <_>
      <rects>
        <_>
          13 14 5 9 -1.</_>
        <_>
          10 17 5 3 3.</_></rects>
      <tilted>1</tilted></_>
    <_>
      <rects>
        <_>
          14 0 2 4 -1.</_>
        <_>
          14 0 2 2 2.</_></rects>
      <tilted>1</tilted></_>
    <_>
      <rects>
        <_>
          14 1 2 2 -1.</_>
        <_>
          14 2 2 1 2.</_></rects>
      <tilted>0</tilted></_>
    <_>
      <rects>
        <_>
          14 2 2 2 -1.</_>
        <_>
          14 3 2 1 2.</_></rects>
      <tilted>0</tilted></_>
    <_>
      <rects>
        <_>
          14 3 6 26 -1.</_>
        <_>
          17 3 3 26 2.</_></rects>
      <tilted>0</tilted></_>
    <_>
      <rects>
        <_>
          14 4 6 24 -1.</_>
        <_>
          17 4 3 24 2.</_></rects>
      <tilted>0</tilted></_>
    <_>
      <rects>
        <_>
          14 5 1 4 -1.</_>
        <_>
          14 5 1 2 2.</_></rects>
      <tilted>1</tilted></_>
    <_>
      <rects>
        <_>
          14 18 1 3 -1.</_>
        <_>
          14 19 1 1 3.</_></rects>
      <tilted>0</tilted></_>
    <_>
      <rects>
        <_>
          14 19 1 4 -1.</_>
        <_>
          14 20 1 2 2.</_></rects>
      <tilted>0</tilted></_>
    <_>
      <rects>
        <_>
          15 1 1 24 -1.</_>
        <_>
          15 13 1 12 2.</_></rects>
      <tilted>0</tilted></_>
    <_>
      <rects>
        <_>
          15 11 3 18 -1.</_>
        <_>
          16 17 1 6 9.</_></rects>
      <tilted>0</tilted></_>
    <_>
      <rects>
        <_>
          16 1 4 26 -1.</_>
        <_>
          17 1 2 26 2.</_></rects>
      <tilted>0</tilted></_>
    <_>
      <rects>
        <_>
          16 8 1 3 -1.</_>
        <_>
          16 9 1 1 3.</_></rects>
      <tilted>0</tilted></_>
    <_>
      <rects>
        <_>
          17 11 3 4 -1.</_>
        <_>
          17 11 3 2 2.</_></rects>
      <tilted>1</tilted></_>
    <_>
      <rects>
        <_>
          17 27 2 3 -1.</_>
        <_>
          17 28 2 1 3.</_></rects>
      <tilted>0</tilted></_></features></cascade>
</opencv_storage>
