<?xml version="1.0"?>
<opencv_storage>
<stage8>
  <maxWeakCount>11</maxWeakCount>
  <stageThreshold>-1.1591252088546753e+00</stageThreshold>
  <weakClassifiers>
    <_>
      <internalNodes>
        0 -1 42828 -2.1955543756484985e-01</internalNodes>
      <leafValues>
        1.8604651093482971e-01 -6.5467625856399536e-01</leafValues></_>
    <_>
      <internalNodes>
        0 -1 14316 4.1818805038928986e-02</internalNodes>
      <leafValues>
        2.2184622287750244e-01 -6.7342001199722290e-01</leafValues></_>
    <_>
      <internalNodes>
        0 -1 125224 -4.5018517994321883e-05</internalNodes>
      <leafValues>
        -5.1814848184585571e-01 3.2264313101768494e-01</leafValues></_>
    <_>
      <internalNodes>
        0 -1 85889 -9.2684127390384674e-02</internalNodes>
      <leafValues>
        4.9487826228141785e-01 -3.6444056034088135e-01</leafValues></_>
    <_>
      <internalNodes>
        0 -1 247677 -1.3812024146318436e-02</internalNodes>
      <leafValues>
        5.2441275119781494e-01 -2.3193334043025970e-01</leafValues></_>
    <_>
      <internalNodes>
        0 -1 191677 2.3683249950408936e-02</internalNodes>
      <leafValues>
        -4.1118723154067993e-01 3.4097114205360413e-01</leafValues></_>
    <_>
      <internalNodes>
        0 -1 22317 1.3128214050084352e-04</internalNodes>
      <leafValues>
        -4.1067469120025635e-01 2.8602421283721924e-01</leafValues></_>
    <_>
      <internalNodes>
        0 -1 22344 3.0087726190686226e-04</internalNodes>
      <leafValues>
        -8.0859845876693726e-01 1.6819714009761810e-01</leafValues></_>
    <_>
      <internalNodes>
        0 -1 138881 -4.7476008534431458e-02</internalNodes>
      <leafValues>
        6.4845013618469238e-01 -2.2549901902675629e-01</leafValues></_>
    <_>
      <internalNodes>
        0 -1 98557 -3.0206345021724701e-02</internalNodes>
      <leafValues>
        3.3736965060234070e-01 -3.6001321673393250e-01</leafValues></_>
    <_>
      <internalNodes>
        0 -1 37029 4.7547925263643265e-02</internalNodes>
      <leafValues>
        1.3311301171779633e-01 -9.6413803100585938e-01</leafValues></_></weakClassifiers></stage8>
</opencv_storage>
