<?xml version="1.0"?>
<opencv_storage>
<stage4>
  <maxWeakCount>6</maxWeakCount>
  <stageThreshold>-9.9001508951187134e-01</stageThreshold>
  <weakClassifiers>
    <_>
      <internalNodes>
        0 -1 178140 2.0180061459541321e-02</internalNodes>
      <leafValues>
        -8.0458623170852661e-01 2.5972396135330200e-01</leafValues></_>
    <_>
      <internalNodes>
        0 -1 179415 1.0841758921742439e-02</internalNodes>
      <leafValues>
        -5.9928977489471436e-01 4.3483287096023560e-01</leafValues></_>
    <_>
      <internalNodes>
        0 -1 247528 8.7235689163208008e-02</internalNodes>
      <leafValues>
        -8.9116483926773071e-01 2.9804846644401550e-01</leafValues></_>
    <_>
      <internalNodes>
        0 -1 64179 -1.6641944646835327e-01</internalNodes>
      <leafValues>
        5.6157231330871582e-01 -4.5032081007957458e-01</leafValues></_>
    <_>
      <internalNodes>
        0 -1 70514 3.6376804113388062e-02</internalNodes>
      <leafValues>
        -4.1960850358009338e-01 4.8061448335647583e-01</leafValues></_>
    <_>
      <internalNodes>
        0 -1 25511 -3.0116576701402664e-02</internalNodes>
      <leafValues>
        2.4060946702957153e-01 -7.7335047721862793e-01</leafValues></_></weakClassifiers></stage4>
</opencv_storage>
