<?xml version="1.0"?>
<opencv_storage>
<cascade>
  <stageType>BOOST</stageType>
  <featureType>HAAR</featureType>
  <height>30</height>
  <width>20</width>
  <stageParams>
    <boostType>GAB</boostType>
    <minHitRate>9.9500000476837158e-01</minHitRate>
    <maxFalseAlarm>4.0000000596046448e-01</maxFalseAlarm>
    <weightTrimRate>9.4999999999999996e-01</weightTrimRate>
    <maxDepth>1</maxDepth>
    <maxWeakCount>100</maxWeakCount></stageParams>
  <featureParams>
    <maxCatCount>0</maxCatCount>
    <featSize>1</featSize>
    <mode>ALL</mode></featureParams>
  <stageNum>6</stageNum>
  <stages>
    <!-- stage 0 -->
    <_>
      <maxWeakCount>2</maxWeakCount>
      <stageThreshold>-1.7825216054916382e-02</stageThreshold>
      <weakClassifiers>
        <_>
          <internalNodes>
            0 -1 7 -5.9389214962720871e-02</internalNodes>
          <leafValues>
            9.6039605140686035e-01 -9.8994976282119751e-01</leafValues></_>
        <_>
          <internalNodes>
            0 -1 4 9.0974479913711548e-02</internalNodes>
          <leafValues>
            -9.7107464075088501e-01 9.7212451696395874e-01</leafValues></_></weakClassifiers></_>
    <!-- stage 1 -->
    <_>
      <maxWeakCount>3</maxWeakCount>
      <stageThreshold>-9.9026316404342651e-01</stageThreshold>
      <weakClassifiers>
        <_>
          <internalNodes>
            0 -1 8 -1.3212400674819946e-01</internalNodes>
          <leafValues>
            9.7382199764251709e-01 -9.4376528263092041e-01</leafValues></_>
        <_>
          <internalNodes>
            0 -1 1 -2.1750401705503464e-02</internalNodes>
          <leafValues>
            8.3863258361816406e-01 -9.3177080154418945e-01</leafValues></_>
        <_>
          <internalNodes>
            0 -1 6 2.0489577203989029e-02</internalNodes>
          <leafValues>
            -8.5533690452575684e-01 8.8527286052703857e-01</leafValues></_></weakClassifiers></_>
    <!-- stage 2 -->
    <_>
      <maxWeakCount>3</maxWeakCount>
      <stageThreshold>-1.1934124231338501e+00</stageThreshold>
      <weakClassifiers>
        <_>
          <internalNodes>
            0 -1 14 -3.3684313297271729e-02</internalNodes>
          <leafValues>
            9.2982459068298340e-01 -9.6254682540893555e-01</leafValues></_>
        <_>
          <internalNodes>
            0 -1 12 8.7765395641326904e-02</internalNodes>
          <leafValues>
            -8.7224590778350830e-01 9.1907960176467896e-01</leafValues></_>
        <_>
          <internalNodes>
            0 -1 5 -6.5752424299716949e-02</internalNodes>
          <leafValues>
            6.4138031005859375e-01 -9.7354298830032349e-01</leafValues></_></weakClassifiers></_>
    <!-- stage 3 -->
    <_>
      <maxWeakCount>3</maxWeakCount>
      <stageThreshold>-1.1268854141235352e+00</stageThreshold>
      <weakClassifiers>
        <_>
          <internalNodes>
            0 -1 11 8.4885835647583008e-02</internalNodes>
          <leafValues>
            -9.1757577657699585e-01 9.5200002193450928e-01</leafValues></_>
        <_>
          <internalNodes>
            0 -1 13 -2.5310296565294266e-02</internalNodes>
          <leafValues>
            7.3738366365432739e-01 -9.2973327636718750e-01</leafValues></_>
        <_>
          <internalNodes>
            0 -1 0 -2.3687142133712769e-01</internalNodes>
          <leafValues>
            7.2042363882064819e-01 -7.6363229751586914e-01</leafValues></_></weakClassifiers></_>
    <!-- stage 4 -->
    <_>
      <maxWeakCount>3</maxWeakCount>
      <stageThreshold>-1.1603381633758545e+00</stageThreshold>
      <weakClassifiers>
        <_>
          <internalNodes>
            0 -1 10 9.1701045632362366e-02</internalNodes>
          <leafValues>
            -9.0545451641082764e-01 9.2533332109451294e-01</leafValues></_>
        <_>
          <internalNodes>
            0 -1 9 1.4378562569618225e-02</internalNodes>
          <leafValues>
            -8.8089293241500854e-01 6.5001738071441650e-01</leafValues></_>
        <_>
          <internalNodes>
            0 -1 3 -2.2721571847796440e-02</internalNodes>
          <leafValues>
            6.2600928544998169e-01 -8.1727206707000732e-01</leafValues></_></weakClassifiers></_>
    <!-- stage 5 -->
    <_>
      <maxWeakCount>2</maxWeakCount>
      <stageThreshold>-2.9913169145584106e-01</stageThreshold>
      <weakClassifiers>
        <_>
          <internalNodes>
            0 -1 2 -1.6014344990253448e-01</internalNodes>
          <leafValues>
            8.9090907573699951e-01 -9.1165643930435181e-01</leafValues></_>
        <_>
          <internalNodes>
            0 -1 15 1.0551082901656628e-02</internalNodes>
          <leafValues>
            -9.3564063310623169e-01 6.1252474784851074e-01</leafValues></_></weakClassifiers></_></stages>
  <features>
    <_>
      <rects>
        <_>
          0 15 12 9 -1.</_>
        <_>
          4 18 4 3 9.</_></rects>
      <tilted>0</tilted></_>
    <_>
      <rects>
        <_>
          0 20 20 1 -1.</_>
        <_>
          5 20 10 1 2.</_></rects>
      <tilted>0</tilted></_>
    <_>
      <rects>
        <_>
          1 11 12 8 -1.</_>
        <_>
          5 11 4 8 3.</_></rects>
      <tilted>0</tilted></_>
    <_>
      <rects>
        <_>
          4 15 13 2 -1.</_>
        <_>
          4 15 13 1 2.</_></rects>
      <tilted>1</tilted></_>
    <_>
      <rects>
        <_>
          4 18 8 8 -1.</_>
        <_>
          4 22 8 4 2.</_></rects>
      <tilted>0</tilted></_>
    <_>
      <rects>
        <_>
          5 0 2 22 -1.</_>
        <_>
          5 11 2 11 2.</_></rects>
      <tilted>0</tilted></_>
    <_>
      <rects>
        <_>
          5 10 6 6 -1.</_>
        <_>
          5 10 3 3 2.</_>
        <_>
          8 13 3 3 2.</_></rects>
      <tilted>0</tilted></_>
    <_>
      <rects>
        <_>
          10 2 6 4 -1.</_>
        <_>
          12 4 2 4 3.</_></rects>
      <tilted>1</tilted></_>
    <_>
      <rects>
        <_>
          10 2 6 26 -1.</_>
        <_>
          10 2 3 13 2.</_>
        <_>
          13 15 3 13 2.</_></rects>
      <tilted>0</tilted></_>
    <_>
      <rects>
        <_>
          10 14 10 2 -1.</_>
        <_>
          10 14 10 1 2.</_></rects>
      <tilted>1</tilted></_>
    <_>
      <rects>
        <_>
          11 9 6 5 -1.</_>
        <_>
          13 11 2 5 3.</_></rects>
      <tilted>1</tilted></_>
    <_>
      <rects>
        <_>
          11 10 6 5 -1.</_>
        <_>
          13 12 2 5 3.</_></rects>
      <tilted>1</tilted></_>
    <_>
      <rects>
        <_>
          12 6 8 5 -1.</_>
        <_>
          14 8 4 5 2.</_></rects>
      <tilted>1</tilted></_>
    <_>
      <rects>
        <_>
          14 7 1 16 -1.</_>
        <_>
          14 15 1 8 2.</_></rects>
      <tilted>0</tilted></_>
    <_>
      <rects>
        <_>
          15 5 1 22 -1.</_>
        <_>
          15 16 1 11 2.</_></rects>
      <tilted>0</tilted></_>
    <_>
      <rects>
        <_>
          17 0 1 6 -1.</_>
        <_>
          17 0 1 3 2.</_></rects>
      <tilted>1</tilted></_></features></cascade>
</opencv_storage>
