<?xml version="1.0"?>
<opencv_storage>
<stage3>
  <maxWeakCount>5</maxWeakCount>
  <stageThreshold>-1.6352202892303467e+00</stageThreshold>
  <weakClassifiers>
    <_>
      <internalNodes>
        0 -1 178575 -7.8637123107910156e-02</internalNodes>
      <leafValues>
        7.4519228935241699e-01 -9.0561223030090332e-01</leafValues></_>
    <_>
      <internalNodes>
        0 -1 13595 -4.7880280762910843e-03</internalNodes>
      <leafValues>
        6.9027751684188843e-01 -9.0475243330001831e-01</leafValues></_>
    <_>
      <internalNodes>
        0 -1 243670 -5.9169881045818329e-02</internalNodes>
      <leafValues>
        7.7570867538452148e-01 -7.4223786592483521e-01</leafValues></_>
    <_>
      <internalNodes>
        0 -1 129877 5.5206589400768280e-02</internalNodes>
      <leafValues>
        -9.5258897542953491e-01 5.0583958625793457e-01</leafValues></_>
    <_>
      <internalNodes>
        0 -1 30253 -9.7945872694253922e-03</internalNodes>
      <leafValues>
        4.1154268383979797e-01 -9.8072320222854614e-01</leafValues></_></weakClassifiers></stage3>
</opencv_storage>
