<?xml version="1.0"?>
<opencv_storage>
<stage4>
  <maxWeakCount>5</maxWeakCount>
  <stageThreshold>-1.6368443965911865e+00</stageThreshold>
  <weakClassifiers>
    <_>
      <internalNodes>
        0 -1 269374 -4.1061550378799438e-02</internalNodes>
      <leafValues>
        6.9534051418304443e-01 -9.4267517328262329e-01</leafValues></_>
    <_>
      <internalNodes>
        0 -1 273072 -4.3629076331853867e-02</internalNodes>
      <leafValues>
        7.5484889745712280e-01 -8.3150249719619751e-01</leafValues></_>
    <_>
      <internalNodes>
        0 -1 222129 -1.6014322638511658e-01</internalNodes>
      <leafValues>
        8.4595686197280884e-01 -5.6321525573730469e-01</leafValues></_>
    <_>
      <internalNodes>
        0 -1 244493 -3.0242321081459522e-03</internalNodes>
      <leafValues>
        4.0281179547309875e-01 -9.4894933700561523e-01</leafValues></_>
    <_>
      <internalNodes>
        0 -1 72269 -7.3781479150056839e-03</internalNodes>
      <leafValues>
        2.9773670434951782e-01 -9.6773630380630493e-01</leafValues></_></weakClassifiers></stage4>
</opencv_storage>
