<?xml version="1.0"?>
<opencv_storage>
<cascade>
  <stageType>BOOST</stageType>
  <featureType>HAAR</featureType>
  <height>30</height>
  <width>20</width>
  <stageParams>
    <boostType>GAB</boostType>
    <minHitRate>9.9500000476837158e-01</minHitRate>
    <maxFalseAlarm>4.0000000596046448e-01</maxFalseAlarm>
    <weightTrimRate>9.4999999999999996e-01</weightTrimRate>
    <maxDepth>1</maxDepth>
    <maxWeakCount>100</maxWeakCount></stageParams>
  <featureParams>
    <maxCatCount>0</maxCatCount>
    <featSize>1</featSize>
    <mode>ALL</mode></featureParams>
  <stageNum>11</stageNum>
  <stages>
    <!-- stage 0 -->
    <_>
      <maxWeakCount>3</maxWeakCount>
      <stageThreshold>-1.1195904016494751e+00</stageThreshold>
      <weakClassifiers>
        <_>
          <internalNodes>
            0 -1 22 9.1842539608478546e-02</internalNodes>
          <leafValues>
            -9.8192769289016724e-01 9.4841271638870239e-01</leafValues></_>
        <_>
          <internalNodes>
            0 -1 44 9.5638051629066467e-02</internalNodes>
          <leafValues>
            -9.3653583526611328e-01 9.4918811321258545e-01</leafValues></_>
        <_>
          <internalNodes>
            0 -1 12 2.0651917159557343e-01</internalNodes>
          <leafValues>
            -1. 7.9887318611145020e-01</leafValues></_></weakClassifiers></_>
    <!-- stage 1 -->
    <_>
      <maxWeakCount>3</maxWeakCount>
      <stageThreshold>-1.2287747859954834e+00</stageThreshold>
      <weakClassifiers>
        <_>
          <internalNodes>
            0 -1 2 -3.0277118086814880e-02</internalNodes>
          <leafValues>
            7.7523809671401978e-01 -9.3025642633438110e-01</leafValues></_>
        <_>
          <internalNodes>
            0 -1 17 1.9144135713577271e-01</internalNodes>
          <leafValues>
            -8.5007596015930176e-01 7.4413454532623291e-01</leafValues></_>
        <_>
          <internalNodes>
            0 -1 34 3.3270936459302902e-02</internalNodes>
          <leafValues>
            -9.4026017189025879e-01 5.5155754089355469e-01</leafValues></_></weakClassifiers></_>
    <!-- stage 2 -->
    <_>
      <maxWeakCount>5</maxWeakCount>
      <stageThreshold>-1.6232211589813232e+00</stageThreshold>
      <weakClassifiers>
        <_>
          <internalNodes>
            0 -1 13 -7.2892583906650543e-02</internalNodes>
          <leafValues>
            7.6290631294250488e-01 -9.2016375064849854e-01</leafValues></_>
        <_>
          <internalNodes>
            0 -1 35 -8.6137235164642334e-02</internalNodes>
          <leafValues>
            7.8099352121353149e-01 -7.8373849391937256e-01</leafValues></_>
        <_>
          <internalNodes>
            0 -1 32 9.4239525496959686e-02</internalNodes>
          <leafValues>
            -7.5718420743942261e-01 6.7539834976196289e-01</leafValues></_>
        <_>
          <internalNodes>
            0 -1 0 -7.7524103224277496e-02</internalNodes>
          <leafValues>
            4.7221723198890686e-01 -8.9665395021438599e-01</leafValues></_>
        <_>
          <internalNodes>
            0 -1 14 2.0920887589454651e-01</internalNodes>
          <leafValues>
            -7.9850822687149048e-01 3.6564812064170837e-01</leafValues></_></weakClassifiers></_>
    <!-- stage 3 -->
    <_>
      <maxWeakCount>5</maxWeakCount>
      <stageThreshold>-1.7489210367202759e+00</stageThreshold>
      <weakClassifiers>
        <_>
          <internalNodes>
            0 -1 1 -9.7890183329582214e-02</internalNodes>
          <leafValues>
            5.7894736528396606e-01 -8.6301368474960327e-01</leafValues></_>
        <_>
          <internalNodes>
            0 -1 29 6.0545422136783600e-02</internalNodes>
          <leafValues>
            -8.5192972421646118e-01 6.0312294960021973e-01</leafValues></_>
        <_>
          <internalNodes>
            0 -1 43 -2.3202769458293915e-02</internalNodes>
          <leafValues>
            4.7922101616859436e-01 -7.9291921854019165e-01</leafValues></_>
        <_>
          <internalNodes>
            0 -1 24 -3.4628177527338266e-03</internalNodes>
          <leafValues>
            3.6846134066581726e-01 -8.8778603076934814e-01</leafValues></_>
        <_>
          <internalNodes>
            0 -1 19 5.0924021750688553e-02</internalNodes>
          <leafValues>
            -8.9065700769424438e-01 3.7458744645118713e-01</leafValues></_></weakClassifiers></_>
    <!-- stage 4 -->
    <_>
      <maxWeakCount>5</maxWeakCount>
      <stageThreshold>-1.5102603435516357e+00</stageThreshold>
      <weakClassifiers>
        <_>
          <internalNodes>
            0 -1 17 1.9597601890563965e-01</internalNodes>
          <leafValues>
            -8.9336490631103516e-01 3.8719511032104492e-01</leafValues></_>
        <_>
          <internalNodes>
            0 -1 6 -1.4106914401054382e-01</internalNodes>
          <leafValues>
            4.3060579895973206e-01 -8.6087781190872192e-01</leafValues></_>
        <_>
          <internalNodes>
            0 -1 37 -2.4205148220062256e-02</internalNodes>
          <leafValues>
            5.1154726743698120e-01 -8.0688488483428955e-01</leafValues></_>
        <_>
          <internalNodes>
            0 -1 26 2.9857894405722618e-03</internalNodes>
          <leafValues>
            -6.1008083820343018e-01 5.7754415273666382e-01</leafValues></_>
        <_>
          <internalNodes>
            0 -1 8 2.9330845922231674e-02</internalNodes>
          <leafValues>
            3.7777227163314819e-01 -8.4510898590087891e-01</leafValues></_></weakClassifiers></_>
    <!-- stage 5 -->
    <_>
      <maxWeakCount>5</maxWeakCount>
      <stageThreshold>-1.3335360288619995e+00</stageThreshold>
      <weakClassifiers>
        <_>
          <internalNodes>
            0 -1 17 2.0806115865707397e-01</internalNodes>
          <leafValues>
            -8.4070795774459839e-01 7.3498964309692383e-01</leafValues></_>
        <_>
          <internalNodes>
            0 -1 30 -1.5041569247841835e-02</internalNodes>
          <leafValues>
            4.1392335295677185e-01 -8.5029375553131104e-01</leafValues></_>
        <_>
          <internalNodes>
            0 -1 28 8.5368305444717407e-03</internalNodes>
          <leafValues>
            -7.3043578863143921e-01 5.2868211269378662e-01</leafValues></_>
        <_>
          <internalNodes>
            0 -1 9 -4.4512003660202026e-02</internalNodes>
          <leafValues>
            5.0535559654235840e-01 -7.6990544795989990e-01</leafValues></_>
        <_>
          <internalNodes>
            0 -1 21 -8.1243300810456276e-03</internalNodes>
          <leafValues>
            5.9358984231948853e-01 -5.0101590156555176e-01</leafValues></_></weakClassifiers></_>
    <!-- stage 6 -->
    <_>
      <maxWeakCount>6</maxWeakCount>
      <stageThreshold>-1.3786445856094360e+00</stageThreshold>
      <weakClassifiers>
        <_>
          <internalNodes>
            0 -1 16 8.1035584211349487e-02</internalNodes>
          <leafValues>
            -9.0205013751983643e-01 4.6945336461067200e-01</leafValues></_>
        <_>
          <internalNodes>
            0 -1 45 1.8277395516633987e-02</internalNodes>
          <leafValues>
            -7.7699410915374756e-01 3.1439158320426941e-01</leafValues></_>
        <_>
          <internalNodes>
            0 -1 41 1.8052622181130573e-05</internalNodes>
          <leafValues>
            -6.2759524583816528e-01 4.5850765705108643e-01</leafValues></_>
        <_>
          <internalNodes>
            0 -1 5 -7.0666581392288208e-02</internalNodes>
          <leafValues>
            3.0808335542678833e-01 -8.1100547313690186e-01</leafValues></_>
        <_>
          <internalNodes>
            0 -1 20 -1.0521760210394859e-02</internalNodes>
          <leafValues>
            3.2804563641548157e-01 -7.2873300313949585e-01</leafValues></_>
        <_>
          <internalNodes>
            0 -1 25 1.8108274787664413e-02</internalNodes>
          <leafValues>
            -7.2740972042083740e-01 3.2485175132751465e-01</leafValues></_></weakClassifiers></_>
    <!-- stage 7 -->
    <_>
      <maxWeakCount>7</maxWeakCount>
      <stageThreshold>-1.8616642951965332e+00</stageThreshold>
      <weakClassifiers>
        <_>
          <internalNodes>
            0 -1 12 3.1268787384033203e-01</internalNodes>
          <leafValues>
            -8.4905660152435303e-01 3.3742332458496094e-01</leafValues></_>
        <_>
          <internalNodes>
            0 -1 39 -9.3776226043701172e-02</internalNodes>
          <leafValues>
            5.4862099885940552e-01 -6.1557769775390625e-01</leafValues></_>
        <_>
          <internalNodes>
            0 -1 10 -7.6684027910232544e-02</internalNodes>
          <leafValues>
            3.5324653983116150e-01 -7.2655940055847168e-01</leafValues></_>
        <_>
          <internalNodes>
            0 -1 36 1.1045064032077789e-01</internalNodes>
          <leafValues>
            -5.3901201486587524e-01 5.2294772863388062e-01</leafValues></_>
        <_>
          <internalNodes>
            0 -1 38 -1.4033282641321421e-03</internalNodes>
          <leafValues>
            4.1003197431564331e-01 -6.3266766071319580e-01</leafValues></_>
        <_>
          <internalNodes>
            0 -1 33 -1.0163059830665588e-01</internalNodes>
          <leafValues>
            8.9365082979202271e-01 -3.2245314121246338e-01</leafValues></_>
        <_>
          <internalNodes>
            0 -1 18 -4.3783940374851227e-02</internalNodes>
          <leafValues>
            8.6503708362579346e-01 -4.0551733970642090e-01</leafValues></_></weakClassifiers></_>
    <!-- stage 8 -->
    <_>
      <maxWeakCount>7</maxWeakCount>
      <stageThreshold>-1.3252620697021484e+00</stageThreshold>
      <weakClassifiers>
        <_>
          <internalNodes>
            0 -1 31 1.8320944160223007e-02</internalNodes>
          <leafValues>
            -7.2865277528762817e-01 6.0089683532714844e-01</leafValues></_>
        <_>
          <internalNodes>
            0 -1 7 -1.3955226540565491e-01</internalNodes>
          <leafValues>
            5.4763388633728027e-01 -7.1324104070663452e-01</leafValues></_>
        <_>
          <internalNodes>
            0 -1 46 1.2188307300675660e-04</internalNodes>
          <leafValues>
            6.2718451023101807e-01 -5.3938847780227661e-01</leafValues></_>
        <_>
          <internalNodes>
            0 -1 4 3.3021956682205200e-02</internalNodes>
          <leafValues>
            5.1385676860809326e-01 -7.4923962354660034e-01</leafValues></_>
        <_>
          <internalNodes>
            0 -1 42 -7.4417963624000549e-03</internalNodes>
          <leafValues>
            3.5492092370986938e-01 -8.5992908477783203e-01</leafValues></_>
        <_>
          <internalNodes>
            0 -1 15 1.7583410954102874e-04</internalNodes>
          <leafValues>
            -5.7060748338699341e-01 6.1772960424423218e-01</leafValues></_>
        <_>
          <internalNodes>
            0 -1 47 -1.1358805932104588e-03</internalNodes>
          <leafValues>
            -7.4592882394790649e-01 4.3260934948921204e-01</leafValues></_></weakClassifiers></_>
    <!-- stage 9 -->
    <_>
      <maxWeakCount>3</maxWeakCount>
      <stageThreshold>-7.2397994995117188e-01</stageThreshold>
      <weakClassifiers>
        <_>
          <internalNodes>
            0 -1 3 -1.1083928984589875e-04</internalNodes>
          <leafValues>
            -7.4479639530181885e-01 8.1772154569625854e-01</leafValues></_>
        <_>
          <internalNodes>
            0 -1 11 9.0003907680511475e-02</internalNodes>
          <leafValues>
            -7.2218620777130127e-01 7.6035583019256592e-01</leafValues></_>
        <_>
          <internalNodes>
            0 -1 40 -1.2757857143878937e-01</internalNodes>
          <leafValues>
            7.9780781269073486e-01 -7.3953944444656372e-01</leafValues></_></weakClassifiers></_>
    <!-- stage 10 -->
    <_>
      <maxWeakCount>2</maxWeakCount>
      <stageThreshold>1.1928429827094078e-02</stageThreshold>
      <weakClassifiers>
        <_>
          <internalNodes>
            0 -1 23 -6.0923129785805941e-04</internalNodes>
          <leafValues>
            1. -9.8807156085968018e-01</leafValues></_>
        <_>
          <internalNodes>
            0 -1 27 -9.8389182239770889e-03</internalNodes>
          <leafValues>
            1. -9.6389901638031006e-01</leafValues></_></weakClassifiers></_></stages>
  <features>
    <_>
      <rects>
        <_>
          0 2 20 11 -1.</_>
        <_>
          5 2 10 11 2.</_></rects>
      <tilted>0</tilted></_>
    <_>
      <rects>
        <_>
          0 13 9 6 -1.</_>
        <_>
          3 13 3 6 3.</_></rects>
      <tilted>0</tilted></_>
    <_>
      <rects>
        <_>
          0 26 20 1 -1.</_>
        <_>
          5 26 10 1 2.</_></rects>
      <tilted>0</tilted></_>
    <_>
      <rects>
        <_>
          1 0 6 2 -1.</_>
        <_>
          4 0 3 2 2.</_></rects>
      <tilted>0</tilted></_>
    <_>
      <rects>
        <_>
          1 0 16 28 -1.</_>
        <_>
          9 0 8 28 2.</_></rects>
      <tilted>0</tilted></_>
    <_>
      <rects>
        <_>
          2 13 12 16 -1.</_>
        <_>
          2 13 6 8 2.</_>
        <_>
          8 21 6 8 2.</_></rects>
      <tilted>0</tilted></_>
    <_>
      <rects>
        <_>
          2 24 15 6 -1.</_>
        <_>
          7 26 5 2 9.</_></rects>
      <tilted>0</tilted></_>
    <_>
      <rects>
        <_>
          3 0 3 30 -1.</_>
        <_>
          4 10 1 10 9.</_></rects>
      <tilted>0</tilted></_>
    <_>
      <rects>
        <_>
          3 0 9 30 -1.</_>
        <_>
          3 15 9 15 2.</_></rects>
      <tilted>0</tilted></_>
    <_>
      <rects>
        <_>
          3 0 14 28 -1.</_>
        <_>
          3 14 14 14 2.</_></rects>
      <tilted>0</tilted></_>
    <_>
      <rects>
        <_>
          3 2 3 27 -1.</_>
        <_>
          3 11 3 9 3.</_></rects>
      <tilted>0</tilted></_>
    <_>
      <rects>
        <_>
          3 13 15 3 -1.</_>
        <_>
          8 14 5 1 9.</_></rects>
      <tilted>0</tilted></_>
    <_>
      <rects>
        <_>
          3 13 15 11 -1.</_>
        <_>
          8 13 5 11 3.</_></rects>
      <tilted>0</tilted></_>
    <_>
      <rects>
        <_>
          3 14 6 16 -1.</_>
        <_>
          3 14 3 8 2.</_>
        <_>
          6 22 3 8 2.</_></rects>
      <tilted>0</tilted></_>
    <_>
      <rects>
        <_>
          3 16 15 10 -1.</_>
        <_>
          8 16 5 10 3.</_></rects>
      <tilted>0</tilted></_>
    <_>
      <rects>
        <_>
          4 2 1 4 -1.</_>
        <_>
          4 2 1 2 2.</_></rects>
      <tilted>1</tilted></_>
    <_>
      <rects>
        <_>
          4 13 12 5 -1.</_>
        <_>
          7 13 6 5 2.</_></rects>
      <tilted>0</tilted></_>
    <_>
      <rects>
        <_>
          4 13 12 12 -1.</_>
        <_>
          7 13 6 12 2.</_></rects>
      <tilted>0</tilted></_>
    <_>
      <rects>
        <_>
          5 0 3 16 -1.</_>
        <_>
          5 4 3 8 2.</_></rects>
      <tilted>0</tilted></_>
    <_>
      <rects>
        <_>
          5 5 11 18 -1.</_>
        <_>
          5 14 11 9 2.</_></rects>
      <tilted>0</tilted></_>
    <_>
      <rects>
        <_>
          6 0 1 20 -1.</_>
        <_>
          6 5 1 10 2.</_></rects>
      <tilted>0</tilted></_>
    <_>
      <rects>
        <_>
          6 9 3 3 -1.</_>
        <_>
          7 10 1 3 3.</_></rects>
      <tilted>1</tilted></_>
    <_>
      <rects>
        <_>
          6 12 12 3 -1.</_>
        <_>
          9 15 6 3 2.</_></rects>
      <tilted>1</tilted></_>
    <_>
      <rects>
        <_>
          6 23 3 2 -1.</_>
        <_>
          6 24 3 1 2.</_></rects>
      <tilted>0</tilted></_>
    <_>
      <rects>
        <_>
          6 25 2 2 -1.</_>
        <_>
          6 25 2 1 2.</_></rects>
      <tilted>1</tilted></_>
    <_>
      <rects>
        <_>
          8 4 12 3 -1.</_>
        <_>
          8 4 6 3 2.</_></rects>
      <tilted>1</tilted></_>
    <_>
      <rects>
        <_>
          8 6 5 4 -1.</_>
        <_>
          8 7 5 2 2.</_></rects>
      <tilted>0</tilted></_>
    <_>
      <rects>
        <_>
          8 22 3 4 -1.</_>
        <_>
          7 23 3 2 2.</_></rects>
      <tilted>1</tilted></_>
    <_>
      <rects>
        <_>
          9 7 2 4 -1.</_>
        <_>
          9 7 2 2 2.</_></rects>
      <tilted>1</tilted></_>
    <_>
      <rects>
        <_>
          9 21 8 8 -1.</_>
        <_>
          9 21 4 4 2.</_>
        <_>
          13 25 4 4 2.</_></rects>
      <tilted>0</tilted></_>
    <_>
      <rects>
        <_>
          9 23 3 4 -1.</_>
        <_>
          8 24 3 2 2.</_></rects>
      <tilted>1</tilted></_>
    <_>
      <rects>
        <_>
          9 27 8 2 -1.</_>
        <_>
          13 27 4 2 2.</_></rects>
      <tilted>0</tilted></_>
    <_>
      <rects>
        <_>
          10 14 8 16 -1.</_>
        <_>
          10 14 4 8 2.</_>
        <_>
          14 22 4 8 2.</_></rects>
      <tilted>0</tilted></_>
    <_>
      <rects>
        <_>
          11 9 9 6 -1.</_>
        <_>
          11 9 9 3 2.</_></rects>
      <tilted>1</tilted></_>
    <_>
      <rects>
        <_>
          12 4 8 10 -1.</_>
        <_>
          16 4 4 10 2.</_></rects>
      <tilted>0</tilted></_>
    <_>
      <rects>
        <_>
          12 13 8 8 -1.</_>
        <_>
          14 13 4 8 2.</_></rects>
      <tilted>0</tilted></_>
    <_>
      <rects>
        <_>
          12 13 8 9 -1.</_>
        <_>
          12 13 4 9 2.</_></rects>
      <tilted>1</tilted></_>
    <_>
      <rects>
        <_>
          13 0 2 20 -1.</_>
        <_>
          13 5 2 10 2.</_></rects>
      <tilted>0</tilted></_>
    <_>
      <rects>
        <_>
          13 1 6 4 -1.</_>
        <_>
          13 3 6 2 2.</_></rects>
      <tilted>0</tilted></_>
    <_>
      <rects>
        <_>
          13 20 6 4 -1.</_>
        <_>
          15 22 2 4 3.</_></rects>
      <tilted>1</tilted></_>
    <_>
      <rects>
        <_>
          14 0 3 30 -1.</_>
        <_>
          15 10 1 10 9.</_></rects>
      <tilted>0</tilted></_>
    <_>
      <rects>
        <_>
          14 0 4 2 -1.</_>
        <_>
          14 0 2 2 2.</_></rects>
      <tilted>1</tilted></_>
    <_>
      <rects>
        <_>
          14 5 3 24 -1.</_>
        <_>
          15 5 1 24 3.</_></rects>
      <tilted>0</tilted></_>
    <_>
      <rects>
        <_>
          16 0 1 20 -1.</_>
        <_>
          16 10 1 10 2.</_></rects>
      <tilted>0</tilted></_>
    <_>
      <rects>
        <_>
          16 12 3 12 -1.</_>
        <_>
          13 15 3 6 2.</_></rects>
      <tilted>1</tilted></_>
    <_>
      <rects>
        <_>
          16 14 2 14 -1.</_>
        <_>
          16 21 2 7 2.</_></rects>
      <tilted>0</tilted></_>
    <_>
      <rects>
        <_>
          18 1 1 6 -1.</_>
        <_>
          18 4 1 3 2.</_></rects>
      <tilted>0</tilted></_>
    <_>
      <rects>
        <_>
          18 1 2 7 -1.</_>
        <_>
          18 1 1 7 2.</_></rects>
      <tilted>1</tilted></_></features></cascade>
</opencv_storage>
