<?xml version="1.0"?>
<opencv_storage>
<stage8>
  <maxWeakCount>5</maxWeakCount>
  <stageThreshold>-1.3103613853454590e+00</stageThreshold>
  <weakClassifiers>
    <_>
      <internalNodes>
        0 -1 262156 1.8628258840180933e-04</internalNodes>
      <leafValues>
        6.2576687335968018e-01 -6.9107550382614136e-01</leafValues></_>
    <_>
      <internalNodes>
        0 -1 135986 1.1440274119377136e-01</internalNodes>
      <leafValues>
        -6.7308396100997925e-01 5.2480018138885498e-01</leafValues></_>
    <_>
      <internalNodes>
        0 -1 86221 -1.0983231663703918e-01</internalNodes>
      <leafValues>
        4.4636899232864380e-01 -7.2059231996536255e-01</leafValues></_>
    <_>
      <internalNodes>
        0 -1 237372 -3.3373076468706131e-02</internalNodes>
      <leafValues>
        -6.8892073631286621e-01 4.0111443400382996e-01</leafValues></_>
    <_>
      <internalNodes>
        0 -1 160153 1.2705265544354916e-04</internalNodes>
      <leafValues>
        3.7327605485916138e-01 -8.9093190431594849e-01</leafValues></_></weakClassifiers></stage8>
</opencv_storage>
