<?xml version="1.0"?>
<opencv_storage>
<stage5>
  <maxWeakCount>5</maxWeakCount>
  <stageThreshold>-1.3680483102798462e+00</stageThreshold>
  <weakClassifiers>
    <_>
      <internalNodes>
        0 -1 99229 5.1869101822376251e-02</internalNodes>
      <leafValues>
        -8.7368422746658325e-01 6.0000002384185791e-01</leafValues></_>
    <_>
      <internalNodes>
        0 -1 235220 3.8105447310954332e-04</internalNodes>
      <leafValues>
        -6.9111913442611694e-01 6.0661542415618896e-01</leafValues></_>
    <_>
      <internalNodes>
        0 -1 42828 -2.5278472900390625e-01</internalNodes>
      <leafValues>
        6.3825589418411255e-01 -6.0033595561981201e-01</leafValues></_>
    <_>
      <internalNodes>
        0 -1 65866 -5.1093613728880882e-03</internalNodes>
      <leafValues>
        4.8957967758178711e-01 -7.9543673992156982e-01</leafValues></_>
    <_>
      <internalNodes>
        0 -1 47193 4.7387517988681793e-02</internalNodes>
      <leafValues>
        3.0751138925552368e-01 -9.1033017635345459e-01</leafValues></_></weakClassifiers></stage5>
</opencv_storage>
