<?xml version="1.0"?>
<opencv_storage>
<stage9>
  <maxWeakCount>5</maxWeakCount>
  <stageThreshold>-9.5902663469314575e-01</stageThreshold>
  <weakClassifiers>
    <_>
      <internalNodes>
        0 -1 204252 9.1906845569610596e-02</internalNodes>
      <leafValues>
        -7.8169012069702148e-01 7.6436781883239746e-01</leafValues></_>
    <_>
      <internalNodes>
        0 -1 64936 1.6748905181884766e-04</internalNodes>
      <leafValues>
        -5.7552760839462280e-01 8.0391997098922729e-01</leafValues></_>
    <_>
      <internalNodes>
        0 -1 260015 -2.5274814106523991e-03</internalNodes>
      <leafValues>
        5.2572596073150635e-01 -8.4700441360473633e-01</leafValues></_>
    <_>
      <internalNodes>
        0 -1 221820 1.8855321104638278e-04</internalNodes>
      <leafValues>
        -5.5463302135467529e-01 7.5032234191894531e-01</leafValues></_>
    <_>
      <internalNodes>
        0 -1 107175 3.8014273741282523e-04</internalNodes>
      <leafValues>
        4.2709815502166748e-01 -8.7132298946380615e-01</leafValues></_></weakClassifiers></stage9>
</opencv_storage>
