<?xml version="1.0"?>
<opencv_storage>
<cascade>
  <stageType>BOOST</stageType>
  <featureType>HAAR</featureType>
  <height>15</height>
  <width>10</width>
  <stageParams>
    <boostType>GAB</boostType>
    <minHitRate>9.9500000476837158e-01</minHitRate>
    <maxFalseAlarm>4.0000000596046448e-01</maxFalseAlarm>
    <weightTrimRate>9.4999999999999996e-01</weightTrimRate>
    <maxDepth>1</maxDepth>
    <maxWeakCount>100</maxWeakCount></stageParams>
  <featureParams>
    <maxCatCount>0</maxCatCount>
    <featSize>1</featSize>
    <mode>ALL</mode></featureParams>
  <stageNum>7</stageNum>
  <stages>
    <!-- stage 0 -->
    <_>
      <maxWeakCount>2</maxWeakCount>
      <stageThreshold>-8.7149322032928467e-02</stageThreshold>
      <weakClassifiers>
        <_>
          <internalNodes>
            0 -1 13 1.1877353489398956e-01</internalNodes>
          <leafValues>
            -9.9199998378753662e-01 9.8400002717971802e-01</leafValues></_>
        <_>
          <internalNodes>
            0 -1 15 -1.0504297912120819e-01</internalNodes>
          <leafValues>
            9.0485066175460815e-01 -1.</leafValues></_></weakClassifiers></_>
    <!-- stage 1 -->
    <_>
      <maxWeakCount>2</maxWeakCount>
      <stageThreshold>-9.5195725560188293e-02</stageThreshold>
      <weakClassifiers>
        <_>
          <internalNodes>
            0 -1 6 -4.8141725361347198e-02</internalNodes>
          <leafValues>
            9.3999999761581421e-01 -9.7000002861022949e-01</leafValues></_>
        <_>
          <internalNodes>
            0 -1 1 3.9925128221511841e-02</internalNodes>
          <leafValues>
            -9.9019968509674072e-01 8.7480425834655762e-01</leafValues></_></weakClassifiers></_>
    <!-- stage 2 -->
    <_>
      <maxWeakCount>3</maxWeakCount>
      <stageThreshold>-1.1323677301406860e+00</stageThreshold>
      <weakClassifiers>
        <_>
          <internalNodes>
            0 -1 13 1.6616879403591156e-01</internalNodes>
          <leafValues>
            -9.2079210281372070e-01 8.7755101919174194e-01</leafValues></_>
        <_>
          <internalNodes>
            0 -1 8 4.8710554838180542e-02</internalNodes>
          <leafValues>
            -9.2932504415512085e-01 7.6334160566329956e-01</leafValues></_>
        <_>
          <internalNodes>
            0 -1 3 5.6140448898077011e-02</internalNodes>
          <leafValues>
            -9.5924389362335205e-01 7.1774935722351074e-01</leafValues></_></weakClassifiers></_>
    <!-- stage 3 -->
    <_>
      <maxWeakCount>2</maxWeakCount>
      <stageThreshold>-2.3498515784740448e-01</stageThreshold>
      <weakClassifiers>
        <_>
          <internalNodes>
            0 -1 9 -1.5658058226108551e-01</internalNodes>
          <leafValues>
            8.6503064632415771e-01 -9.1295748949050903e-01</leafValues></_>
        <_>
          <internalNodes>
            0 -1 4 4.4717952609062195e-02</internalNodes>
          <leafValues>
            -9.7579181194305420e-01 6.7797231674194336e-01</leafValues></_></weakClassifiers></_>
    <!-- stage 4 -->
    <_>
      <maxWeakCount>3</maxWeakCount>
      <stageThreshold>-1.0993677377700806e+00</stageThreshold>
      <weakClassifiers>
        <_>
          <internalNodes>
            0 -1 0 -8.6517229676246643e-02</internalNodes>
          <leafValues>
            8.2364732027053833e-01 -9.1008991003036499e-01</leafValues></_>
        <_>
          <internalNodes>
            0 -1 10 1.8863573670387268e-01</internalNodes>
          <leafValues>
            -9.0234822034835815e-01 8.3185976743698120e-01</leafValues></_>
        <_>
          <internalNodes>
            0 -1 14 -1.2077354639768600e-01</internalNodes>
          <leafValues>
            7.1307039260864258e-01 -9.5189636945724487e-01</leafValues></_></weakClassifiers></_>
    <!-- stage 5 -->
    <_>
      <maxWeakCount>3</maxWeakCount>
      <stageThreshold>-1.0607975721359253e+00</stageThreshold>
      <weakClassifiers>
        <_>
          <internalNodes>
            0 -1 12 -9.7927272319793701e-02</internalNodes>
          <leafValues>
            8.0039918422698975e-01 -9.0190190076828003e-01</leafValues></_>
        <_>
          <internalNodes>
            0 -1 11 -1.4669275283813477e-01</internalNodes>
          <leafValues>
            7.6829570531845093e-01 -8.4514051675796509e-01</leafValues></_>
        <_>
          <internalNodes>
            0 -1 7 -1.0085386037826538e-01</internalNodes>
          <leafValues>
            6.8624484539031982e-01 -8.2974356412887573e-01</leafValues></_></weakClassifiers></_>
    <!-- stage 6 -->
    <_>
      <maxWeakCount>2</maxWeakCount>
      <stageThreshold>-6.1067350208759308e-02</stageThreshold>
      <weakClassifiers>
        <_>
          <internalNodes>
            0 -1 5 4.4921059161424637e-02</internalNodes>
          <leafValues>
            -8.7977099418640137e-01 9.3362832069396973e-01</leafValues></_>
        <_>
          <internalNodes>
            0 -1 2 -1.9300059974193573e-01</internalNodes>
          <leafValues>
            8.1870365142822266e-01 -9.4614297151565552e-01</leafValues></_></weakClassifiers></_></stages>
  <features>
    <_>
      <rects>
        <_>
          2 1 7 3 -1.</_>
        <_>
          2 2 7 1 3.</_></rects>
      <tilted>0</tilted></_>
    <_>
      <rects>
        <_>
          2 2 2 4 -1.</_>
        <_>
          2 4 2 2 2.</_></rects>
      <tilted>0</tilted></_>
    <_>
      <rects>
        <_>
          2 6 8 9 -1.</_>
        <_>
          4 6 4 9 2.</_></rects>
      <tilted>0</tilted></_>
    <_>
      <rects>
        <_>
          2 8 4 2 -1.</_>
        <_>
          2 8 2 2 2.</_></rects>
      <tilted>1</tilted></_>
    <_>
      <rects>
        <_>
          2 13 7 2 -1.</_>
        <_>
          2 14 7 1 2.</_></rects>
      <tilted>0</tilted></_>
    <_>
      <rects>
        <_>
          3 7 2 6 -1.</_>
        <_>
          3 7 1 3 2.</_>
        <_>
          4 10 1 3 2.</_></rects>
      <tilted>0</tilted></_>
    <_>
      <rects>
        <_>
          4 4 6 1 -1.</_>
        <_>
          6 4 2 1 3.</_></rects>
      <tilted>0</tilted></_>
    <_>
      <rects>
        <_>
          4 5 5 2 -1.</_>
        <_>
          4 5 5 1 2.</_></rects>
      <tilted>1</tilted></_>
    <_>
      <rects>
        <_>
          5 4 2 2 -1.</_>
        <_>
          5 4 1 2 2.</_></rects>
      <tilted>1</tilted></_>
    <_>
      <rects>
        <_>
          5 6 4 6 -1.</_>
        <_>
          5 6 2 3 2.</_>
        <_>
          7 9 2 3 2.</_></rects>
      <tilted>0</tilted></_>
    <_>
      <rects>
        <_>
          5 6 4 4 -1.</_>
        <_>
          4 7 4 2 2.</_></rects>
      <tilted>1</tilted></_>
    <_>
      <rects>
        <_>
          6 0 3 6 -1.</_>
        <_>
          7 2 1 2 9.</_></rects>
      <tilted>0</tilted></_>
    <_>
      <rects>
        <_>
          6 4 3 3 -1.</_>
        <_>
          7 5 1 3 3.</_></rects>
      <tilted>1</tilted></_>
    <_>
      <rects>
        <_>
          6 7 3 4 -1.</_>
        <_>
          5 8 3 2 2.</_></rects>
      <tilted>1</tilted></_>
    <_>
      <rects>
        <_>
          7 1 2 6 -1.</_>
        <_>
          7 1 2 3 2.</_></rects>
      <tilted>1</tilted></_>
    <_>
      <rects>
        <_>
          7 5 3 4 -1.</_>
        <_>
          6 6 3 2 2.</_></rects>
      <tilted>1</tilted></_></features></cascade>
</opencv_storage>
