<?xml version="1.0"?>
<opencv_storage>
<cascade>
  <stageType>BOOST</stageType>
  <featureType>HAAR</featureType>
  <height>15</height>
  <width>10</width>
  <stageParams>
    <boostType>GAB</boostType>
    <minHitRate>9.9500000476837158e-01</minHitRate>
    <maxFalseAlarm>4.0000000596046448e-01</maxFalseAlarm>
    <weightTrimRate>9.4999999999999996e-01</weightTrimRate>
    <maxDepth>1</maxDepth>
    <maxWeakCount>100</maxWeakCount></stageParams>
  <featureParams>
    <maxCatCount>0</maxCatCount>
    <featSize>1</featSize>
    <mode>ALL</mode></featureParams>
  <stageNum>10</stageNum>
  <stages>
    <!-- stage 0 -->
    <_>
      <maxWeakCount>2</maxWeakCount>
      <stageThreshold>-1.0581654310226440e-01</stageThreshold>
      <weakClassifiers>
        <_>
          <internalNodes>
            0 -1 8 1.8083781003952026e-01</internalNodes>
          <leafValues>
            -9.6051335334777832e-01 9.7125256061553955e-01</leafValues></_>
        <_>
          <internalNodes>
            0 -1 19 -1.3086562976241112e-02</internalNodes>
          <leafValues>
            8.5469681024551392e-01 -9.7465407848358154e-01</leafValues></_></weakClassifiers></_>
    <!-- stage 1 -->
    <_>
      <maxWeakCount>3</maxWeakCount>
      <stageThreshold>-1.1127933263778687e+00</stageThreshold>
      <weakClassifiers>
        <_>
          <internalNodes>
            0 -1 23 -3.2088717818260193e-01</internalNodes>
          <leafValues>
            8.6923074722290039e-01 -9.7142857313156128e-01</leafValues></_>
        <_>
          <internalNodes>
            0 -1 27 -6.9370657205581665e-02</internalNodes>
          <leafValues>
            8.6498355865478516e-01 -9.3550753593444824e-01</leafValues></_>
        <_>
          <internalNodes>
            0 -1 1 -2.6526087522506714e-01</internalNodes>
          <leafValues>
            7.9414272308349609e-01 -9.5019358396530151e-01</leafValues></_></weakClassifiers></_>
    <!-- stage 2 -->
    <_>
      <maxWeakCount>3</maxWeakCount>
      <stageThreshold>-1.1516149044036865e+00</stageThreshold>
      <weakClassifiers>
        <_>
          <internalNodes>
            0 -1 8 2.4411350488662720e-01</internalNodes>
          <leafValues>
            -9.0010195970535278e-01 7.3795759677886963e-01</leafValues></_>
        <_>
          <internalNodes>
            0 -1 17 -1.1699184775352478e-01</internalNodes>
          <leafValues>
            6.6255623102188110e-01 -8.8618224859237671e-01</leafValues></_>
        <_>
          <internalNodes>
            0 -1 25 4.8459809273481369e-02</internalNodes>
          <leafValues>
            -9.1406923532485962e-01 6.9552910327911377e-01</leafValues></_></weakClassifiers></_>
    <!-- stage 3 -->
    <_>
      <maxWeakCount>3</maxWeakCount>
      <stageThreshold>-1.2009955644607544e+00</stageThreshold>
      <weakClassifiers>
        <_>
          <internalNodes>
            0 -1 4 -1.2339925765991211e-01</internalNodes>
          <leafValues>
            8.5031187534332275e-01 -8.9205104112625122e-01</leafValues></_>
        <_>
          <internalNodes>
            0 -1 18 3.6684110760688782e-02</internalNodes>
          <leafValues>
            -8.9489376544952393e-01 7.4600923061370850e-01</leafValues></_>
        <_>
          <internalNodes>
            0 -1 14 -5.3864583373069763e-02</internalNodes>
          <leafValues>
            5.8594924211502075e-01 -9.1435724496841431e-01</leafValues></_></weakClassifiers></_>
    <!-- stage 4 -->
    <_>
      <maxWeakCount>3</maxWeakCount>
      <stageThreshold>-9.9136072397232056e-01</stageThreshold>
      <weakClassifiers>
        <_>
          <internalNodes>
            0 -1 22 -4.4909071922302246e-01</internalNodes>
          <leafValues>
            7.2854292392730713e-01 -8.6586588621139526e-01</leafValues></_>
        <_>
          <internalNodes>
            0 -1 16 -3.2020024955272675e-02</internalNodes>
          <leafValues>
            6.8924212455749512e-01 -8.3662307262420654e-01</leafValues></_>
        <_>
          <internalNodes>
            0 -1 2 -5.9035807847976685e-02</internalNodes>
          <leafValues>
            7.1112823486328125e-01 -7.7737611532211304e-01</leafValues></_></weakClassifiers></_>
    <!-- stage 5 -->
    <_>
      <maxWeakCount>3</maxWeakCount>
      <stageThreshold>-9.7965061664581299e-01</stageThreshold>
      <weakClassifiers>
        <_>
          <internalNodes>
            0 -1 5 -7.7359087765216827e-02</internalNodes>
          <leafValues>
            6.8522071838378906e-01 -8.7538301944732666e-01</leafValues></_>
        <_>
          <internalNodes>
            0 -1 7 -3.2716956734657288e-01</internalNodes>
          <leafValues>
            6.6537261009216309e-01 -8.1797319650650024e-01</leafValues></_>
        <_>
          <internalNodes>
            0 -1 24 -1.3183766603469849e-01</internalNodes>
          <leafValues>
            7.2482544183731079e-01 -7.6964014768600464e-01</leafValues></_></weakClassifiers></_>
    <!-- stage 6 -->
    <_>
      <maxWeakCount>4</maxWeakCount>
      <stageThreshold>-1.9945349693298340e+00</stageThreshold>
      <weakClassifiers>
        <_>
          <internalNodes>
            0 -1 0 -8.5020706057548523e-02</internalNodes>
          <leafValues>
            5.9049361944198608e-01 -8.6358869075775146e-01</leafValues></_>
        <_>
          <internalNodes>
            0 -1 21 -5.4285532236099243e-01</internalNodes>
          <leafValues>
            5.0208836793899536e-01 -8.3195048570632935e-01</leafValues></_>
        <_>
          <internalNodes>
            0 -1 20 -1.1763443052768707e-01</internalNodes>
          <leafValues>
            5.6509429216384888e-01 -8.0462837219238281e-01</leafValues></_>
        <_>
          <internalNodes>
            0 -1 12 5.7061709463596344e-02</internalNodes>
          <leafValues>
            -8.6409008502960205e-01 4.9610301852226257e-01</leafValues></_></weakClassifiers></_>
    <!-- stage 7 -->
    <_>
      <maxWeakCount>4</maxWeakCount>
      <stageThreshold>-1.8710852861404419e+00</stageThreshold>
      <weakClassifiers>
        <_>
          <internalNodes>
            0 -1 21 -5.3901940584182739e-01</internalNodes>
          <leafValues>
            4.7702059149742126e-01 -9.2174911499023438e-01</leafValues></_>
        <_>
          <internalNodes>
            0 -1 15 -1.0409784317016602e-01</internalNodes>
          <leafValues>
            5.7861667871475220e-01 -7.7826941013336182e-01</leafValues></_>
        <_>
          <internalNodes>
            0 -1 26 -7.6655924320220947e-02</internalNodes>
          <leafValues>
            5.1882815361022949e-01 -7.5586038827896118e-01</leafValues></_>
        <_>
          <internalNodes>
            0 -1 11 -3.0024042725563049e-01</internalNodes>
          <leafValues>
            5.1104569435119629e-01 -7.7209246158599854e-01</leafValues></_></weakClassifiers></_>
    <!-- stage 8 -->
    <_>
      <maxWeakCount>4</maxWeakCount>
      <stageThreshold>-1.7543649673461914e+00</stageThreshold>
      <weakClassifiers>
        <_>
          <internalNodes>
            0 -1 2 -6.3452586531639099e-02</internalNodes>
          <leafValues>
            5.3448277711868286e-01 -8.8043481111526489e-01</leafValues></_>
        <_>
          <internalNodes>
            0 -1 9 -5.9362769126892090e-02</internalNodes>
          <leafValues>
            5.7703858613967896e-01 -7.6357579231262207e-01</leafValues></_>
        <_>
          <internalNodes>
            0 -1 6 -1.5184634923934937e-01</internalNodes>
          <leafValues>
            7.0005649328231812e-01 -7.2875171899795532e-01</leafValues></_>
        <_>
          <internalNodes>
            0 -1 3 -4.5359963551163673e-03</internalNodes>
          <leafValues>
            5.3089243173599243e-01 -8.1041091680526733e-01</leafValues></_></weakClassifiers></_>
    <!-- stage 9 -->
    <_>
      <maxWeakCount>2</maxWeakCount>
      <stageThreshold>-4.4665288925170898e-01</stageThreshold>
      <weakClassifiers>
        <_>
          <internalNodes>
            0 -1 13 9.3811228871345520e-02</internalNodes>
          <leafValues>
            -9.3482691049575806e-01 8.0694979429244995e-01</leafValues></_>
        <_>
          <internalNodes>
            0 -1 10 1.7634656280279160e-02</internalNodes>
          <leafValues>
            -9.7494566440582275e-01 4.8817399144172668e-01</leafValues></_></weakClassifiers></_></stages>
  <features>
    <_>
      <rects>
        <_>
          0 1 4 6 -1.</_>
        <_>
          0 1 2 3 2.</_>
        <_>
          2 4 2 3 2.</_></rects>
      <tilted>0</tilted></_>
    <_>
      <rects>
        <_>
          0 4 6 11 -1.</_>
        <_>
          2 4 2 11 3.</_></rects>
      <tilted>0</tilted></_>
    <_>
      <rects>
        <_>
          0 9 9 1 -1.</_>
        <_>
          3 9 3 1 3.</_></rects>
      <tilted>0</tilted></_>
    <_>
      <rects>
        <_>
          0 13 8 2 -1.</_>
        <_>
          0 13 4 1 2.</_>
        <_>
          4 14 4 1 2.</_></rects>
      <tilted>0</tilted></_>
    <_>
      <rects>
        <_>
          1 4 2 10 -1.</_>
        <_>
          2 4 1 10 2.</_></rects>
      <tilted>0</tilted></_>
    <_>
      <rects>
        <_>
          1 11 4 3 -1.</_>
        <_>
          2 11 2 3 2.</_></rects>
      <tilted>0</tilted></_>
    <_>
      <rects>
        <_>
          2 0 6 6 -1.</_>
        <_>
          2 3 6 3 2.</_></rects>
      <tilted>0</tilted></_>
    <_>
      <rects>
        <_>
          2 0 6 10 -1.</_>
        <_>
          2 5 6 5 2.</_></rects>
      <tilted>0</tilted></_>
    <_>
      <rects>
        <_>
          2 6 6 3 -1.</_>
        <_>
          4 7 2 1 9.</_></rects>
      <tilted>0</tilted></_>
    <_>
      <rects>
        <_>
          2 10 4 1 -1.</_>
        <_>
          3 11 2 1 2.</_></rects>
      <tilted>1</tilted></_>
    <_>
      <rects>
        <_>
          2 13 8 2 -1.</_>
        <_>
          4 13 4 2 2.</_></rects>
      <tilted>0</tilted></_>
    <_>
      <rects>
        <_>
          3 1 5 12 -1.</_>
        <_>
          3 4 5 6 2.</_></rects>
      <tilted>0</tilted></_>
    <_>
      <rects>
        <_>
          3 5 2 10 -1.</_>
        <_>
          4 5 1 10 2.</_></rects>
      <tilted>0</tilted></_>
    <_>
      <rects>
        <_>
          3 6 6 6 -1.</_>
        <_>
          3 6 3 3 2.</_>
        <_>
          6 9 3 3 2.</_></rects>
      <tilted>0</tilted></_>
    <_>
      <rects>
        <_>
          4 3 3 2 -1.</_>
        <_>
          5 4 1 2 3.</_></rects>
      <tilted>1</tilted></_>
    <_>
      <rects>
        <_>
          4 3 3 3 -1.</_>
        <_>
          5 4 1 3 3.</_></rects>
      <tilted>1</tilted></_>
    <_>
      <rects>
        <_>
          4 4 2 3 -1.</_>
        <_>
          4 5 2 1 3.</_></rects>
      <tilted>0</tilted></_>
    <_>
      <rects>
        <_>
          4 8 4 2 -1.</_>
        <_>
          4 8 2 2 2.</_></rects>
      <tilted>1</tilted></_>
    <_>
      <rects>
        <_>
          4 9 4 2 -1.</_>
        <_>
          4 10 4 1 2.</_></rects>
      <tilted>0</tilted></_>
    <_>
      <rects>
        <_>
          5 3 1 4 -1.</_>
        <_>
          5 4 1 2 2.</_></rects>
      <tilted>0</tilted></_>
    <_>
      <rects>
        <_>
          5 6 4 5 -1.</_>
        <_>
          6 7 2 5 2.</_></rects>
      <tilted>1</tilted></_>
    <_>
      <rects>
        <_>
          6 0 3 15 -1.</_>
        <_>
          7 5 1 5 9.</_></rects>
      <tilted>0</tilted></_>
    <_>
      <rects>
        <_>
          6 1 3 12 -1.</_>
        <_>
          7 5 1 4 9.</_></rects>
      <tilted>0</tilted></_>
    <_>
      <rects>
        <_>
          6 2 3 12 -1.</_>
        <_>
          7 6 1 4 9.</_></rects>
      <tilted>0</tilted></_>
    <_>
      <rects>
        <_>
          7 6 3 6 -1.</_>
        <_>
          8 7 1 6 3.</_></rects>
      <tilted>1</tilted></_>
    <_>
      <rects>
        <_>
          8 3 2 2 -1.</_>
        <_>
          8 3 2 1 2.</_></rects>
      <tilted>1</tilted></_>
    <_>
      <rects>
        <_>
          8 3 2 4 -1.</_>
        <_>
          7 4 2 2 2.</_></rects>
      <tilted>1</tilted></_>
    <_>
      <rects>
        <_>
          8 7 2 5 -1.</_>
        <_>
          8 7 1 5 2.</_></rects>
      <tilted>1</tilted></_></features></cascade>
</opencv_storage>
