<?xml version="1.0"?>
<opencv_storage>
<cascade>
  <stageType>BOOST</stageType>
  <featureType>HAAR</featureType>
  <height>30</height>
  <width>20</width>
  <stageParams>
    <boostType>GAB</boostType>
    <minHitRate>9.9500000476837158e-01</minHitRate>
    <maxFalseAlarm>4.0000000596046448e-01</maxFalseAlarm>
    <weightTrimRate>9.4999999999999996e-01</weightTrimRate>
    <maxDepth>1</maxDepth>
    <maxWeakCount>100</maxWeakCount></stageParams>
  <featureParams>
    <maxCatCount>0</maxCatCount>
    <featSize>1</featSize>
    <mode>ALL</mode></featureParams>
  <stageNum>6</stageNum>
  <stages>
    <!-- stage 0 -->
    <_>
      <maxWeakCount>2</maxWeakCount>
      <stageThreshold>-1.9893577322363853e-02</stageThreshold>
      <weakClassifiers>
        <_>
          <internalNodes>
            0 -1 10 7.1147233247756958e-02</internalNodes>
          <leafValues>
            -9.9497485160827637e-01 9.7029703855514526e-01</leafValues></_>
        <_>
          <internalNodes>
            0 -1 8 -1.0102252662181854e-01</internalNodes>
          <leafValues>
            9.7638583183288574e-01 -9.9019062519073486e-01</leafValues></_></weakClassifiers></_>
    <!-- stage 1 -->
    <_>
      <maxWeakCount>3</maxWeakCount>
      <stageThreshold>-1.0314306020736694e+00</stageThreshold>
      <weakClassifiers>
        <_>
          <internalNodes>
            0 -1 1 -2.0633736252784729e-01</internalNodes>
          <leafValues>
            9.2462313175201416e-01 -9.5760595798492432e-01</leafValues></_>
        <_>
          <internalNodes>
            0 -1 15 -6.8126514554023743e-02</internalNodes>
          <leafValues>
            8.4321618080139160e-01 -8.5824209451675415e-01</leafValues></_>
        <_>
          <internalNodes>
            0 -1 14 -7.7864751219749451e-02</internalNodes>
          <leafValues>
            7.9087865352630615e-01 -9.1704088449478149e-01</leafValues></_></weakClassifiers></_>
    <!-- stage 2 -->
    <_>
      <maxWeakCount>3</maxWeakCount>
      <stageThreshold>-1.0486761331558228e+00</stageThreshold>
      <weakClassifiers>
        <_>
          <internalNodes>
            0 -1 0 -6.1619508266448975e-01</internalNodes>
          <leafValues>
            9.2268043756484985e-01 -9.3349754810333252e-01</leafValues></_>
        <_>
          <internalNodes>
            0 -1 5 6.7349985241889954e-02</internalNodes>
          <leafValues>
            -8.3236151933670044e-01 9.3056559562683105e-01</leafValues></_>
        <_>
          <internalNodes>
            0 -1 7 -7.0575112476944923e-03</internalNodes>
          <leafValues>
            7.1718293428421021e-01 -9.5946723222732544e-01</leafValues></_></weakClassifiers></_>
    <!-- stage 3 -->
    <_>
      <maxWeakCount>2</maxWeakCount>
      <stageThreshold>-2.7561351656913757e-01</stageThreshold>
      <weakClassifiers>
        <_>
          <internalNodes>
            0 -1 9 -1.4720855280756950e-02</internalNodes>
          <leafValues>
            8.6842107772827148e-01 -8.9024388790130615e-01</leafValues></_>
        <_>
          <internalNodes>
            0 -1 4 3.1408216804265976e-02</internalNodes>
          <leafValues>
            -9.5657688379287720e-01 6.1463040113449097e-01</leafValues></_></weakClassifiers></_>
    <!-- stage 4 -->
    <_>
      <maxWeakCount>3</maxWeakCount>
      <stageThreshold>-1.0509035587310791e+00</stageThreshold>
      <weakClassifiers>
        <_>
          <internalNodes>
            0 -1 12 -5.7811573147773743e-02</internalNodes>
          <leafValues>
            8.7969923019409180e-01 -9.3757802248001099e-01</leafValues></_>
        <_>
          <internalNodes>
            0 -1 2 -1.4775496721267700e-01</internalNodes>
          <leafValues>
            7.6105552911758423e-01 -8.9509630203247070e-01</leafValues></_>
        <_>
          <internalNodes>
            0 -1 6 8.5126467049121857e-02</internalNodes>
          <leafValues>
            -8.7438112497329712e-01 7.9519683122634888e-01</leafValues></_></weakClassifiers></_>
    <!-- stage 5 -->
    <_>
      <maxWeakCount>4</maxWeakCount>
      <stageThreshold>-1.7079468965530396e+00</stageThreshold>
      <weakClassifiers>
        <_>
          <internalNodes>
            0 -1 13 -8.7245553731918335e-02</internalNodes>
          <leafValues>
            8.4693878889083862e-01 -9.0594059228897095e-01</leafValues></_>
        <_>
          <internalNodes>
            0 -1 5 7.6168879866600037e-02</internalNodes>
          <leafValues>
            -7.6613694429397583e-01 9.2970585823059082e-01</leafValues></_>
        <_>
          <internalNodes>
            0 -1 11 1.8635073676705360e-02</internalNodes>
          <leafValues>
            -6.4658391475677490e-01 7.7545303106307983e-01</leafValues></_>
        <_>
          <internalNodes>
            0 -1 3 6.1888992786407471e-04</internalNodes>
          <leafValues>
            -9.2685735225677490e-01 6.1071449518203735e-01</leafValues></_></weakClassifiers></_></stages>
  <features>
    <_>
      <rects>
        <_>
          1 0 9 30 -1.</_>
        <_>
          4 10 3 10 9.</_></rects>
      <tilted>0</tilted></_>
    <_>
      <rects>
        <_>
          1 8 9 20 -1.</_>
        <_>
          4 8 3 20 3.</_></rects>
      <tilted>0</tilted></_>
    <_>
      <rects>
        <_>
          1 9 6 18 -1.</_>
        <_>
          4 9 3 18 2.</_></rects>
      <tilted>0</tilted></_>
    <_>
      <rects>
        <_>
          2 28 8 2 -1.</_>
        <_>
          2 29 8 1 2.</_></rects>
      <tilted>0</tilted></_>
    <_>
      <rects>
        <_>
          5 19 7 6 -1.</_>
        <_>
          5 22 7 3 2.</_></rects>
      <tilted>0</tilted></_>
    <_>
      <rects>
        <_>
          5 20 8 8 -1.</_>
        <_>
          7 20 4 8 2.</_></rects>
      <tilted>0</tilted></_>
    <_>
      <rects>
        <_>
          6 10 10 8 -1.</_>
        <_>
          6 10 5 4 2.</_>
        <_>
          11 14 5 4 2.</_></rects>
      <tilted>0</tilted></_>
    <_>
      <rects>
        <_>
          6 25 1 4 -1.</_>
        <_>
          6 25 1 2 2.</_></rects>
      <tilted>1</tilted></_>
    <_>
      <rects>
        <_>
          7 16 8 12 -1.</_>
        <_>
          7 16 4 6 2.</_>
        <_>
          11 22 4 6 2.</_></rects>
      <tilted>0</tilted></_>
    <_>
      <rects>
        <_>
          8 5 4 6 -1.</_>
        <_>
          9 6 2 6 2.</_></rects>
      <tilted>1</tilted></_>
    <_>
      <rects>
        <_>
          9 7 6 14 -1.</_>
        <_>
          9 7 3 7 2.</_>
        <_>
          12 14 3 7 2.</_></rects>
      <tilted>0</tilted></_>
    <_>
      <rects>
        <_>
          10 0 4 9 -1.</_>
        <_>
          10 0 2 9 2.</_></rects>
      <tilted>1</tilted></_>
    <_>
      <rects>
        <_>
          11 6 5 12 -1.</_>
        <_>
          11 9 5 6 2.</_></rects>
      <tilted>0</tilted></_>
    <_>
      <rects>
        <_>
          12 4 3 15 -1.</_>
        <_>
          12 9 3 5 3.</_></rects>
      <tilted>0</tilted></_>
    <_>
      <rects>
        <_>
          14 11 4 10 -1.</_>
        <_>
          14 11 2 10 2.</_></rects>
      <tilted>1</tilted></_>
    <_>
      <rects>
        <_>
          16 21 3 6 -1.</_>
        <_>
          14 23 3 2 3.</_></rects>
      <tilted>1</tilted></_></features></cascade>
</opencv_storage>
