<?xml version="1.0"?>
<opencv_storage>
<cascade>
  <stageType>BOOST</stageType>
  <featureType>HAAR</featureType>
  <height>15</height>
  <width>10</width>
  <stageParams>
    <boostType>GAB</boostType>
    <minHitRate>9.9500000476837158e-01</minHitRate>
    <maxFalseAlarm>4.0000000596046448e-01</maxFalseAlarm>
    <weightTrimRate>9.4999999999999996e-01</weightTrimRate>
    <maxDepth>1</maxDepth>
    <maxWeakCount>100</maxWeakCount></stageParams>
  <featureParams>
    <maxCatCount>0</maxCatCount>
    <featSize>1</featSize>
    <mode>ALL</mode></featureParams>
  <stageNum>8</stageNum>
  <stages>
    <!-- stage 0 -->
    <_>
      <maxWeakCount>2</maxWeakCount>
      <stageThreshold>-2.2001324221491814e-02</stageThreshold>
      <weakClassifiers>
        <_>
          <internalNodes>
            0 -1 10 -1.5624246001243591e-01</internalNodes>
          <leafValues>
            9.5669293403625488e-01 -9.9395161867141724e-01</leafValues></_>
        <_>
          <internalNodes>
            0 -1 5 6.4813897013664246e-02</internalNodes>
          <leafValues>
            -9.7869426012039185e-01 9.7745841741561890e-01</leafValues></_></weakClassifiers></_>
    <!-- stage 1 -->
    <_>
      <maxWeakCount>2</maxWeakCount>
      <stageThreshold>-1.5367916226387024e-01</stageThreshold>
      <weakClassifiers>
        <_>
          <internalNodes>
            0 -1 17 -8.1143945455551147e-02</internalNodes>
          <leafValues>
            9.0606653690338135e-01 -9.7371083498001099e-01</leafValues></_>
        <_>
          <internalNodes>
            0 -1 22 -3.0213668942451477e-02</internalNodes>
          <leafValues>
            8.2003164291381836e-01 -9.5524519681930542e-01</leafValues></_></weakClassifiers></_>
    <!-- stage 2 -->
    <_>
      <maxWeakCount>3</maxWeakCount>
      <stageThreshold>-1.2939430475234985e+00</stageThreshold>
      <weakClassifiers>
        <_>
          <internalNodes>
            0 -1 16 -1.6249704360961914e-01</internalNodes>
          <leafValues>
            7.3881930112838745e-01 -9.7024440765380859e-01</leafValues></_>
        <_>
          <internalNodes>
            0 -1 12 -1.4822660386562347e-01</internalNodes>
          <leafValues>
            5.6481510400772095e-01 -8.8730674982070923e-01</leafValues></_>
        <_>
          <internalNodes>
            0 -1 28 -9.1069787740707397e-02</internalNodes>
          <leafValues>
            6.5992158651351929e-01 -8.8851374387741089e-01</leafValues></_></weakClassifiers></_>
    <!-- stage 3 -->
    <_>
      <maxWeakCount>4</maxWeakCount>
      <stageThreshold>-6.8425548076629639e-01</stageThreshold>
      <weakClassifiers>
        <_>
          <internalNodes>
            0 -1 3 -9.8157957196235657e-02</internalNodes>
          <leafValues>
            6.9629627466201782e-01 -9.1250002384185791e-01</leafValues></_>
        <_>
          <internalNodes>
            0 -1 11 -2.7800893783569336e-01</internalNodes>
          <leafValues>
            6.1522489786148071e-01 -8.6699354648590088e-01</leafValues></_>
        <_>
          <internalNodes>
            0 -1 24 8.4052026271820068e-02</internalNodes>
          <leafValues>
            -9.7602295875549316e-01 4.6700075268745422e-01</leafValues></_>
        <_>
          <internalNodes>
            0 -1 25 -7.6820760965347290e-02</internalNodes>
          <leafValues>
            6.2823730707168579e-01 -8.3881199359893799e-01</leafValues></_></weakClassifiers></_>
    <!-- stage 4 -->
    <_>
      <maxWeakCount>4</maxWeakCount>
      <stageThreshold>-8.4549760818481445e-01</stageThreshold>
      <weakClassifiers>
        <_>
          <internalNodes>
            0 -1 7 -3.0217972397804260e-01</internalNodes>
          <leafValues>
            5.8318740129470825e-01 -8.9666306972503662e-01</leafValues></_>
        <_>
          <internalNodes>
            0 -1 0 7.4570350348949432e-02</internalNodes>
          <leafValues>
            -8.8869494199752808e-01 5.3681242465972900e-01</leafValues></_>
        <_>
          <internalNodes>
            0 -1 23 2.0215511322021484e-02</internalNodes>
          <leafValues>
            -8.2004415988922119e-01 4.7281807661056519e-01</leafValues></_>
        <_>
          <internalNodes>
            0 -1 9 -1.2921896576881409e-01</internalNodes>
          <leafValues>
            4.6704235672950745e-01 -9.1429960727691650e-01</leafValues></_></weakClassifiers></_>
    <!-- stage 5 -->
    <_>
      <maxWeakCount>5</maxWeakCount>
      <stageThreshold>-1.7322887182235718e+00</stageThreshold>
      <weakClassifiers>
        <_>
          <internalNodes>
            0 -1 29 1.5035507269203663e-02</internalNodes>
          <leafValues>
            -9.1946309804916382e-01 5.3135311603546143e-01</leafValues></_>
        <_>
          <internalNodes>
            0 -1 18 9.1839320957660675e-02</internalNodes>
          <leafValues>
            -8.0821019411087036e-01 4.4675090909004211e-01</leafValues></_>
        <_>
          <internalNodes>
            0 -1 2 -7.1340121328830719e-02</internalNodes>
          <leafValues>
            5.7342976331710815e-01 -6.7726773023605347e-01</leafValues></_>
        <_>
          <internalNodes>
            0 -1 27 3.9228172972798347e-03</internalNodes>
          <leafValues>
            -9.2281472682952881e-01 3.6096179485321045e-01</leafValues></_>
        <_>
          <internalNodes>
            0 -1 1 -1.7229053378105164e-01</internalNodes>
          <leafValues>
            3.1169050931930542e-01 -1.</leafValues></_></weakClassifiers></_>
    <!-- stage 6 -->
    <_>
      <maxWeakCount>6</maxWeakCount>
      <stageThreshold>-1.1379047632217407e+00</stageThreshold>
      <weakClassifiers>
        <_>
          <internalNodes>
            0 -1 6 -8.4310345351696014e-02</internalNodes>
          <leafValues>
            7.4152541160583496e-01 -8.2684826850891113e-01</leafValues></_>
        <_>
          <internalNodes>
            0 -1 14 -5.5861091613769531e-01</internalNodes>
          <leafValues>
            7.8323912620544434e-01 -7.7043241262435913e-01</leafValues></_>
        <_>
          <internalNodes>
            0 -1 15 -7.0867240428924561e-02</internalNodes>
          <leafValues>
            3.5832470655441284e-01 -8.9916306734085083e-01</leafValues></_>
        <_>
          <internalNodes>
            0 -1 4 -4.5650232583284378e-02</internalNodes>
          <leafValues>
            5.0208592414855957e-01 -6.8598043918609619e-01</leafValues></_>
        <_>
          <internalNodes>
            0 -1 19 1.6947430372238159e-01</internalNodes>
          <leafValues>
            -7.5017708539962769e-01 5.8529502153396606e-01</leafValues></_>
        <_>
          <internalNodes>
            0 -1 13 4.0387804619967937e-04</internalNodes>
          <leafValues>
            -8.5409867763519287e-01 3.4914231300354004e-01</leafValues></_></weakClassifiers></_>
    <!-- stage 7 -->
    <_>
      <maxWeakCount>4</maxWeakCount>
      <stageThreshold>-1.7527601718902588e+00</stageThreshold>
      <weakClassifiers>
        <_>
          <internalNodes>
            0 -1 26 1.8467751145362854e-01</internalNodes>
          <leafValues>
            -8.9933520555496216e-01 1.</leafValues></_>
        <_>
          <internalNodes>
            0 -1 8 -4.8034322261810303e-01</internalNodes>
          <leafValues>
            1. -7.1834981441497803e-01</leafValues></_>
        <_>
          <internalNodes>
            0 -1 21 -2.5544408708810806e-02</internalNodes>
          <leafValues>
            -7.9794126749038696e-01 6.8767887353897095e-01</leafValues></_>
        <_>
          <internalNodes>
            0 -1 20 -4.3954074382781982e-02</internalNodes>
          <leafValues>
            6.6286605596542358e-01 -9.2631161212921143e-01</leafValues></_></weakClassifiers></_></stages>
  <features>
    <_>
      <rects>
        <_>
          0 6 10 6 -1.</_>
        <_>
          5 6 5 6 2.</_></rects>
      <tilted>0</tilted></_>
    <_>
      <rects>
        <_>
          0 12 9 3 -1.</_>
        <_>
          3 13 3 1 9.</_></rects>
      <tilted>0</tilted></_>
    <_>
      <rects>
        <_>
          0 13 9 1 -1.</_>
        <_>
          3 13 3 1 3.</_></rects>
      <tilted>0</tilted></_>
    <_>
      <rects>
        <_>
          1 5 3 8 -1.</_>
        <_>
          2 5 1 8 3.</_></rects>
      <tilted>0</tilted></_>
    <_>
      <rects>
        <_>
          1 5 8 1 -1.</_>
        <_>
          3 5 4 1 2.</_></rects>
      <tilted>0</tilted></_>
    <_>
      <rects>
        <_>
          1 5 4 4 -1.</_>
        <_>
          1 5 2 2 2.</_>
        <_>
          3 7 2 2 2.</_></rects>
      <tilted>0</tilted></_>
    <_>
      <rects>
        <_>
          1 5 9 1 -1.</_>
        <_>
          4 5 3 1 3.</_></rects>
      <tilted>0</tilted></_>
    <_>
      <rects>
        <_>
          1 12 9 3 -1.</_>
        <_>
          4 13 3 1 9.</_></rects>
      <tilted>0</tilted></_>
    <_>
      <rects>
        <_>
          3 0 6 12 -1.</_>
        <_>
          5 4 2 4 9.</_></rects>
      <tilted>0</tilted></_>
    <_>
      <rects>
        <_>
          3 3 4 3 -1.</_>
        <_>
          4 4 2 3 2.</_></rects>
      <tilted>1</tilted></_>
    <_>
      <rects>
        <_>
          3 3 4 6 -1.</_>
        <_>
          3 5 4 2 3.</_></rects>
      <tilted>0</tilted></_>
    <_>
      <rects>
        <_>
          3 3 5 6 -1.</_>
        <_>
          3 5 5 2 3.</_></rects>
      <tilted>0</tilted></_>
    <_>
      <rects>
        <_>
          3 10 7 4 -1.</_>
        <_>
          3 12 7 2 2.</_></rects>
      <tilted>0</tilted></_>
    <_>
      <rects>
        <_>
          3 12 3 1 -1.</_>
        <_>
          4 12 1 1 3.</_></rects>
      <tilted>0</tilted></_>
    <_>
      <rects>
        <_>
          4 0 6 12 -1.</_>
        <_>
          6 4 2 4 9.</_></rects>
      <tilted>0</tilted></_>
    <_>
      <rects>
        <_>
          4 2 6 1 -1.</_>
        <_>
          6 4 2 1 3.</_></rects>
      <tilted>1</tilted></_>
    <_>
      <rects>
        <_>
          4 3 4 4 -1.</_>
        <_>
          5 4 2 4 2.</_></rects>
      <tilted>1</tilted></_>
    <_>
      <rects>
        <_>
          4 10 2 3 -1.</_>
        <_>
          3 11 2 1 3.</_></rects>
      <tilted>1</tilted></_>
    <_>
      <rects>
        <_>
          5 5 3 4 -1.</_>
        <_>
          5 7 3 2 2.</_></rects>
      <tilted>0</tilted></_>
    <_>
      <rects>
        <_>
          5 6 5 4 -1.</_>
        <_>
          5 6 5 2 2.</_></rects>
      <tilted>1</tilted></_>
    <_>
      <rects>
        <_>
          6 4 3 4 -1.</_>
        <_>
          6 5 3 2 2.</_></rects>
      <tilted>0</tilted></_>
    <_>
      <rects>
        <_>
          6 6 4 4 -1.</_>
        <_>
          8 6 2 4 2.</_></rects>
      <tilted>0</tilted></_>
    <_>
      <rects>
        <_>
          6 11 3 1 -1.</_>
        <_>
          7 12 1 1 3.</_></rects>
      <tilted>1</tilted></_>
    <_>
      <rects>
        <_>
          7 0 2 8 -1.</_>
        <_>
          7 0 1 4 2.</_>
        <_>
          8 4 1 4 2.</_></rects>
      <tilted>0</tilted></_>
    <_>
      <rects>
        <_>
          7 0 2 7 -1.</_>
        <_>
          7 0 1 7 2.</_></rects>
      <tilted>1</tilted></_>
    <_>
      <rects>
        <_>
          7 3 3 3 -1.</_>
        <_>
          6 4 3 1 3.</_></rects>
      <tilted>1</tilted></_>
    <_>
      <rects>
        <_>
          7 5 2 6 -1.</_>
        <_>
          5 7 2 2 3.</_></rects>
      <tilted>1</tilted></_>
    <_>
      <rects>
        <_>
          7 9 3 2 -1.</_>
        <_>
          7 9 3 1 2.</_></rects>
      <tilted>1</tilted></_>
    <_>
      <rects>
        <_>
          8 3 2 4 -1.</_>
        <_>
          7 4 2 2 2.</_></rects>
      <tilted>1</tilted></_>
    <_>
      <rects>
        <_>
          9 11 1 2 -1.</_>
        <_>
          9 11 1 1 2.</_></rects>
      <tilted>1</tilted></_></features></cascade>
</opencv_storage>
