<?xml version="1.0"?>
<opencv_storage>
<stage5>
  <maxWeakCount>5</maxWeakCount>
  <stageThreshold>-1.7322887182235718e+00</stageThreshold>
  <weakClassifiers>
    <_>
      <internalNodes>
        0 -1 16767 1.5035507269203663e-02</internalNodes>
      <leafValues>
        -9.1946309804916382e-01 5.3135311603546143e-01</leafValues></_>
    <_>
      <internalNodes>
        0 -1 12805 9.1839320957660675e-02</internalNodes>
      <leafValues>
        -8.0821019411087036e-01 4.4675090909004211e-01</leafValues></_>
    <_>
      <internalNodes>
        0 -1 2708 -7.1340121328830719e-02</internalNodes>
      <leafValues>
        5.7342976331710815e-01 -6.7726773023605347e-01</leafValues></_>
    <_>
      <internalNodes>
        0 -1 15845 3.9228172972798347e-03</internalNodes>
      <leafValues>
        -9.2281472682952881e-01 3.6096179485321045e-01</leafValues></_>
    <_>
      <internalNodes>
        0 -1 2663 -1.7229053378105164e-01</internalNodes>
      <leafValues>
        3.1169050931930542e-01 -1.</leafValues></_></weakClassifiers></stage5>
</opencv_storage>
