<?xml version="1.0"?>
<opencv_storage>
<cascade>
  <stageType>BOOST</stageType>
  <featureType>HAAR</featureType>
  <height>30</height>
  <width>20</width>
  <stageParams>
    <boostType>GAB</boostType>
    <minHitRate>9.9500000476837158e-01</minHitRate>
    <maxFalseAlarm>4.0000000596046448e-01</maxFalseAlarm>
    <weightTrimRate>9.4999999999999996e-01</weightTrimRate>
    <maxDepth>1</maxDepth>
    <maxWeakCount>100</maxWeakCount></stageParams>
  <featureParams>
    <maxCatCount>0</maxCatCount>
    <featSize>1</featSize>
    <mode>ALL</mode></featureParams>
  <stageNum>9</stageNum>
  <stages>
    <!-- stage 0 -->
    <_>
      <maxWeakCount>3</maxWeakCount>
      <stageThreshold>-1.0319491624832153e+00</stageThreshold>
      <weakClassifiers>
        <_>
          <internalNodes>
            0 -1 8 -3.9481726288795471e-01</internalNodes>
          <leafValues>
            9.4540941715240479e-01 -9.7992473840713501e-01</leafValues></_>
        <_>
          <internalNodes>
            0 -1 17 8.4955334663391113e-02</internalNodes>
          <leafValues>
            -9.4343715906143188e-01 9.0849763154983521e-01</leafValues></_>
        <_>
          <internalNodes>
            0 -1 24 -5.2664570510387421e-02</internalNodes>
          <leafValues>
            8.9147293567657471e-01 -9.6052211523056030e-01</leafValues></_></weakClassifiers></_>
    <!-- stage 1 -->
    <_>
      <maxWeakCount>3</maxWeakCount>
      <stageThreshold>-1.0608067512512207e+00</stageThreshold>
      <weakClassifiers>
        <_>
          <internalNodes>
            0 -1 0 -3.2471328973770142e-02</internalNodes>
          <leafValues>
            8.8669949769973755e-01 -9.5717883110046387e-01</leafValues></_>
        <_>
          <internalNodes>
            0 -1 10 -3.9995163679122925e-02</internalNodes>
          <leafValues>
            8.9945840835571289e-01 -8.6154913902282715e-01</leafValues></_>
        <_>
          <internalNodes>
            0 -1 28 4.3643418699502945e-02</internalNodes>
          <leafValues>
            -9.2678743600845337e-01 7.5792127847671509e-01</leafValues></_></weakClassifiers></_>
    <!-- stage 2 -->
    <_>
      <maxWeakCount>5</maxWeakCount>
      <stageThreshold>-1.5487602949142456e+00</stageThreshold>
      <weakClassifiers>
        <_>
          <internalNodes>
            0 -1 3 -7.0311522483825684e-01</internalNodes>
          <leafValues>
            9.2146599292755127e-01 -9.1931539773941040e-01</leafValues></_>
        <_>
          <internalNodes>
            0 -1 26 4.0369618684053421e-02</internalNodes>
          <leafValues>
            -9.3450838327407837e-01 6.7278289794921875e-01</leafValues></_>
        <_>
          <internalNodes>
            0 -1 27 -1.9464608281850815e-02</internalNodes>
          <leafValues>
            7.7704393863677979e-01 -7.3598164319992065e-01</leafValues></_>
        <_>
          <internalNodes>
            0 -1 9 -4.6433039009571075e-02</internalNodes>
          <leafValues>
            4.9704474210739136e-01 -9.7148817777633667e-01</leafValues></_>
        <_>
          <internalNodes>
            0 -1 22 9.4030864536762238e-02</internalNodes>
          <leafValues>
            -9.0641283988952637e-01 5.4400044679641724e-01</leafValues></_></weakClassifiers></_>
    <!-- stage 3 -->
    <_>
      <maxWeakCount>3</maxWeakCount>
      <stageThreshold>-1.1232815980911255e+00</stageThreshold>
      <weakClassifiers>
        <_>
          <internalNodes>
            0 -1 20 7.1656450629234314e-02</internalNodes>
          <leafValues>
            -8.4253817796707153e-01 9.0830945968627930e-01</leafValues></_>
        <_>
          <internalNodes>
            0 -1 23 -9.6367284655570984e-02</internalNodes>
          <leafValues>
            5.9478473663330078e-01 -9.3616473674774170e-01</leafValues></_>
        <_>
          <internalNodes>
            0 -1 7 -5.6353688240051270e-01</internalNodes>
          <leafValues>
            6.5542131662368774e-01 -7.5947964191436768e-01</leafValues></_></weakClassifiers></_>
    <!-- stage 4 -->
    <_>
      <maxWeakCount>3</maxWeakCount>
      <stageThreshold>-1.2478694915771484e+00</stageThreshold>
      <weakClassifiers>
        <_>
          <internalNodes>
            0 -1 0 -3.5168994218111038e-02</internalNodes>
          <leafValues>
            7.6498800516128540e-01 -9.1826307773590088e-01</leafValues></_>
        <_>
          <internalNodes>
            0 -1 29 1.2749115936458111e-02</internalNodes>
          <leafValues>
            -8.8247054815292358e-01 6.9197338819503784e-01</leafValues></_>
        <_>
          <internalNodes>
            0 -1 18 1.0221980512142181e-01</internalNodes>
          <leafValues>
            -8.7467479705810547e-01 5.5286413431167603e-01</leafValues></_></weakClassifiers></_>
    <!-- stage 5 -->
    <_>
      <maxWeakCount>4</maxWeakCount>
      <stageThreshold>-2.0208020210266113e+00</stageThreshold>
      <weakClassifiers>
        <_>
          <internalNodes>
            0 -1 1 -6.0646697878837585e-02</internalNodes>
          <leafValues>
            6.6228067874908447e-01 -9.4354838132858276e-01</leafValues></_>
        <_>
          <internalNodes>
            0 -1 8 -5.2487570047378540e-01</internalNodes>
          <leafValues>
            8.3862447738647461e-01 -7.6687186956405640e-01</leafValues></_>
        <_>
          <internalNodes>
            0 -1 4 -3.7239588797092438e-02</internalNodes>
          <leafValues>
            6.5096509456634521e-01 -8.1463325023651123e-01</leafValues></_>
        <_>
          <internalNodes>
            0 -1 11 -5.4873567074537277e-02</internalNodes>
          <leafValues>
            5.0425159931182861e-01 -9.7387057542800903e-01</leafValues></_></weakClassifiers></_>
    <!-- stage 6 -->
    <_>
      <maxWeakCount>4</maxWeakCount>
      <stageThreshold>-1.7966831922531128e+00</stageThreshold>
      <weakClassifiers>
        <_>
          <internalNodes>
            0 -1 16 3.1204044353216887e-03</internalNodes>
          <leafValues>
            -9.2395436763763428e-01 8.0048662424087524e-01</leafValues></_>
        <_>
          <internalNodes>
            0 -1 12 4.0535870939493179e-02</internalNodes>
          <leafValues>
            -7.6450747251510620e-01 8.6452472209930420e-01</leafValues></_>
        <_>
          <internalNodes>
            0 -1 25 2.6023700833320618e-02</internalNodes>
          <leafValues>
            -8.0111354589462280e-01 6.1843007802963257e-01</leafValues></_>
        <_>
          <internalNodes>
            0 -1 14 9.6363289048895240e-04</internalNodes>
          <leafValues>
            -7.1067374944686890e-01 6.9289219379425049e-01</leafValues></_></weakClassifiers></_>
    <!-- stage 7 -->
    <_>
      <maxWeakCount>5</maxWeakCount>
      <stageThreshold>-1.4872192144393921e+00</stageThreshold>
      <weakClassifiers>
        <_>
          <internalNodes>
            0 -1 13 -1.1330943554639816e-02</internalNodes>
          <leafValues>
            8.6111110448837280e-01 -8.4523808956146240e-01</leafValues></_>
        <_>
          <internalNodes>
            0 -1 5 -1.1256659030914307e-01</internalNodes>
          <leafValues>
            8.5397547483444214e-01 -7.7349245548248291e-01</leafValues></_>
        <_>
          <internalNodes>
            0 -1 21 -1.9740430638194084e-02</internalNodes>
          <leafValues>
            5.8966183662414551e-01 -7.9111337661743164e-01</leafValues></_>
        <_>
          <internalNodes>
            0 -1 15 -2.8857741504907608e-02</internalNodes>
          <leafValues>
            3.8933658599853516e-01 -9.3300020694732666e-01</leafValues></_>
        <_>
          <internalNodes>
            0 -1 19 3.3117916435003281e-02</internalNodes>
          <leafValues>
            -6.8008822202682495e-01 5.3328812122344971e-01</leafValues></_></weakClassifiers></_>
    <!-- stage 8 -->
    <_>
      <maxWeakCount>3</maxWeakCount>
      <stageThreshold>-1.0186973810195923e+00</stageThreshold>
      <weakClassifiers>
        <_>
          <internalNodes>
            0 -1 6 -8.8293030858039856e-02</internalNodes>
          <leafValues>
            8.9221554994583130e-01 -8.0600464344024658e-01</leafValues></_>
        <_>
          <internalNodes>
            0 -1 30 1.7623852472752333e-03</internalNodes>
          <leafValues>
            -8.7538045644760132e-01 6.8396365642547607e-01</leafValues></_>
        <_>
          <internalNodes>
            0 -1 2 1.2097879080101848e-03</internalNodes>
          <leafValues>
            -8.9665639400482178e-01 6.7869150638580322e-01</leafValues></_></weakClassifiers></_></stages>
  <features>
    <_>
      <rects>
        <_>
          0 22 20 1 -1.</_>
        <_>
          5 22 10 1 2.</_></rects>
      <tilted>0</tilted></_>
    <_>
      <rects>
        <_>
          0 22 20 2 -1.</_>
        <_>
          5 22 10 2 2.</_></rects>
      <tilted>0</tilted></_>
    <_>
      <rects>
        <_>
          0 28 6 2 -1.</_>
        <_>
          0 29 6 1 2.</_></rects>
      <tilted>0</tilted></_>
    <_>
      <rects>
        <_>
          1 5 18 15 -1.</_>
        <_>
          7 10 6 5 9.</_></rects>
      <tilted>0</tilted></_>
    <_>
      <rects>
        <_>
          1 24 9 6 -1.</_>
        <_>
          4 26 3 2 9.</_></rects>
      <tilted>0</tilted></_>
    <_>
      <rects>
        <_>
          2 1 10 14 -1.</_>
        <_>
          2 1 5 7 2.</_>
        <_>
          7 8 5 7 2.</_></rects>
      <tilted>0</tilted></_>
    <_>
      <rects>
        <_>
          2 4 10 10 -1.</_>
        <_>
          2 4 5 5 2.</_>
        <_>
          7 9 5 5 2.</_></rects>
      <tilted>0</tilted></_>
    <_>
      <rects>
        <_>
          3 4 15 15 -1.</_>
        <_>
          8 9 5 5 9.</_></rects>
      <tilted>0</tilted></_>
    <_>
      <rects>
        <_>
          3 6 15 12 -1.</_>
        <_>
          8 10 5 4 9.</_></rects>
      <tilted>0</tilted></_>
    <_>
      <rects>
        <_>
          3 13 15 12 -1.</_>
        <_>
          3 19 15 6 2.</_></rects>
      <tilted>0</tilted></_>
    <_>
      <rects>
        <_>
          3 18 9 1 -1.</_>
        <_>
          6 21 3 1 3.</_></rects>
      <tilted>1</tilted></_>
    <_>
      <rects>
        <_>
          4 6 12 18 -1.</_>
        <_>
          4 15 12 9 2.</_></rects>
      <tilted>0</tilted></_>
    <_>
      <rects>
        <_>
          4 25 12 2 -1.</_>
        <_>
          8 25 4 2 3.</_></rects>
      <tilted>0</tilted></_>
    <_>
      <rects>
        <_>
          4 26 8 4 -1.</_>
        <_>
          4 26 4 2 2.</_>
        <_>
          8 28 4 2 2.</_></rects>
      <tilted>0</tilted></_>
    <_>
      <rects>
        <_>
          4 28 2 2 -1.</_>
        <_>
          4 29 2 1 2.</_></rects>
      <tilted>0</tilted></_>
    <_>
      <rects>
        <_>
          5 1 12 21 -1.</_>
        <_>
          5 8 12 7 3.</_></rects>
      <tilted>0</tilted></_>
    <_>
      <rects>
        <_>
          5 26 1 4 -1.</_>
        <_>
          5 28 1 2 2.</_></rects>
      <tilted>0</tilted></_>
    <_>
      <rects>
        <_>
          6 21 8 8 -1.</_>
        <_>
          6 25 8 4 2.</_></rects>
      <tilted>0</tilted></_>
    <_>
      <rects>
        <_>
          6 21 10 8 -1.</_>
        <_>
          6 25 10 4 2.</_></rects>
      <tilted>0</tilted></_>
    <_>
      <rects>
        <_>
          6 24 9 6 -1.</_>
        <_>
          9 24 3 6 3.</_></rects>
      <tilted>0</tilted></_>
    <_>
      <rects>
        <_>
          7 16 6 6 -1.</_>
        <_>
          9 18 2 2 9.</_></rects>
      <tilted>0</tilted></_>
    <_>
      <rects>
        <_>
          7 21 6 1 -1.</_>
        <_>
          7 21 3 1 2.</_></rects>
      <tilted>1</tilted></_>
    <_>
      <rects>
        <_>
          8 1 12 14 -1.</_>
        <_>
          8 1 6 7 2.</_>
        <_>
          14 8 6 7 2.</_></rects>
      <tilted>0</tilted></_>
    <_>
      <rects>
        <_>
          9 7 8 22 -1.</_>
        <_>
          9 7 4 11 2.</_>
        <_>
          13 18 4 11 2.</_></rects>
      <tilted>0</tilted></_>
    <_>
      <rects>
        <_>
          10 5 8 6 -1.</_>
        <_>
          8 7 8 2 3.</_></rects>
      <tilted>1</tilted></_>
    <_>
      <rects>
        <_>
          10 9 2 20 -1.</_>
        <_>
          10 19 2 10 2.</_></rects>
      <tilted>0</tilted></_>
    <_>
      <rects>
        <_>
          11 5 4 8 -1.</_>
        <_>
          11 5 2 8 2.</_></rects>
      <tilted>1</tilted></_>
    <_>
      <rects>
        <_>
          12 22 6 2 -1.</_>
        <_>
          12 22 6 1 2.</_></rects>
      <tilted>1</tilted></_>
    <_>
      <rects>
        <_>
          13 18 6 6 -1.</_>
        <_>
          16 18 3 6 2.</_></rects>
      <tilted>0</tilted></_>
    <_>
      <rects>
        <_>
          13 26 6 4 -1.</_>
        <_>
          13 28 6 2 2.</_></rects>
      <tilted>0</tilted></_>
    <_>
      <rects>
        <_>
          16 26 3 4 -1.</_>
        <_>
          16 28 3 2 2.</_></rects>
      <tilted>0</tilted></_></features></cascade>
</opencv_storage>
