<?xml version="1.0"?>
<opencv_storage>
<stage2>
  <maxWeakCount>5</maxWeakCount>
  <stageThreshold>-1.5487602949142456e+00</stageThreshold>
  <weakClassifiers>
    <_>
      <internalNodes>
        0 -1 29454 -7.0311522483825684e-01</internalNodes>
      <leafValues>
        9.2146599292755127e-01 -9.1931539773941040e-01</leafValues></_>
    <_>
      <internalNodes>
        0 -1 212501 4.0369618684053421e-02</internalNodes>
      <leafValues>
        -9.3450838327407837e-01 6.7278289794921875e-01</leafValues></_>
    <_>
      <internalNodes>
        0 -1 233813 -1.9464608281850815e-02</internalNodes>
      <leafValues>
        7.7704393863677979e-01 -7.3598164319992065e-01</leafValues></_>
    <_>
      <internalNodes>
        0 -1 79257 -4.6433039009571075e-02</internalNodes>
      <leafValues>
        4.9704474210739136e-01 -9.7148817777633667e-01</leafValues></_>
    <_>
      <internalNodes>
        0 -1 162654 9.4030864536762238e-02</internalNodes>
      <leafValues>
        -9.0641283988952637e-01 5.4400044679641724e-01</leafValues></_></weakClassifiers></stage2>
</opencv_storage>
