<?xml version="1.0"?>
<opencv_storage>
<stage4>
  <maxWeakCount>5</maxWeakCount>
  <stageThreshold>-1.1952430009841919e+00</stageThreshold>
  <weakClassifiers>
    <_>
      <internalNodes>
        0 -1 72594 3.5911262035369873e-01</internalNodes>
      <leafValues>
        -8.5372340679168701e-01 5.4017859697341919e-01</leafValues></_>
    <_>
      <internalNodes>
        0 -1 229397 -2.9921535402536392e-02</internalNodes>
      <leafValues>
        6.9415950775146484e-01 -6.6991442441940308e-01</leafValues></_>
    <_>
      <internalNodes>
        0 -1 86164 -2.9755879193544388e-02</internalNodes>
      <leafValues>
        5.7090771198272705e-01 -7.1000772714614868e-01</leafValues></_>
    <_>
      <internalNodes>
        0 -1 135311 -7.3149062693119049e-02</internalNodes>
      <leafValues>
        4.6699213981628418e-01 -8.9542692899703979e-01</leafValues></_>
    <_>
      <internalNodes>
        0 -1 257510 1.0420626401901245e-01</internalNodes>
      <leafValues>
        -6.5032267570495605e-01 5.7141041755676270e-01</leafValues></_></weakClassifiers></stage4>
</opencv_storage>
