<?xml version="1.0"?>
<opencv_storage>
<stage5>
  <maxWeakCount>5</maxWeakCount>
  <stageThreshold>-1.0559256076812744e+00</stageThreshold>
  <weakClassifiers>
    <_>
      <internalNodes>
        0 -1 93907 2.0559626817703247e-01</internalNodes>
      <leafValues>
        -8.0267965793609619e-01 6.8337732553482056e-01</leafValues></_>
    <_>
      <internalNodes>
        0 -1 1247 -2.1220248192548752e-02</internalNodes>
      <leafValues>
        8.2418620586395264e-01 -6.4896911382675171e-01</leafValues></_>
    <_>
      <internalNodes>
        0 -1 180661 4.8720926046371460e-02</internalNodes>
      <leafValues>
        -7.6801514625549316e-01 5.5286008119583130e-01</leafValues></_>
    <_>
      <internalNodes>
        0 -1 142286 -1.5042348764836788e-02</internalNodes>
      <leafValues>
        6.8781656026840210e-01 -5.2513694763183594e-01</leafValues></_>
    <_>
      <internalNodes>
        0 -1 246580 -4.9353518988937140e-05</internalNodes>
      <leafValues>
        -8.0398190021514893e-01 4.7592180967330933e-01</leafValues></_></weakClassifiers></stage5>
</opencv_storage>
