<?xml version="1.0"?>
<opencv_storage>
<stage7>
  <maxWeakCount>5</maxWeakCount>
  <stageThreshold>-9.7440761327743530e-01</stageThreshold>
  <weakClassifiers>
    <_>
      <internalNodes>
        0 -1 219205 -1.3874478638172150e-01</internalNodes>
      <leafValues>
        8.2568806409835815e-01 -8.0827069282531738e-01</leafValues></_>
    <_>
      <internalNodes>
        0 -1 85130 -1.0204386711120605e-01</internalNodes>
      <leafValues>
        8.0355948209762573e-01 -6.6688448190689087e-01</leafValues></_>
    <_>
      <internalNodes>
        0 -1 193828 -3.0671935528516769e-02</internalNodes>
      <leafValues>
        7.0941621065139771e-01 -7.0348000526428223e-01</leafValues></_>
    <_>
      <internalNodes>
        0 -1 16255 -2.7720417827367783e-02</internalNodes>
      <leafValues>
        6.7866796255111694e-01 -7.2620052099227905e-01</leafValues></_>
    <_>
      <internalNodes>
        0 -1 228226 -7.5533904600888491e-04</internalNodes>
      <leafValues>
        -9.6232736110687256e-01 5.2555966377258301e-01</leafValues></_></weakClassifiers></stage7>
</opencv_storage>
