<?xml version="1.0"?>
<opencv_storage>
<cascade>
  <stageType>BOOST</stageType>
  <featureType>HAAR</featureType>
  <height>30</height>
  <width>20</width>
  <stageParams>
    <boostType>GAB</boostType>
    <minHitRate>9.9500000476837158e-01</minHitRate>
    <maxFalseAlarm>4.0000000596046448e-01</maxFalseAlarm>
    <weightTrimRate>9.4999999999999996e-01</weightTrimRate>
    <maxDepth>1</maxDepth>
    <maxWeakCount>100</maxWeakCount></stageParams>
  <featureParams>
    <maxCatCount>0</maxCatCount>
    <featSize>1</featSize>
    <mode>ALL</mode></featureParams>
  <stageNum>7</stageNum>
  <stages>
    <!-- stage 0 -->
    <_>
      <maxWeakCount>2</maxWeakCount>
      <stageThreshold>-2.7220934629440308e-02</stageThreshold>
      <weakClassifiers>
        <_>
          <internalNodes>
            0 -1 4 1.2178990989923477e-01</internalNodes>
          <leafValues>
            -9.8997491598129272e-01 9.7014927864074707e-01</leafValues></_>
        <_>
          <internalNodes>
            0 -1 5 3.2008963823318481e-01</internalNodes>
          <leafValues>
            -9.7303926944732666e-01 9.6275401115417480e-01</leafValues></_></weakClassifiers></_>
    <!-- stage 1 -->
    <_>
      <maxWeakCount>2</maxWeakCount>
      <stageThreshold>-1.1716112494468689e-01</stageThreshold>
      <weakClassifiers>
        <_>
          <internalNodes>
            0 -1 16 -8.2720980048179626e-02</internalNodes>
          <leafValues>
            8.8944721221923828e-01 -9.4014960527420044e-01</leafValues></_>
        <_>
          <internalNodes>
            0 -1 10 -7.3806107044219971e-02</internalNodes>
          <leafValues>
            8.2298851013183594e-01 -9.6588969230651855e-01</leafValues></_></weakClassifiers></_>
    <!-- stage 2 -->
    <_>
      <maxWeakCount>3</maxWeakCount>
      <stageThreshold>-1.2295906543731689e+00</stageThreshold>
      <weakClassifiers>
        <_>
          <internalNodes>
            0 -1 7 -1.2208469212055206e-01</internalNodes>
          <leafValues>
            8.1516587734222412e-01 -9.5629817247390747e-01</leafValues></_>
        <_>
          <internalNodes>
            0 -1 9 5.7886265218257904e-02</internalNodes>
          <leafValues>
            -8.9948630332946777e-01 7.6472365856170654e-01</leafValues></_>
        <_>
          <internalNodes>
            0 -1 3 -1.2262977659702301e-01</internalNodes>
          <leafValues>
            6.2619388103485107e-01 -9.4732284545898438e-01</leafValues></_></weakClassifiers></_>
    <!-- stage 3 -->
    <_>
      <maxWeakCount>3</maxWeakCount>
      <stageThreshold>-1.2133588790893555e+00</stageThreshold>
      <weakClassifiers>
        <_>
          <internalNodes>
            0 -1 13 5.5287681519985199e-02</internalNodes>
          <leafValues>
            -9.6349412202835083e-01 7.8290992975234985e-01</leafValues></_>
        <_>
          <internalNodes>
            0 -1 14 -5.0395209342241287e-02</internalNodes>
          <leafValues>
            8.3390772342681885e-01 -8.7075883150100708e-01</leafValues></_>
        <_>
          <internalNodes>
            0 -1 0 -4.5433335006237030e-02</internalNodes>
          <leafValues>
            6.2089413404464722e-01 -9.3583661317825317e-01</leafValues></_></weakClassifiers></_>
    <!-- stage 4 -->
    <_>
      <maxWeakCount>4</maxWeakCount>
      <stageThreshold>-1.8389201164245605e+00</stageThreshold>
      <weakClassifiers>
        <_>
          <internalNodes>
            0 -1 11 -6.6366642713546753e-01</internalNodes>
          <leafValues>
            8.6058980226516724e-01 -8.7182587385177612e-01</leafValues></_>
        <_>
          <internalNodes>
            0 -1 15 -4.9371350556612015e-02</internalNodes>
          <leafValues>
            6.5911024808883667e-01 -8.9791047573089600e-01</leafValues></_>
        <_>
          <internalNodes>
            0 -1 6 1.2013794481754303e-01</internalNodes>
          <leafValues>
            -7.4702519178390503e-01 7.6665300130844116e-01</leafValues></_>
        <_>
          <internalNodes>
            0 -1 18 -4.9304943531751633e-03</internalNodes>
          <leafValues>
            6.7784148454666138e-01 -7.1809738874435425e-01</leafValues></_></weakClassifiers></_>
    <!-- stage 5 -->
    <_>
      <maxWeakCount>3</maxWeakCount>
      <stageThreshold>-8.7437069416046143e-01</stageThreshold>
      <weakClassifiers>
        <_>
          <internalNodes>
            0 -1 12 -6.2036031484603882e-01</internalNodes>
          <leafValues>
            8.6588919162750244e-01 -8.1330221891403198e-01</leafValues></_>
        <_>
          <internalNodes>
            0 -1 8 1.2589138746261597e-01</internalNodes>
          <leafValues>
            -7.1515357494354248e-01 8.2691782712936401e-01</leafValues></_>
        <_>
          <internalNodes>
            0 -1 1 -7.5965069234371185e-02</internalNodes>
          <leafValues>
            6.5408504009246826e-01 -8.5045021772384644e-01</leafValues></_></weakClassifiers></_>
    <!-- stage 6 -->
    <_>
      <maxWeakCount>2</maxWeakCount>
      <stageThreshold>-2.9325920343399048e-01</stageThreshold>
      <weakClassifiers>
        <_>
          <internalNodes>
            0 -1 2 -6.3489712774753571e-02</internalNodes>
          <leafValues>
            6.6160517930984497e-01 -9.5399188995361328e-01</leafValues></_>
        <_>
          <internalNodes>
            0 -1 17 -9.3348659574985504e-03</internalNodes>
          <leafValues>
            6.6073268651962280e-01 -8.9561402797698975e-01</leafValues></_></weakClassifiers></_></stages>
  <features>
    <_>
      <rects>
        <_>
          0 18 20 2 -1.</_>
        <_>
          5 18 10 2 2.</_></rects>
      <tilted>0</tilted></_>
    <_>
      <rects>
        <_>
          2 11 12 2 -1.</_>
        <_>
          5 14 6 2 2.</_></rects>
      <tilted>1</tilted></_>
    <_>
      <rects>
        <_>
          3 7 10 20 -1.</_>
        <_>
          3 17 10 10 2.</_></rects>
      <tilted>0</tilted></_>
    <_>
      <rects>
        <_>
          4 5 13 22 -1.</_>
        <_>
          4 16 13 11 2.</_></rects>
      <tilted>0</tilted></_>
    <_>
      <rects>
        <_>
          4 8 12 9 -1.</_>
        <_>
          7 8 6 9 2.</_></rects>
      <tilted>0</tilted></_>
    <_>
      <rects>
        <_>
          4 8 12 12 -1.</_>
        <_>
          8 12 4 4 9.</_></rects>
      <tilted>0</tilted></_>
    <_>
      <rects>
        <_>
          4 10 12 6 -1.</_>
        <_>
          7 10 6 6 2.</_></rects>
      <tilted>0</tilted></_>
    <_>
      <rects>
        <_>
          4 14 9 4 -1.</_>
        <_>
          7 17 3 4 3.</_></rects>
      <tilted>1</tilted></_>
    <_>
      <rects>
        <_>
          4 22 12 6 -1.</_>
        <_>
          7 22 6 6 2.</_></rects>
      <tilted>0</tilted></_>
    <_>
      <rects>
        <_>
          5 24 12 3 -1.</_>
        <_>
          9 24 4 3 3.</_></rects>
      <tilted>0</tilted></_>
    <_>
      <rects>
        <_>
          8 5 5 24 -1.</_>
        <_>
          8 13 5 8 3.</_></rects>
      <tilted>0</tilted></_>
    <_>
      <rects>
        <_>
          11 0 9 30 -1.</_>
        <_>
          14 10 3 10 9.</_></rects>
      <tilted>0</tilted></_>
    <_>
      <rects>
        <_>
          11 1 9 27 -1.</_>
        <_>
          14 10 3 9 9.</_></rects>
      <tilted>0</tilted></_>
    <_>
      <rects>
        <_>
          11 18 6 6 -1.</_>
        <_>
          13 20 2 6 3.</_></rects>
      <tilted>1</tilted></_>
    <_>
      <rects>
        <_>
          12 14 1 12 -1.</_>
        <_>
          8 18 1 4 3.</_></rects>
      <tilted>1</tilted></_>
    <_>
      <rects>
        <_>
          12 14 8 2 -1.</_>
        <_>
          14 16 4 2 2.</_></rects>
      <tilted>1</tilted></_>
    <_>
      <rects>
        <_>
          14 17 4 6 -1.</_>
        <_>
          14 17 4 3 2.</_></rects>
      <tilted>1</tilted></_>
    <_>
      <rects>
        <_>
          14 25 3 2 -1.</_>
        <_>
          14 25 3 1 2.</_></rects>
      <tilted>1</tilted></_>
    <_>
      <rects>
        <_>
          17 25 2 3 -1.</_>
        <_>
          16 26 2 1 3.</_></rects>
      <tilted>1</tilted></_></features></cascade>
</opencv_storage>
