<?xml version="1.0"?>
<opencv_storage>
<stage6>
  <maxWeakCount>6</maxWeakCount>
  <stageThreshold>-1.3786445856094360e+00</stageThreshold>
  <weakClassifiers>
    <_>
      <internalNodes>
        0 -1 99251 8.1035584211349487e-02</internalNodes>
      <leafValues>
        -9.0205013751983643e-01 4.6945336461067200e-01</leafValues></_>
    <_>
      <internalNodes>
        0 -1 267274 1.8277395516633987e-02</internalNodes>
      <leafValues>
        -7.7699410915374756e-01 3.1439158320426941e-01</leafValues></_>
    <_>
      <internalNodes>
        0 -1 245017 1.8052622181130573e-05</internalNodes>
      <leafValues>
        -6.2759524583816528e-01 4.5850765705108643e-01</leafValues></_>
    <_>
      <internalNodes>
        0 -1 58477 -7.0666581392288208e-02</internalNodes>
      <leafValues>
        3.0808335542678833e-01 -8.1100547313690186e-01</leafValues></_>
    <_>
      <internalNodes>
        0 -1 124746 -1.0521760210394859e-02</internalNodes>
      <leafValues>
        3.2804563641548157e-01 -7.2873300313949585e-01</leafValues></_>
    <_>
      <internalNodes>
        0 -1 165671 1.8108274787664413e-02</internalNodes>
      <leafValues>
        -7.2740972042083740e-01 3.2485175132751465e-01</leafValues></_></weakClassifiers></stage6>
</opencv_storage>
