<?xml version="1.0"?>
<opencv_storage>
<stage6>
  <maxWeakCount>11</maxWeakCount>
  <stageThreshold>-1.3409888744354248e+00</stageThreshold>
  <weakClassifiers>
    <_>
      <internalNodes>
        0 -1 306592 -7.9270908609032631e-03</internalNodes>
      <leafValues>
        4.3894389271736145e-01 -5.9420287609100342e-01</leafValues></_>
    <_>
      <internalNodes>
        0 -1 1031187 -8.1357918679714203e-03</internalNodes>
      <leafValues>
        3.9961931109428406e-01 -4.9360415339469910e-01</leafValues></_>
    <_>
      <internalNodes>
        0 -1 784243 5.0644478760659695e-03</internalNodes>
      <leafValues>
        -4.5531529188156128e-01 3.6714777350425720e-01</leafValues></_>
    <_>
      <internalNodes>
        0 -1 119192 -2.5364771136082709e-04</internalNodes>
      <leafValues>
        -8.2298302650451660e-01 1.7983712255954742e-01</leafValues></_>
    <_>
      <internalNodes>
        0 -1 727322 2.6555969379842281e-03</internalNodes>
      <leafValues>
        1.5716211497783661e-01 -9.6230369806289673e-01</leafValues></_>
    <_>
      <internalNodes>
        0 -1 932865 -1.6117773484438658e-03</internalNodes>
      <leafValues>
        2.3596817255020142e-01 -6.0052573680877686e-01</leafValues></_>
    <_>
      <internalNodes>
        0 -1 291659 1.9332963973283768e-02</internalNodes>
      <leafValues>
        -2.7283301949501038e-01 6.2121516466140747e-01</leafValues></_>
    <_>
      <internalNodes>
        0 -1 682854 1.1038255179300904e-03</internalNodes>
      <leafValues>
        -3.1518578529357910e-01 4.8860737681388855e-01</leafValues></_>
    <_>
      <internalNodes>
        0 -1 748516 -1.2678415514528751e-03</internalNodes>
      <leafValues>
        -8.1878685951232910e-01 2.0052209496498108e-01</leafValues></_>
    <_>
      <internalNodes>
        0 -1 738910 -4.8722270876169205e-03</internalNodes>
      <leafValues>
        5.2478617429733276e-01 -3.2154783606529236e-01</leafValues></_>
    <_>
      <internalNodes>
        0 -1 370423 -1.9163947552442551e-02</internalNodes>
      <leafValues>
        3.5246086120605469e-01 -4.6558248996734619e-01</leafValues></_></weakClassifiers></stage6>
</opencv_storage>
