<?xml version="1.0"?>
<opencv_storage>
<stage1>
  <maxWeakCount>8</maxWeakCount>
  <stageThreshold>-1.2839353084564209e+00</stageThreshold>
  <weakClassifiers>
    <_>
      <internalNodes>
        0 -1 233913 -3.6703959107398987e-02</internalNodes>
      <leafValues>
        5.4922282695770264e-01 -7.5184273719787598e-01</leafValues></_>
    <_>
      <internalNodes>
        0 -1 746254 4.1431024670600891e-02</internalNodes>
      <leafValues>
        -6.0882639884948730e-01 6.4778554439544678e-01</leafValues></_>
    <_>
      <internalNodes>
        0 -1 1023915 6.3169579952955246e-03</internalNodes>
      <leafValues>
        -4.2976287007331848e-01 6.5859299898147583e-01</leafValues></_>
    <_>
      <internalNodes>
        0 -1 501975 -7.6006446033716202e-03</internalNodes>
      <leafValues>
        7.5682973861694336e-01 -3.2589855790138245e-01</leafValues></_>
    <_>
      <internalNodes>
        0 -1 921480 -8.4938551299273968e-04</internalNodes>
      <leafValues>
        3.4983816742897034e-01 -8.8176506757736206e-01</leafValues></_>
    <_>
      <internalNodes>
        0 -1 17633 3.2860862556844950e-03</internalNodes>
      <leafValues>
        -4.7817695140838623e-01 6.6712594032287598e-01</leafValues></_>
    <_>
      <internalNodes>
        0 -1 574126 -2.6433207094669342e-03</internalNodes>
      <leafValues>
        6.6524857282638550e-01 -3.7949100136756897e-01</leafValues></_>
    <_>
      <internalNodes>
        0 -1 235549 2.7190597727894783e-02</internalNodes>
      <leafValues>
        2.9548543691635132e-01 -8.9107793569564819e-01</leafValues></_></weakClassifiers></stage1>
</opencv_storage>
