<?xml version="1.0"?>
<opencv_storage>
<stage4>
  <maxWeakCount>8</maxWeakCount>
  <stageThreshold>-1.5986386537551880e+00</stageThreshold>
  <weakClassifiers>
    <_>
      <internalNodes>
        0 -1 5912 1.4737666584551334e-02</internalNodes>
      <leafValues>
        -6.5606594085693359e-01 4.4729346036911011e-01</leafValues></_>
    <_>
      <internalNodes>
        0 -1 806001 1.3112772256135941e-02</internalNodes>
      <leafValues>
        -6.9240099191665649e-01 3.3475327491760254e-01</leafValues></_>
    <_>
      <internalNodes>
        0 -1 180980 -4.5743733644485474e-03</internalNodes>
      <leafValues>
        2.5158548355102539e-01 -6.7214918136596680e-01</leafValues></_>
    <_>
      <internalNodes>
        0 -1 952857 -3.0590831302106380e-03</internalNodes>
      <leafValues>
        -9.0773302316665649e-01 2.1768002212047577e-01</leafValues></_>
    <_>
      <internalNodes>
        0 -1 685772 6.0557888355106115e-04</internalNodes>
      <leafValues>
        -3.0544894933700562e-01 7.4838614463806152e-01</leafValues></_>
    <_>
      <internalNodes>
        0 -1 720713 6.9826131220906973e-04</internalNodes>
      <leafValues>
        -3.2129088044166565e-01 6.6339665651321411e-01</leafValues></_>
    <_>
      <internalNodes>
        0 -1 800496 3.2312652911059558e-04</internalNodes>
      <leafValues>
        2.0760601758956909e-01 -9.0011513233184814e-01</leafValues></_>
    <_>
      <internalNodes>
        0 -1 64128 2.1282322704792023e-02</internalNodes>
      <leafValues>
        -3.2958698272705078e-01 6.2343126535415649e-01</leafValues></_></weakClassifiers></stage4>
</opencv_storage>
