<?xml version="1.0"?>
<opencv_storage>
<cascade>
  <stageType>BOOST</stageType>
  <featureType>HAAR</featureType>
  <height>30</height>
  <width>20</width>
  <stageParams>
    <boostType>GAB</boostType>
    <minHitRate>9.9500000476837158e-01</minHitRate>
    <maxFalseAlarm>4.0000000596046448e-01</maxFalseAlarm>
    <weightTrimRate>9.4999999999999996e-01</weightTrimRate>
    <maxDepth>1</maxDepth>
    <maxWeakCount>100</maxWeakCount></stageParams>
  <featureParams>
    <maxCatCount>0</maxCatCount>
    <featSize>1</featSize>
    <mode>ALL</mode></featureParams>
  <stageNum>5</stageNum>
  <stages>
    <!-- stage 0 -->
    <_>
      <maxWeakCount>2</maxWeakCount>
      <stageThreshold>-1.3926948420703411e-02</stageThreshold>
      <weakClassifiers>
        <_>
          <internalNodes>
            0 -1 7 -1.1012689769268036e-01</internalNodes>
          <leafValues>
            1. -9.9004977941513062e-01</leafValues></_>
        <_>
          <internalNodes>
            0 -1 5 1.1037614941596985e-01</internalNodes>
          <leafValues>
            -9.8194199800491333e-01 9.7612279653549194e-01</leafValues></_></weakClassifiers></_>
    <!-- stage 1 -->
    <_>
      <maxWeakCount>2</maxWeakCount>
      <stageThreshold>-6.7467279732227325e-02</stageThreshold>
      <weakClassifiers>
        <_>
          <internalNodes>
            0 -1 0 -7.6954118907451630e-02</internalNodes>
          <leafValues>
            9.4987469911575317e-01 -9.7253435850143433e-01</leafValues></_>
        <_>
          <internalNodes>
            0 -1 2 -6.6560968756675720e-02</internalNodes>
          <leafValues>
            9.0506702661514282e-01 -9.6866178512573242e-01</leafValues></_></weakClassifiers></_>
    <!-- stage 2 -->
    <_>
      <maxWeakCount>3</maxWeakCount>
      <stageThreshold>-1.0013461112976074e+00</stageThreshold>
      <weakClassifiers>
        <_>
          <internalNodes>
            0 -1 10 -1.0787969827651978e-01</internalNodes>
          <leafValues>
            9.6373057365417480e-01 -9.4840294122695923e-01</leafValues></_>
        <_>
          <internalNodes>
            0 -1 9 -1.1120241880416870e-01</internalNodes>
          <leafValues>
            8.8395923376083374e-01 -9.3752235174179077e-01</leafValues></_>
        <_>
          <internalNodes>
            0 -1 1 -2.1140467375516891e-02</internalNodes>
          <leafValues>
            8.9339518547058105e-01 -9.3690240383148193e-01</leafValues></_></weakClassifiers></_>
    <!-- stage 3 -->
    <_>
      <maxWeakCount>2</maxWeakCount>
      <stageThreshold>-2.3820610344409943e-01</stageThreshold>
      <weakClassifiers>
        <_>
          <internalNodes>
            0 -1 6 1.4743165671825409e-01</internalNodes>
          <leafValues>
            -9.3572312593460083e-01 9.1304349899291992e-01</leafValues></_>
        <_>
          <internalNodes>
            0 -1 4 -2.7386557310819626e-02</internalNodes>
          <leafValues>
            6.9751703739166260e-01 -9.8212414979934692e-01</leafValues></_></weakClassifiers></_>
    <!-- stage 4 -->
    <_>
      <maxWeakCount>2</maxWeakCount>
      <stageThreshold>5.1157124340534210e-02</stageThreshold>
      <weakClassifiers>
        <_>
          <internalNodes>
            0 -1 3 6.6943326964974403e-03</internalNodes>
          <leafValues>
            -9.4884288311004639e-01 1.</leafValues></_>
        <_>
          <internalNodes>
            0 -1 8 -2.0307671278715134e-02</internalNodes>
          <leafValues>
            1. -9.0925157070159912e-01</leafValues></_></weakClassifiers></_></stages>
  <features>
    <_>
      <rects>
        <_>
          0 4 20 3 -1.</_>
        <_>
          5 4 10 3 2.</_></rects>
      <tilted>0</tilted></_>
    <_>
      <rects>
        <_>
          1 22 12 1 -1.</_>
        <_>
          5 22 4 1 3.</_></rects>
      <tilted>0</tilted></_>
    <_>
      <rects>
        <_>
          3 22 13 8 -1.</_>
        <_>
          3 24 13 4 2.</_></rects>
      <tilted>0</tilted></_>
    <_>
      <rects>
        <_>
          3 28 12 2 -1.</_>
        <_>
          3 29 12 1 2.</_></rects>
      <tilted>0</tilted></_>
    <_>
      <rects>
        <_>
          5 1 2 12 -1.</_>
        <_>
          5 4 2 6 2.</_></rects>
      <tilted>0</tilted></_>
    <_>
      <rects>
        <_>
          8 6 8 8 -1.</_>
        <_>
          10 8 4 8 2.</_></rects>
      <tilted>1</tilted></_>
    <_>
      <rects>
        <_>
          9 5 8 7 -1.</_>
        <_>
          11 7 4 7 2.</_></rects>
      <tilted>1</tilted></_>
    <_>
      <rects>
        <_>
          11 13 6 6 -1.</_>
        <_>
          13 15 2 6 3.</_></rects>
      <tilted>1</tilted></_>
    <_>
      <rects>
        <_>
          12 8 1 16 -1.</_>
        <_>
          12 12 1 8 2.</_></rects>
      <tilted>0</tilted></_>
    <_>
      <rects>
        <_>
          13 0 4 24 -1.</_>
        <_>
          13 6 4 12 2.</_></rects>
      <tilted>0</tilted></_>
    <_>
      <rects>
        <_>
          16 12 4 9 -1.</_>
        <_>
          16 12 2 9 2.</_></rects>
      <tilted>1</tilted></_></features></cascade>
</opencv_storage>
