<?xml version="1.0"?>
<opencv_storage>
<cascade>
  <stageType>BOOST</stageType>
  <featureType>HAAR</featureType>
  <height>30</height>
  <width>20</width>
  <stageParams>
    <boostType>GAB</boostType>
    <minHitRate>9.9500000476837158e-01</minHitRate>
    <maxFalseAlarm>4.0000000596046448e-01</maxFalseAlarm>
    <weightTrimRate>9.4999999999999996e-01</weightTrimRate>
    <maxDepth>1</maxDepth>
    <maxWeakCount>100</maxWeakCount></stageParams>
  <featureParams>
    <maxCatCount>0</maxCatCount>
    <featSize>1</featSize>
    <mode>ALL</mode></featureParams>
  <stageNum>5</stageNum>
  <stages>
    <!-- stage 0 -->
    <_>
      <maxWeakCount>2</maxWeakCount>
      <stageThreshold>-3.2912228256464005e-02</stageThreshold>
      <weakClassifiers>
        <_>
          <internalNodes>
            0 -1 8 -1.5069520473480225e-01</internalNodes>
          <leafValues>
            1. -9.8807156085968018e-01</leafValues></_>
        <_>
          <internalNodes>
            0 -1 4 6.4878560602664948e-02</internalNodes>
          <leafValues>
            -9.8353147506713867e-01 9.5515936613082886e-01</leafValues></_></weakClassifiers></_>
    <!-- stage 1 -->
    <_>
      <maxWeakCount>2</maxWeakCount>
      <stageThreshold>-6.1920028179883957e-02</stageThreshold>
      <weakClassifiers>
        <_>
          <internalNodes>
            0 -1 3 6.3635781407356262e-02</internalNodes>
          <leafValues>
            -9.7575759887695312e-01 9.1372549533843994e-01</leafValues></_>
        <_>
          <internalNodes>
            0 -1 6 7.3023289442062378e-02</internalNodes>
          <leafValues>
            -9.5338559150695801e-01 9.1383755207061768e-01</leafValues></_></weakClassifiers></_>
    <!-- stage 2 -->
    <_>
      <maxWeakCount>2</maxWeakCount>
      <stageThreshold>-1.1365305632352829e-01</stageThreshold>
      <weakClassifiers>
        <_>
          <internalNodes>
            0 -1 5 -7.6381832361221313e-02</internalNodes>
          <leafValues>
            9.2771083116531372e-01 -9.6007984876632690e-01</leafValues></_>
        <_>
          <internalNodes>
            0 -1 0 -2.8340928256511688e-02</internalNodes>
          <leafValues>
            8.4642678499221802e-01 -9.5162332057952881e-01</leafValues></_></weakClassifiers></_>
    <!-- stage 3 -->
    <_>
      <maxWeakCount>2</maxWeakCount>
      <stageThreshold>-1.9495299458503723e-01</stageThreshold>
      <weakClassifiers>
        <_>
          <internalNodes>
            0 -1 9 -3.5449601709842682e-02</internalNodes>
          <leafValues>
            9.3131315708160400e-01 -9.5621889829635620e-01</leafValues></_>
        <_>
          <internalNodes>
            0 -1 1 -1.1835756897926331e-01</internalNodes>
          <leafValues>
            7.6126593351364136e-01 -9.7672414779663086e-01</leafValues></_></weakClassifiers></_>
    <!-- stage 4 -->
    <_>
      <maxWeakCount>2</maxWeakCount>
      <stageThreshold>-7.1127250790596008e-02</stageThreshold>
      <weakClassifiers>
        <_>
          <internalNodes>
            0 -1 7 7.1074292063713074e-02</internalNodes>
          <leafValues>
            -9.3236714601516724e-01 1.</leafValues></_>
        <_>
          <internalNodes>
            0 -1 2 -5.6661469861865044e-03</internalNodes>
          <leafValues>
            8.6123991012573242e-01 -9.6562862396240234e-01</leafValues></_></weakClassifiers></_></stages>
  <features>
    <_>
      <rects>
        <_>
          0 5 20 1 -1.</_>
        <_>
          5 5 10 1 2.</_></rects>
      <tilted>0</tilted></_>
    <_>
      <rects>
        <_>
          1 15 16 13 -1.</_>
        <_>
          5 15 8 13 2.</_></rects>
      <tilted>0</tilted></_>
    <_>
      <rects>
        <_>
          4 24 3 6 -1.</_>
        <_>
          5 26 1 2 9.</_></rects>
      <tilted>0</tilted></_>
    <_>
      <rects>
        <_>
          5 6 2 20 -1.</_>
        <_>
          5 11 2 10 2.</_></rects>
      <tilted>0</tilted></_>
    <_>
      <rects>
        <_>
          8 6 8 4 -1.</_>
        <_>
          10 8 4 4 2.</_></rects>
      <tilted>1</tilted></_>
    <_>
      <rects>
        <_>
          9 2 8 10 -1.</_>
        <_>
          9 2 4 5 2.</_>
        <_>
          13 7 4 5 2.</_></rects>
      <tilted>0</tilted></_>
    <_>
      <rects>
        <_>
          9 18 8 9 -1.</_>
        <_>
          9 21 8 3 3.</_></rects>
      <tilted>0</tilted></_>
    <_>
      <rects>
        <_>
          12 17 6 5 -1.</_>
        <_>
          14 19 2 5 3.</_></rects>
      <tilted>1</tilted></_>
    <_>
      <rects>
        <_>
          13 11 6 10 -1.</_>
        <_>
          15 13 2 10 3.</_></rects>
      <tilted>1</tilted></_>
    <_>
      <rects>
        <_>
          17 13 2 11 -1.</_>
        <_>
          17 13 1 11 2.</_></rects>
      <tilted>1</tilted></_></features></cascade>
</opencv_storage>
