<?xml version="1.0"?>
<opencv_storage>
<cascade>
  <stageType>BOOST</stageType>
  <featureType>HAAR</featureType>
  <height>30</height>
  <width>20</width>
  <stageParams>
    <boostType>GAB</boostType>
    <minHitRate>9.9500000476837158e-01</minHitRate>
    <maxFalseAlarm>4.0000000596046448e-01</maxFalseAlarm>
    <weightTrimRate>9.4999999999999996e-01</weightTrimRate>
    <maxDepth>1</maxDepth>
    <maxWeakCount>100</maxWeakCount></stageParams>
  <featureParams>
    <maxCatCount>0</maxCatCount>
    <featSize>1</featSize>
    <mode>ALL</mode></featureParams>
  <stageNum>8</stageNum>
  <stages>
    <!-- stage 0 -->
    <_>
      <maxWeakCount>2</maxWeakCount>
      <stageThreshold>-7.2882361710071564e-02</stageThreshold>
      <weakClassifiers>
        <_>
          <internalNodes>
            0 -1 5 8.7525054812431335e-02</internalNodes>
          <leafValues>
            -9.8996990919113159e-01 9.6819084882736206e-01</leafValues></_>
        <_>
          <internalNodes>
            0 -1 14 8.1988528370857239e-02</internalNodes>
          <leafValues>
            -9.8009967803955078e-01 9.1708755493164062e-01</leafValues></_></weakClassifiers></_>
    <!-- stage 1 -->
    <_>
      <maxWeakCount>2</maxWeakCount>
      <stageThreshold>-1.0223281383514404e-01</stageThreshold>
      <weakClassifiers>
        <_>
          <internalNodes>
            0 -1 8 -1.0035024583339691e-01</internalNodes>
          <leafValues>
            9.1015625000000000e-01 -9.7773277759552002e-01</leafValues></_>
        <_>
          <internalNodes>
            0 -1 16 -6.0485929250717163e-02</internalNodes>
          <leafValues>
            8.7549996376037598e-01 -9.4430845975875854e-01</leafValues></_></weakClassifiers></_>
    <!-- stage 2 -->
    <_>
      <maxWeakCount>3</maxWeakCount>
      <stageThreshold>-1.0954458713531494e+00</stageThreshold>
      <weakClassifiers>
        <_>
          <internalNodes>
            0 -1 6 1.3178710639476776e-01</internalNodes>
          <leafValues>
            -9.0344828367233276e-01 8.5979384183883667e-01</leafValues></_>
        <_>
          <internalNodes>
            0 -1 9 -7.5256243348121643e-02</internalNodes>
          <leafValues>
            7.4572664499282837e-01 -8.9840638637542725e-01</leafValues></_>
        <_>
          <internalNodes>
            0 -1 4 1.2597617506980896e-01</internalNodes>
          <leafValues>
            -8.4926670789718628e-01 7.0640873908996582e-01</leafValues></_></weakClassifiers></_>
    <!-- stage 3 -->
    <_>
      <maxWeakCount>3</maxWeakCount>
      <stageThreshold>-9.0852409601211548e-01</stageThreshold>
      <weakClassifiers>
        <_>
          <internalNodes>
            0 -1 18 1.8479317426681519e-01</internalNodes>
          <leafValues>
            -9.0361446142196655e-01 7.9365080595016479e-01</leafValues></_>
        <_>
          <internalNodes>
            0 -1 15 -3.5907275974750519e-02</internalNodes>
          <leafValues>
            8.3253282308578491e-01 -8.5437428951263428e-01</leafValues></_>
        <_>
          <internalNodes>
            0 -1 1 -2.3265445232391357e-01</internalNodes>
          <leafValues>
            8.4946465492248535e-01 -7.8775125741958618e-01</leafValues></_></weakClassifiers></_>
    <!-- stage 4 -->
    <_>
      <maxWeakCount>3</maxWeakCount>
      <stageThreshold>-1.0604193210601807e+00</stageThreshold>
      <weakClassifiers>
        <_>
          <internalNodes>
            0 -1 13 -2.0527566969394684e-01</internalNodes>
          <leafValues>
            8.6696231365203857e-01 -8.4938037395477295e-01</leafValues></_>
        <_>
          <internalNodes>
            0 -1 17 6.2371887266635895e-02</internalNodes>
          <leafValues>
            -8.9123499393463135e-01 6.4347767829895020e-01</leafValues></_>
        <_>
          <internalNodes>
            0 -1 19 -6.3164159655570984e-03</internalNodes>
          <leafValues>
            6.8019610643386841e-01 -8.0032747983932495e-01</leafValues></_></weakClassifiers></_>
    <!-- stage 5 -->
    <_>
      <maxWeakCount>3</maxWeakCount>
      <stageThreshold>-9.4482636451721191e-01</stageThreshold>
      <weakClassifiers>
        <_>
          <internalNodes>
            0 -1 12 -2.7211219072341919e-01</internalNodes>
          <leafValues>
            9.6419435739517212e-01 -7.9080253839492798e-01</leafValues></_>
        <_>
          <internalNodes>
            0 -1 3 3.2287806272506714e-01</internalNodes>
          <leafValues>
            -6.9224447011947632e-01 7.8299367427825928e-01</leafValues></_>
        <_>
          <internalNodes>
            0 -1 2 -7.9163789749145508e-02</internalNodes>
          <leafValues>
            5.8882701396942139e-01 -9.3701756000518799e-01</leafValues></_></weakClassifiers></_>
    <!-- stage 6 -->
    <_>
      <maxWeakCount>3</maxWeakCount>
      <stageThreshold>-8.5974097251892090e-01</stageThreshold>
      <weakClassifiers>
        <_>
          <internalNodes>
            0 -1 10 2.8060583397746086e-02</internalNodes>
          <leafValues>
            -8.8857412338256836e-01 1.</leafValues></_>
        <_>
          <internalNodes>
            0 -1 7 -5.3928289562463760e-03</internalNodes>
          <leafValues>
            8.3482813835144043e-01 -8.6913925409317017e-01</leafValues></_>
        <_>
          <internalNodes>
            0 -1 11 -2.4260603822767735e-03</internalNodes>
          <leafValues>
            8.9797240495681763e-01 -7.1870160102844238e-01</leafValues></_></weakClassifiers></_>
    <!-- stage 7 -->
    <_>
      <maxWeakCount>1</maxWeakCount>
      <stageThreshold>1.</stageThreshold>
      <weakClassifiers>
        <_>
          <internalNodes>
            0 -1 0 2.0484621636569500e-03</internalNodes>
          <leafValues>
            -9.9600797891616821e-01 1.</leafValues></_></weakClassifiers></_></stages>
  <features>
    <_>
      <rects>
        <_>
          0 20 17 2 -1.</_>
        <_>
          0 21 17 1 2.</_></rects>
      <tilted>0</tilted></_>
    <_>
      <rects>
        <_>
          4 0 13 20 -1.</_>
        <_>
          4 10 13 10 2.</_></rects>
      <tilted>0</tilted></_>
    <_>
      <rects>
        <_>
          4 7 12 20 -1.</_>
        <_>
          4 17 12 10 2.</_></rects>
      <tilted>0</tilted></_>
    <_>
      <rects>
        <_>
          4 8 12 20 -1.</_>
        <_>
          7 8 6 20 2.</_></rects>
      <tilted>0</tilted></_>
    <_>
      <rects>
        <_>
          4 10 12 7 -1.</_>
        <_>
          7 10 6 7 2.</_></rects>
      <tilted>0</tilted></_>
    <_>
      <rects>
        <_>
          4 11 12 6 -1.</_>
        <_>
          7 11 6 6 2.</_></rects>
      <tilted>0</tilted></_>
    <_>
      <rects>
        <_>
          4 21 12 7 -1.</_>
        <_>
          7 21 6 7 2.</_></rects>
      <tilted>0</tilted></_>
    <_>
      <rects>
        <_>
          4 24 4 6 -1.</_>
        <_>
          4 26 4 2 3.</_></rects>
      <tilted>0</tilted></_>
    <_>
      <rects>
        <_>
          7 16 8 4 -1.</_>
        <_>
          7 16 4 4 2.</_></rects>
      <tilted>1</tilted></_>
    <_>
      <rects>
        <_>
          8 9 8 8 -1.</_>
        <_>
          6 11 8 4 2.</_></rects>
      <tilted>1</tilted></_>
    <_>
      <rects>
        <_>
          8 18 3 9 -1.</_>
        <_>
          8 21 3 3 3.</_></rects>
      <tilted>0</tilted></_>
    <_>
      <rects>
        <_>
          9 2 4 12 -1.</_>
        <_>
          9 5 4 6 2.</_></rects>
      <tilted>0</tilted></_>
    <_>
      <rects>
        <_>
          11 6 9 12 -1.</_>
        <_>
          14 10 3 4 9.</_></rects>
      <tilted>0</tilted></_>
    <_>
      <rects>
        <_>
          11 21 9 9 -1.</_>
        <_>
          14 24 3 3 9.</_></rects>
      <tilted>0</tilted></_>
    <_>
      <rects>
        <_>
          12 10 6 5 -1.</_>
        <_>
          12 10 3 5 2.</_></rects>
      <tilted>1</tilted></_>
    <_>
      <rects>
        <_>
          13 14 1 12 -1.</_>
        <_>
          10 17 1 6 2.</_></rects>
      <tilted>1</tilted></_>
    <_>
      <rects>
        <_>
          13 14 7 6 -1.</_>
        <_>
          11 16 7 2 3.</_></rects>
      <tilted>1</tilted></_>
    <_>
      <rects>
        <_>
          14 8 4 13 -1.</_>
        <_>
          14 8 2 13 2.</_></rects>
      <tilted>1</tilted></_>
    <_>
      <rects>
        <_>
          14 10 6 19 -1.</_>
        <_>
          17 10 3 19 2.</_></rects>
      <tilted>0</tilted></_>
    <_>
      <rects>
        <_>
          14 24 5 6 -1.</_>
        <_>
          14 26 5 2 3.</_></rects>
      <tilted>0</tilted></_></features></cascade>
</opencv_storage>
