<?xml version="1.0"?>
<opencv_storage>
<stage2>
  <maxWeakCount>5</maxWeakCount>
  <stageThreshold>-1.6128780841827393e+00</stageThreshold>
  <weakClassifiers>
    <_>
      <internalNodes>
        0 -1 176331 4.0198855102062225e-02</internalNodes>
      <leafValues>
        -9.4676804542541504e-01 8.4428220987319946e-01</leafValues></_>
    <_>
      <internalNodes>
        0 -1 252850 -2.0231835544109344e-02</internalNodes>
      <leafValues>
        8.1960070133209229e-01 -8.4745824337005615e-01</leafValues></_>
    <_>
      <internalNodes>
        0 -1 54684 -1.6368751227855682e-01</internalNodes>
      <leafValues>
        6.8401849269866943e-01 -7.9182600975036621e-01</leafValues></_>
    <_>
      <internalNodes>
        0 -1 266280 -8.7379124015569687e-03</internalNodes>
      <leafValues>
        5.3551536798477173e-01 -8.6081773042678833e-01</leafValues></_>
    <_>
      <internalNodes>
        0 -1 275990 -6.3062934204936028e-03</internalNodes>
      <leafValues>
        4.3765881657600403e-01 -8.7454354763031006e-01</leafValues></_></weakClassifiers></stage2>
</opencv_storage>
