<?xml version="1.0"?>
<opencv_storage>
<stage6>
  <maxWeakCount>5</maxWeakCount>
  <stageThreshold>-1.2583115100860596e+00</stageThreshold>
  <weakClassifiers>
    <_>
      <internalNodes>
        0 -1 234627 -4.1177265346050262e-02</internalNodes>
      <leafValues>
        5.4767185449600220e-01 -8.6381840705871582e-01</leafValues></_>
    <_>
      <internalNodes>
        0 -1 114342 1.9924029707908630e-02</internalNodes>
      <leafValues>
        -8.4669452905654907e-01 6.2003612518310547e-01</leafValues></_>
    <_>
      <internalNodes>
        0 -1 99648 3.0128985643386841e-01</internalNodes>
      <leafValues>
        -6.4811545610427856e-01 7.2815281152725220e-01</leafValues></_>
    <_>
      <internalNodes>
        0 -1 127494 -4.3817851692438126e-03</internalNodes>
      <leafValues>
        5.9021228551864624e-01 -7.6756852865219116e-01</leafValues></_>
    <_>
      <internalNodes>
        0 -1 272398 4.1972775012254715e-02</internalNodes>
      <leafValues>
        -7.5773417949676514e-01 5.1010465621948242e-01</leafValues></_></weakClassifiers></stage6>
</opencv_storage>
