<?xml version="1.0"?>
<opencv_storage>
<cascade>
  <stageType>BOOST</stageType>
  <featureType>HAAR</featureType>
  <height>15</height>
  <width>10</width>
  <stageParams>
    <boostType>GAB</boostType>
    <minHitRate>9.9500000476837158e-01</minHitRate>
    <maxFalseAlarm>4.0000000596046448e-01</maxFalseAlarm>
    <weightTrimRate>9.4999999999999996e-01</weightTrimRate>
    <maxDepth>1</maxDepth>
    <maxWeakCount>100</maxWeakCount></stageParams>
  <featureParams>
    <maxCatCount>0</maxCatCount>
    <featSize>1</featSize>
    <mode>ALL</mode></featureParams>
  <stageNum>6</stageNum>
  <stages>
    <!-- stage 0 -->
    <_>
      <maxWeakCount>2</maxWeakCount>
      <stageThreshold>-4.8227883875370026e-02</stageThreshold>
      <weakClassifiers>
        <_>
          <internalNodes>
            0 -1 6 4.0982100367546082e-01</internalNodes>
          <leafValues>
            -9.8411124944686890e-01 9.9594318866729736e-01</leafValues></_>
        <_>
          <internalNodes>
            0 -1 8 -6.8484991788864136e-02</internalNodes>
          <leafValues>
            9.3588334321975708e-01 -1.</leafValues></_></weakClassifiers></_>
    <!-- stage 1 -->
    <_>
      <maxWeakCount>2</maxWeakCount>
      <stageThreshold>-4.1822917759418488e-02</stageThreshold>
      <weakClassifiers>
        <_>
          <internalNodes>
            0 -1 15 -9.6549771726131439e-02</internalNodes>
          <leafValues>
            9.4082838296890259e-01 -9.8388719558715820e-01</leafValues></_>
        <_>
          <internalNodes>
            0 -1 2 -1.2909069657325745e-01</internalNodes>
          <leafValues>
            9.5134574174880981e-01 -9.8265129327774048e-01</leafValues></_></weakClassifiers></_>
    <!-- stage 2 -->
    <_>
      <maxWeakCount>3</maxWeakCount>
      <stageThreshold>-1.1094233989715576e+00</stageThreshold>
      <weakClassifiers>
        <_>
          <internalNodes>
            0 -1 4 -7.8668929636478424e-02</internalNodes>
          <leafValues>
            7.9591834545135498e-01 -9.6670132875442505e-01</leafValues></_>
        <_>
          <internalNodes>
            0 -1 12 1.3861063122749329e-01</internalNodes>
          <leafValues>
            -9.1039937734603882e-01 7.8022712469100952e-01</leafValues></_>
        <_>
          <internalNodes>
            0 -1 13 -7.0155292749404907e-02</internalNodes>
          <leafValues>
            7.6767730712890625e-01 -8.3870148658752441e-01</leafValues></_></weakClassifiers></_>
    <!-- stage 3 -->
    <_>
      <maxWeakCount>2</maxWeakCount>
      <stageThreshold>-2.4542844295501709e-01</stageThreshold>
      <weakClassifiers>
        <_>
          <internalNodes>
            0 -1 3 -4.6294614672660828e-02</internalNodes>
          <leafValues>
            7.1075838804244995e-01 -9.6784567832946777e-01</leafValues></_>
        <_>
          <internalNodes>
            0 -1 0 -3.8554996252059937e-01</internalNodes>
          <leafValues>
            7.2241723537445068e-01 -9.1149324178695679e-01</leafValues></_></weakClassifiers></_>
    <!-- stage 4 -->
    <_>
      <maxWeakCount>5</maxWeakCount>
      <stageThreshold>-1.5234671831130981e+00</stageThreshold>
      <weakClassifiers>
        <_>
          <internalNodes>
            0 -1 14 -8.6903721094131470e-02</internalNodes>
          <leafValues>
            7.2677594423294067e-01 -9.4532072544097900e-01</leafValues></_>
        <_>
          <internalNodes>
            0 -1 11 -7.8093133866786957e-02</internalNodes>
          <leafValues>
            6.3512843847274780e-01 -8.9021140336990356e-01</leafValues></_>
        <_>
          <internalNodes>
            0 -1 7 -1.4126543700695038e-01</internalNodes>
          <leafValues>
            6.3213735818862915e-01 -7.3652726411819458e-01</leafValues></_>
        <_>
          <internalNodes>
            0 -1 8 -1.0903005301952362e-01</internalNodes>
          <leafValues>
            4.8324152827262878e-01 -8.2110297679901123e-01</leafValues></_>
        <_>
          <internalNodes>
            0 -1 9 2.8631402179598808e-02</internalNodes>
          <leafValues>
            -7.9572033882141113e-01 5.6535065174102783e-01</leafValues></_></weakClassifiers></_>
    <!-- stage 5 -->
    <_>
      <maxWeakCount>3</maxWeakCount>
      <stageThreshold>-1.0052030086517334e+00</stageThreshold>
      <weakClassifiers>
        <_>
          <internalNodes>
            0 -1 10 -1.3310411572456360e-01</internalNodes>
          <leafValues>
            6.5565216541290283e-01 -9.4810813665390015e-01</leafValues></_>
        <_>
          <internalNodes>
            0 -1 1 3.0459102243185043e-02</internalNodes>
          <leafValues>
            -8.6838954687118530e-01 5.6601333618164062e-01</leafValues></_>
        <_>
          <internalNodes>
            0 -1 5 -7.5517848134040833e-02</internalNodes>
          <leafValues>
            9.1434705257415771e-01 -6.2310826778411865e-01</leafValues></_></weakClassifiers></_></stages>
  <features>
    <_>
      <rects>
        <_>
          0 4 6 9 -1.</_>
        <_>
          2 4 2 9 3.</_></rects>
      <tilted>0</tilted></_>
    <_>
      <rects>
        <_>
          0 8 6 4 -1.</_>
        <_>
          0 9 6 2 2.</_></rects>
      <tilted>0</tilted></_>
    <_>
      <rects>
        <_>
          1 3 6 3 -1.</_>
        <_>
          3 3 2 3 3.</_></rects>
      <tilted>0</tilted></_>
    <_>
      <rects>
        <_>
          1 13 8 1 -1.</_>
        <_>
          3 13 4 1 2.</_></rects>
      <tilted>0</tilted></_>
    <_>
      <rects>
        <_>
          2 0 1 12 -1.</_>
        <_>
          2 6 1 6 2.</_></rects>
      <tilted>0</tilted></_>
    <_>
      <rects>
        <_>
          2 6 4 1 -1.</_>
        <_>
          3 7 2 1 2.</_></rects>
      <tilted>1</tilted></_>
    <_>
      <rects>
        <_>
          2 8 6 6 -1.</_>
        <_>
          4 10 2 2 9.</_></rects>
      <tilted>0</tilted></_>
    <_>
      <rects>
        <_>
          3 0 2 12 -1.</_>
        <_>
          3 3 2 6 2.</_></rects>
      <tilted>0</tilted></_>
    <_>
      <rects>
        <_>
          3 11 5 4 -1.</_>
        <_>
          3 12 5 2 2.</_></rects>
      <tilted>0</tilted></_>
    <_>
      <rects>
        <_>
          4 1 2 1 -1.</_>
        <_>
          4 1 1 1 2.</_></rects>
      <tilted>1</tilted></_>
    <_>
      <rects>
        <_>
          5 1 4 12 -1.</_>
        <_>
          5 7 4 6 2.</_></rects>
      <tilted>0</tilted></_>
    <_>
      <rects>
        <_>
          5 5 3 4 -1.</_>
        <_>
          5 7 3 2 2.</_></rects>
      <tilted>0</tilted></_>
    <_>
      <rects>
        <_>
          5 7 4 3 -1.</_>
        <_>
          6 8 2 3 2.</_></rects>
      <tilted>1</tilted></_>
    <_>
      <rects>
        <_>
          7 1 2 3 -1.</_>
        <_>
          7 1 1 3 2.</_></rects>
      <tilted>1</tilted></_>
    <_>
      <rects>
        <_>
          7 1 1 12 -1.</_>
        <_>
          7 7 1 6 2.</_></rects>
      <tilted>0</tilted></_>
    <_>
      <rects>
        <_>
          7 5 3 3 -1.</_>
        <_>
          6 6 3 1 3.</_></rects>
      <tilted>1</tilted></_></features></cascade>
</opencv_storage>
