<?xml version="1.0"?>
<opencv_storage>
<cascade>
  <stageType>BOOST</stageType>
  <featureType>HAAR</featureType>
  <height>30</height>
  <width>20</width>
  <stageParams>
    <boostType>GAB</boostType>
    <minHitRate>9.9500000476837158e-01</minHitRate>
    <maxFalseAlarm>4.0000000596046448e-01</maxFalseAlarm>
    <weightTrimRate>9.4999999999999996e-01</weightTrimRate>
    <maxDepth>1</maxDepth>
    <maxWeakCount>100</maxWeakCount></stageParams>
  <featureParams>
    <maxCatCount>0</maxCatCount>
    <featSize>1</featSize>
    <mode>ALL</mode></featureParams>
  <stageNum>8</stageNum>
  <stages>
    <!-- stage 0 -->
    <_>
      <maxWeakCount>2</maxWeakCount>
      <stageThreshold>-6.0650952160358429e-02</stageThreshold>
      <weakClassifiers>
        <_>
          <internalNodes>
            0 -1 6 1.5921747684478760e-01</internalNodes>
          <leafValues>
            -9.8598599433898926e-01 9.6806389093399048e-01</leafValues></_>
        <_>
          <internalNodes>
            0 -1 15 7.6397106051445007e-02</internalNodes>
          <leafValues>
            -9.8220950365066528e-01 9.2533504962921143e-01</leafValues></_></weakClassifiers></_>
    <!-- stage 1 -->
    <_>
      <maxWeakCount>2</maxWeakCount>
      <stageThreshold>-2.0239217579364777e-01</stageThreshold>
      <weakClassifiers>
        <_>
          <internalNodes>
            0 -1 22 -5.7426624000072479e-02</internalNodes>
          <leafValues>
            8.1992340087890625e-01 -9.4887524843215942e-01</leafValues></_>
        <_>
          <internalNodes>
            0 -1 11 1.7712205648422241e-02</internalNodes>
          <leafValues>
            -9.6657454967498779e-01 7.4648308753967285e-01</leafValues></_></weakClassifiers></_>
    <!-- stage 2 -->
    <_>
      <maxWeakCount>3</maxWeakCount>
      <stageThreshold>-1.2490432262420654e+00</stageThreshold>
      <weakClassifiers>
        <_>
          <internalNodes>
            0 -1 1 -3.2759197056293488e-02</internalNodes>
          <leafValues>
            7.6102942228317261e-01 -9.5606696605682373e-01</leafValues></_>
        <_>
          <internalNodes>
            0 -1 18 1.0516743361949921e-01</internalNodes>
          <leafValues>
            -8.8885545730590820e-01 7.2957408428192139e-01</leafValues></_>
        <_>
          <internalNodes>
            0 -1 3 -6.9953829050064087e-02</internalNodes>
          <leafValues>
            5.9587919712066650e-01 -9.6823281049728394e-01</leafValues></_></weakClassifiers></_>
    <!-- stage 3 -->
    <_>
      <maxWeakCount>2</maxWeakCount>
      <stageThreshold>-3.0957734584808350e-01</stageThreshold>
      <weakClassifiers>
        <_>
          <internalNodes>
            0 -1 21 7.3888018727302551e-02</internalNodes>
          <leafValues>
            -9.5793902873992920e-01 7.4863386154174805e-01</leafValues></_>
        <_>
          <internalNodes>
            0 -1 10 -6.6203810274600983e-02</internalNodes>
          <leafValues>
            6.4836168289184570e-01 -8.6577069759368896e-01</leafValues></_></weakClassifiers></_>
    <!-- stage 4 -->
    <_>
      <maxWeakCount>3</maxWeakCount>
      <stageThreshold>-1.2392071485519409e+00</stageThreshold>
      <weakClassifiers>
        <_>
          <internalNodes>
            0 -1 16 1.2316898256540298e-01</internalNodes>
          <leafValues>
            -9.0233975648880005e-01 7.4854934215545654e-01</leafValues></_>
        <_>
          <internalNodes>
            0 -1 14 6.3118487596511841e-02</internalNodes>
          <leafValues>
            -8.0287963151931763e-01 6.6862517595291138e-01</leafValues></_>
        <_>
          <internalNodes>
            0 -1 4 3.2048113644123077e-03</internalNodes>
          <leafValues>
            -8.2329744100570679e-01 4.6601232886314392e-01</leafValues></_></weakClassifiers></_>
    <!-- stage 5 -->
    <_>
      <maxWeakCount>5</maxWeakCount>
      <stageThreshold>-1.1870194673538208e+00</stageThreshold>
      <weakClassifiers>
        <_>
          <internalNodes>
            0 -1 9 8.2353927195072174e-02</internalNodes>
          <leafValues>
            -8.9306026697158813e-01 4.5893719792366028e-01</leafValues></_>
        <_>
          <internalNodes>
            0 -1 19 1.8080437183380127e-01</internalNodes>
          <leafValues>
            -6.7564594745635986e-01 6.8401217460632324e-01</leafValues></_>
        <_>
          <internalNodes>
            0 -1 7 -2.6027434505522251e-03</internalNodes>
          <leafValues>
            6.4132726192474365e-01 -7.7136939764022827e-01</leafValues></_>
        <_>
          <internalNodes>
            0 -1 5 1.9870653748512268e-01</internalNodes>
          <leafValues>
            -6.8878298997879028e-01 6.1875909566879272e-01</leafValues></_>
        <_>
          <internalNodes>
            0 -1 8 -1.6101414803415537e-03</internalNodes>
          <leafValues>
            5.3814625740051270e-01 -8.1770038604736328e-01</leafValues></_></weakClassifiers></_>
    <!-- stage 6 -->
    <_>
      <maxWeakCount>5</maxWeakCount>
      <stageThreshold>-1.0143686532974243e+00</stageThreshold>
      <weakClassifiers>
        <_>
          <internalNodes>
            0 -1 20 1.8441326916217804e-01</internalNodes>
          <leafValues>
            -7.5177305936813354e-01 9.3548387289047241e-01</leafValues></_>
        <_>
          <internalNodes>
            0 -1 2 -2.4946741759777069e-02</internalNodes>
          <leafValues>
            5.4630273580551147e-01 -8.0427682399749756e-01</leafValues></_>
        <_>
          <internalNodes>
            0 -1 12 1.7998393625020981e-02</internalNodes>
          <leafValues>
            -8.3599758148193359e-01 5.8315795660018921e-01</leafValues></_>
        <_>
          <internalNodes>
            0 -1 23 -8.9998599141836166e-03</internalNodes>
          <leafValues>
            6.5580707788467407e-01 -7.0549672842025757e-01</leafValues></_>
        <_>
          <internalNodes>
            0 -1 0 -7.4925504624843597e-02</internalNodes>
          <leafValues>
            -6.2870788574218750e-01 7.8666800260543823e-01</leafValues></_></weakClassifiers></_>
    <!-- stage 7 -->
    <_>
      <maxWeakCount>2</maxWeakCount>
      <stageThreshold>3.1496062874794006e-02</stageThreshold>
      <weakClassifiers>
        <_>
          <internalNodes>
            0 -1 17 -3.0067381449043751e-03</internalNodes>
          <leafValues>
            1. -9.6850395202636719e-01</leafValues></_>
        <_>
          <internalNodes>
            0 -1 13 4.5550325885415077e-03</internalNodes>
          <leafValues>
            -9.1793030500411987e-01 1.</leafValues></_></weakClassifiers></_></stages>
  <features>
    <_>
      <rects>
        <_>
          0 6 18 24 -1.</_>
        <_>
          0 14 18 8 3.</_></rects>
      <tilted>0</tilted></_>
    <_>
      <rects>
        <_>
          0 15 20 1 -1.</_>
        <_>
          5 15 10 1 2.</_></rects>
      <tilted>0</tilted></_>
    <_>
      <rects>
        <_>
          2 9 8 6 -1.</_>
        <_>
          2 9 4 3 2.</_>
        <_>
          6 12 4 3 2.</_></rects>
      <tilted>0</tilted></_>
    <_>
      <rects>
        <_>
          3 19 8 10 -1.</_>
        <_>
          3 19 4 5 2.</_>
        <_>
          7 24 4 5 2.</_></rects>
      <tilted>0</tilted></_>
    <_>
      <rects>
        <_>
          4 13 3 3 -1.</_>
        <_>
          5 14 1 3 3.</_></rects>
      <tilted>1</tilted></_>
    <_>
      <rects>
        <_>
          5 6 9 9 -1.</_>
        <_>
          8 9 3 3 9.</_></rects>
      <tilted>0</tilted></_>
    <_>
      <rects>
        <_>
          6 6 9 9 -1.</_>
        <_>
          9 9 3 3 9.</_></rects>
      <tilted>0</tilted></_>
    <_>
      <rects>
        <_>
          6 27 6 2 -1.</_>
        <_>
          9 27 3 2 2.</_></rects>
      <tilted>0</tilted></_>
    <_>
      <rects>
        <_>
          7 25 4 3 -1.</_>
        <_>
          7 26 4 1 3.</_></rects>
      <tilted>0</tilted></_>
    <_>
      <rects>
        <_>
          8 2 5 28 -1.</_>
        <_>
          8 9 5 14 2.</_></rects>
      <tilted>0</tilted></_>
    <_>
      <rects>
        <_>
          9 1 4 9 -1.</_>
        <_>
          9 4 4 3 3.</_></rects>
      <tilted>0</tilted></_>
    <_>
      <rects>
        <_>
          10 0 2 9 -1.</_>
        <_>
          10 0 1 9 2.</_></rects>
      <tilted>1</tilted></_>
    <_>
      <rects>
        <_>
          10 2 1 28 -1.</_>
        <_>
          10 9 1 14 2.</_></rects>
      <tilted>0</tilted></_>
    <_>
      <rects>
        <_>
          10 12 8 2 -1.</_>
        <_>
          10 12 4 1 2.</_>
        <_>
          14 13 4 1 2.</_></rects>
      <tilted>0</tilted></_>
    <_>
      <rects>
        <_>
          11 8 4 11 -1.</_>
        <_>
          11 8 2 11 2.</_></rects>
      <tilted>1</tilted></_>
    <_>
      <rects>
        <_>
          12 14 5 8 -1.</_>
        <_>
          10 16 5 4 2.</_></rects>
      <tilted>1</tilted></_>
    <_>
      <rects>
        <_>
          12 14 6 8 -1.</_>
        <_>
          10 16 6 4 2.</_></rects>
      <tilted>1</tilted></_>
    <_>
      <rects>
        <_>
          13 19 2 4 -1.</_>
        <_>
          14 19 1 4 2.</_></rects>
      <tilted>0</tilted></_>
    <_>
      <rects>
        <_>
          14 5 3 9 -1.</_>
        <_>
          11 8 3 3 3.</_></rects>
      <tilted>1</tilted></_>
    <_>
      <rects>
        <_>
          14 7 6 21 -1.</_>
        <_>
          17 7 3 21 2.</_></rects>
      <tilted>0</tilted></_>
    <_>
      <rects>
        <_>
          14 7 6 23 -1.</_>
        <_>
          17 7 3 23 2.</_></rects>
      <tilted>0</tilted></_>
    <_>
      <rects>
        <_>
          15 5 4 22 -1.</_>
        <_>
          17 5 2 22 2.</_></rects>
      <tilted>0</tilted></_>
    <_>
      <rects>
        <_>
          16 9 4 12 -1.</_>
        <_>
          16 9 2 12 2.</_></rects>
      <tilted>1</tilted></_>
    <_>
      <rects>
        <_>
          17 12 2 15 -1.</_>
        <_>
          17 12 1 15 2.</_></rects>
      <tilted>1</tilted></_></features></cascade>
</opencv_storage>
