<?xml version="1.0"?>
<opencv_storage>
<stage12>
  <maxWeakCount>10</maxWeakCount>
  <stageThreshold>-1.2347868680953979e+00</stageThreshold>
  <weakClassifiers>
    <_>
      <internalNodes>
        0 -1 205409 5.4079249501228333e-02</internalNodes>
      <leafValues>
        -5.1222652196884155e-01 7.9674798250198364e-01</leafValues></_>
    <_>
      <internalNodes>
        0 -1 217491 5.3950566798448563e-03</internalNodes>
      <leafValues>
        -2.6161554455757141e-01 9.0380448102951050e-01</leafValues></_>
    <_>
      <internalNodes>
        0 -1 3025 -1.4800338249187917e-04</internalNodes>
      <leafValues>
        7.6356554031372070e-01 -2.4644333124160767e-01</leafValues></_>
    <_>
      <internalNodes>
        0 -1 233633 1.6177790239453316e-03</internalNodes>
      <leafValues>
        3.7796679139137268e-01 -5.2646160125732422e-01</leafValues></_>
    <_>
      <internalNodes>
        0 -1 41191 4.4304423499852419e-04</internalNodes>
      <leafValues>
        -2.8927129507064819e-01 7.8070098161697388e-01</leafValues></_>
    <_>
      <internalNodes>
        0 -1 78141 -1.0289634810760617e-03</internalNodes>
      <leafValues>
        5.6412547826766968e-01 -4.3740263581275940e-01</leafValues></_>
    <_>
      <internalNodes>
        0 -1 180940 7.2640888392925262e-02</internalNodes>
      <leafValues>
        4.6528601646423340e-01 -5.9836542606353760e-01</leafValues></_>
    <_>
      <internalNodes>
        0 -1 219461 -2.9289835947565734e-04</internalNodes>
      <leafValues>
        7.0959538221359253e-01 -3.6080738902091980e-01</leafValues></_>
    <_>
      <internalNodes>
        0 -1 273444 5.0524063408374786e-04</internalNodes>
      <leafValues>
        3.8283807039260864e-01 -6.8394845724105835e-01</leafValues></_>
    <_>
      <internalNodes>
        0 -1 124644 2.7175662107765675e-03</internalNodes>
      <leafValues>
        -3.5311099886894226e-01 7.8749203681945801e-01</leafValues></_></weakClassifiers></stage12>
</opencv_storage>
