<?xml version="1.0"?>
<opencv_storage>
<stage9>
  <maxWeakCount>15</maxWeakCount>
  <stageThreshold>-1.2756003141403198e+00</stageThreshold>
  <weakClassifiers>
    <_>
      <internalNodes>
        0 -1 242138 1.8611431121826172e-01</internalNodes>
      <leafValues>
        -4.3633070588111877e-01 8.6013984680175781e-01</leafValues></_>
    <_>
      <internalNodes>
        0 -1 208528 -3.3591270446777344e-02</internalNodes>
      <leafValues>
        4.3462452292442322e-01 -3.4670847654342651e-01</leafValues></_>
    <_>
      <internalNodes>
        0 -1 19790 1.2154779396951199e-03</internalNodes>
      <leafValues>
        2.6302933692932129e-01 -5.1491814851760864e-01</leafValues></_>
    <_>
      <internalNodes>
        0 -1 22985 -1.3376129209063947e-04</internalNodes>
      <leafValues>
        -4.4912713766098022e-01 2.2055971622467041e-01</leafValues></_>
    <_>
      <internalNodes>
        0 -1 181029 7.0468574762344360e-02</internalNodes>
      <leafValues>
        1.7823466658592224e-01 -7.4673014879226685e-01</leafValues></_>
    <_>
      <internalNodes>
        0 -1 136764 1.1797127127647400e-01</internalNodes>
      <leafValues>
        -1.7474944889545441e-01 7.2653388977050781e-01</leafValues></_>
    <_>
      <internalNodes>
        0 -1 14739 -1.2490254640579224e-01</internalNodes>
      <leafValues>
        4.3856751918792725e-01 -3.6302337050437927e-01</leafValues></_>
    <_>
      <internalNodes>
        0 -1 177691 1.0121805826202035e-04</internalNodes>
      <leafValues>
        1.1751881241798401e-01 -8.6205458641052246e-01</leafValues></_>
    <_>
      <internalNodes>
        0 -1 211505 1.4859388465993106e-04</internalNodes>
      <leafValues>
        8.7874867022037506e-02 -7.9981184005737305e-01</leafValues></_>
    <_>
      <internalNodes>
        0 -1 133306 2.5962978601455688e-02</internalNodes>
      <leafValues>
        -2.4664577841758728e-01 4.3726360797882080e-01</leafValues></_>
    <_>
      <internalNodes>
        0 -1 165947 -7.0869707269594073e-04</internalNodes>
      <leafValues>
        2.3233984410762787e-01 -4.1412484645843506e-01</leafValues></_>
    <_>
      <internalNodes>
        0 -1 85643 5.8811433613300323e-02</internalNodes>
      <leafValues>
        -1.7100499570369720e-01 5.8700037002563477e-01</leafValues></_>
    <_>
      <internalNodes>
        0 -1 255258 -4.1093789041042328e-02</internalNodes>
      <leafValues>
        8.5788416862487793e-01 -1.2636061012744904e-01</leafValues></_>
    <_>
      <internalNodes>
        0 -1 1637 -9.9665676316362806e-06</internalNodes>
      <leafValues>
        3.0995133519172668e-01 -3.3194109797477722e-01</leafValues></_>
    <_>
      <internalNodes>
        0 -1 3506 -2.4704562500119209e-02</internalNodes>
      <leafValues>
        1.2007882446050644e-01 -8.0034339427947998e-01</leafValues></_></weakClassifiers></stage9>
</opencv_storage>
