<?xml version="1.0"?>
<opencv_storage>
<stage5>
  <maxWeakCount>5</maxWeakCount>
  <stageThreshold>-1.0016652345657349e+00</stageThreshold>
  <weakClassifiers>
    <_>
      <internalNodes>
        0 -1 169984 -1.4874672889709473e-01</internalNodes>
      <leafValues>
        8.4927535057067871e-01 -8.1052631139755249e-01</leafValues></_>
    <_>
      <internalNodes>
        0 -1 98015 -2.2243950515985489e-02</internalNodes>
      <leafValues>
        7.9008734226226807e-01 -7.5080066919326782e-01</leafValues></_>
    <_>
      <internalNodes>
        0 -1 220977 -1.6242260113358498e-02</internalNodes>
      <leafValues>
        5.2913439273834229e-01 -9.0474665164947510e-01</leafValues></_>
    <_>
      <internalNodes>
        0 -1 82604 7.6949551701545715e-02</internalNodes>
      <leafValues>
        -8.2979834079742432e-01 6.1669409275054932e-01</leafValues></_>
    <_>
      <internalNodes>
        0 -1 237690 4.2771108448505402e-02</internalNodes>
      <leafValues>
        -5.8616679906845093e-01 8.6316269636154175e-01</leafValues></_></weakClassifiers></stage5>
</opencv_storage>
