<?xml version="1.0"?>
<opencv_storage>
<stage5>
  <maxWeakCount>6</maxWeakCount>
  <stageThreshold>-1.8251729011535645e+00</stageThreshold>
  <weakClassifiers>
    <_>
      <internalNodes>
        0 -1 12245 1.6160534322261810e-01</internalNodes>
      <leafValues>
        -8.2236152887344360e-01 5.2854514122009277e-01</leafValues></_>
    <_>
      <internalNodes>
        0 -1 11014 -1.0551230609416962e-01</internalNodes>
      <leafValues>
        5.8350706100463867e-01 -7.2071146965026855e-01</leafValues></_>
    <_>
      <internalNodes>
        0 -1 14855 6.2486387789249420e-02</internalNodes>
      <leafValues>
        -7.8557312488555908e-01 5.3373837471008301e-01</leafValues></_>
    <_>
      <internalNodes>
        0 -1 7876 -1.5489426255226135e-01</internalNodes>
      <leafValues>
        8.0712842941284180e-01 -4.4001388549804688e-01</leafValues></_>
    <_>
      <internalNodes>
        0 -1 2702 -1.1515205726027489e-02</internalNodes>
      <leafValues>
        -9.1694587469100952e-01 3.9498940110206604e-01</leafValues></_>
    <_>
      <internalNodes>
        0 -1 6665 -2.9041480273008347e-02</internalNodes>
      <leafValues>
        4.0078529715538025e-01 -7.7081370353698730e-01</leafValues></_></weakClassifiers></stage5>
</opencv_storage>
