<?xml version="1.0"?>
<opencv_storage>
<stage4>
  <maxWeakCount>5</maxWeakCount>
  <stageThreshold>-1.4558432102203369e+00</stageThreshold>
  <weakClassifiers>
    <_>
      <internalNodes>
        0 -1 5938 5.0741201639175415e-01</internalNodes>
      <leafValues>
        -8.9585548639297485e-01 6.1359572410583496e-01</leafValues></_>
    <_>
      <internalNodes>
        0 -1 9638 -1.1001522839069366e-01</internalNodes>
      <leafValues>
        5.6135892868041992e-01 -8.6847043037414551e-01</leafValues></_>
    <_>
      <internalNodes>
        0 -1 7893 -1.1173628270626068e-01</internalNodes>
      <leafValues>
        6.2135648727416992e-01 -7.6605212688446045e-01</leafValues></_>
    <_>
      <internalNodes>
        0 -1 12770 7.0854574441909790e-02</internalNodes>
      <leafValues>
        -8.0578446388244629e-01 4.6488353610038757e-01</leafValues></_>
    <_>
      <internalNodes>
        0 -1 7085 8.7660506367683411e-02</internalNodes>
      <leafValues>
        -7.4047797918319702e-01 4.9291062355041504e-01</leafValues></_></weakClassifiers></stage4>
</opencv_storage>
