<?xml version="1.0"?>
<opencv_storage>
<stage6>
  <maxWeakCount>5</maxWeakCount>
  <stageThreshold>-2.0147190093994141e+00</stageThreshold>
  <weakClassifiers>
    <_>
      <internalNodes>
        0 -1 6199 5.1729577779769897e-01</internalNodes>
      <leafValues>
        -9.2058515548706055e-01 7.0165747404098511e-01</leafValues></_>
    <_>
      <internalNodes>
        0 -1 2911 -1.9576701521873474e-01</internalNodes>
      <leafValues>
        6.5725785493850708e-01 -7.6128900051116943e-01</leafValues></_>
    <_>
      <internalNodes>
        0 -1 7248 -3.2478332519531250e-02</internalNodes>
      <leafValues>
        7.3947393894195557e-01 -6.1040437221527100e-01</leafValues></_>
    <_>
      <internalNodes>
        0 -1 14620 2.0911353826522827e-01</internalNodes>
      <leafValues>
        -4.5634749531745911e-01 8.9473968744277954e-01</leafValues></_>
    <_>
      <internalNodes>
        0 -1 10028 -2.7107014320790768e-03</internalNodes>
      <leafValues>
        -6.1718022823333740e-01 5.8048856258392334e-01</leafValues></_></weakClassifiers></stage6>
</opencv_storage>
