<?xml version="1.0"?>
<opencv_storage>
<cascade>
  <stageType>BOOST</stageType>
  <featureType>HAAR</featureType>
  <height>15</height>
  <width>10</width>
  <stageParams>
    <boostType>GAB</boostType>
    <minHitRate>9.9500000476837158e-01</minHitRate>
    <maxFalseAlarm>4.0000000596046448e-01</maxFalseAlarm>
    <weightTrimRate>9.4999999999999996e-01</weightTrimRate>
    <maxDepth>1</maxDepth>
    <maxWeakCount>100</maxWeakCount></stageParams>
  <featureParams>
    <maxCatCount>0</maxCatCount>
    <featSize>1</featSize>
    <mode>ALL</mode></featureParams>
  <stageNum>9</stageNum>
  <stages>
    <!-- stage 0 -->
    <_>
      <maxWeakCount>2</maxWeakCount>
      <stageThreshold>-3.3094625920057297e-02</stageThreshold>
      <weakClassifiers>
        <_>
          <internalNodes>
            0 -1 14 -3.5257035493850708e-01</internalNodes>
          <leafValues>
            9.6806389093399048e-01 -9.8598599433898926e-01</leafValues></_>
        <_>
          <internalNodes>
            0 -1 8 -5.4104864597320557e-01</internalNodes>
          <leafValues>
            9.5289134979248047e-01 -9.7464919090270996e-01</leafValues></_></weakClassifiers></_>
    <!-- stage 1 -->
    <_>
      <maxWeakCount>3</maxWeakCount>
      <stageThreshold>-1.2123584747314453e+00</stageThreshold>
      <weakClassifiers>
        <_>
          <internalNodes>
            0 -1 13 1.1639519035816193e-01</internalNodes>
          <leafValues>
            -9.4699287414550781e-01 8.2658958435058594e-01</leafValues></_>
        <_>
          <internalNodes>
            0 -1 14 -4.9921685457229614e-01</internalNodes>
          <leafValues>
            8.2381927967071533e-01 -8.7698334455490112e-01</leafValues></_>
        <_>
          <internalNodes>
            0 -1 0 -2.5760103017091751e-02</internalNodes>
          <leafValues>
            6.1161780357360840e-01 -9.6088564395904541e-01</leafValues></_></weakClassifiers></_>
    <!-- stage 2 -->
    <_>
      <maxWeakCount>3</maxWeakCount>
      <stageThreshold>-1.1682227849960327e+00</stageThreshold>
      <weakClassifiers>
        <_>
          <internalNodes>
            0 -1 24 -4.4854968786239624e-02</internalNodes>
          <leafValues>
            8.0152672529220581e-01 -9.4262295961380005e-01</leafValues></_>
        <_>
          <internalNodes>
            0 -1 16 -5.7907521724700928e-02</internalNodes>
          <leafValues>
            6.7696666717529297e-01 -9.1892695426940918e-01</leafValues></_>
        <_>
          <internalNodes>
            0 -1 12 2.3782571777701378e-02</internalNodes>
          <leafValues>
            -7.8327989578247070e-01 6.9332712888717651e-01</leafValues></_></weakClassifiers></_>
    <!-- stage 3 -->
    <_>
      <maxWeakCount>3</maxWeakCount>
      <stageThreshold>-1.1426084041595459e+00</stageThreshold>
      <weakClassifiers>
        <_>
          <internalNodes>
            0 -1 4 -6.5045461058616638e-02</internalNodes>
          <leafValues>
            7.2509962320327759e-01 -8.6573147773742676e-01</leafValues></_>
        <_>
          <internalNodes>
            0 -1 6 -1.1751381158828735e+00</internalNodes>
          <leafValues>
            7.7791190147399902e-01 -8.4236395359039307e-01</leafValues></_>
        <_>
          <internalNodes>
            0 -1 20 3.9479076862335205e-02</internalNodes>
          <leafValues>
            -8.7371885776519775e-01 5.6548702716827393e-01</leafValues></_></weakClassifiers></_>
    <!-- stage 4 -->
    <_>
      <maxWeakCount>4</maxWeakCount>
      <stageThreshold>-6.4564704895019531e-01</stageThreshold>
      <weakClassifiers>
        <_>
          <internalNodes>
            0 -1 3 -2.1259477734565735e-01</internalNodes>
          <leafValues>
            6.2735044956207275e-01 -9.4754099845886230e-01</leafValues></_>
        <_>
          <internalNodes>
            0 -1 23 3.5106912255287170e-02</internalNodes>
          <leafValues>
            -9.2296206951141357e-01 5.8111172914505005e-01</leafValues></_>
        <_>
          <internalNodes>
            0 -1 26 -3.1885433942079544e-02</internalNodes>
          <leafValues>
            6.0602581501007080e-01 -8.5292392969131470e-01</leafValues></_>
        <_>
          <internalNodes>
            0 -1 17 1.3769993558526039e-02</internalNodes>
          <leafValues>
            -7.8123933076858521e-01 6.1883026361465454e-01</leafValues></_></weakClassifiers></_>
    <!-- stage 5 -->
    <_>
      <maxWeakCount>5</maxWeakCount>
      <stageThreshold>-1.4871128797531128e+00</stageThreshold>
      <weakClassifiers>
        <_>
          <internalNodes>
            0 -1 25 -1.4455869793891907e-01</internalNodes>
          <leafValues>
            5.7166945934295654e-01 -9.2502754926681519e-01</leafValues></_>
        <_>
          <internalNodes>
            0 -1 19 -1.2178778648376465e-01</internalNodes>
          <leafValues>
            6.0655409097671509e-01 -8.4725201129913330e-01</leafValues></_>
        <_>
          <internalNodes>
            0 -1 28 2.4145474657416344e-02</internalNodes>
          <leafValues>
            -7.5085818767547607e-01 6.8204438686370850e-01</leafValues></_>
        <_>
          <internalNodes>
            0 -1 21 -1.6525620222091675e-01</internalNodes>
          <leafValues>
            4.9195620417594910e-01 -9.1023153066635132e-01</leafValues></_>
        <_>
          <internalNodes>
            0 -1 22 -6.7702792584896088e-02</internalNodes>
          <leafValues>
            5.4406857490539551e-01 -6.6817879676818848e-01</leafValues></_></weakClassifiers></_>
    <!-- stage 6 -->
    <_>
      <maxWeakCount>4</maxWeakCount>
      <stageThreshold>-1.7386536598205566e+00</stageThreshold>
      <weakClassifiers>
        <_>
          <internalNodes>
            0 -1 9 -1.9782644510269165e-01</internalNodes>
          <leafValues>
            5.6507414579391479e-01 -9.4400894641876221e-01</leafValues></_>
        <_>
          <internalNodes>
            0 -1 10 1.6216698288917542e-01</internalNodes>
          <leafValues>
            -7.6881152391433716e-01 7.4378538131713867e-01</leafValues></_>
        <_>
          <internalNodes>
            0 -1 15 1.5023139119148254e-01</internalNodes>
          <leafValues>
            -7.7322155237197876e-01 6.4314091205596924e-01</leafValues></_>
        <_>
          <internalNodes>
            0 -1 7 -4.3684518337249756e-01</internalNodes>
          <leafValues>
            6.5722692012786865e-01 -7.6169472932815552e-01</leafValues></_></weakClassifiers></_>
    <!-- stage 7 -->
    <_>
      <maxWeakCount>3</maxWeakCount>
      <stageThreshold>-9.9743658304214478e-01</stageThreshold>
      <weakClassifiers>
        <_>
          <internalNodes>
            0 -1 1 -2.8475809097290039e-01</internalNodes>
          <leafValues>
            7.5418996810913086e-01 -9.3977153301239014e-01</leafValues></_>
        <_>
          <internalNodes>
            0 -1 11 -2.8657698631286621e-01</internalNodes>
          <leafValues>
            8.6333340406417847e-01 -7.7655220031738281e-01</leafValues></_>
        <_>
          <internalNodes>
            0 -1 2 -1.5807291492819786e-03</internalNodes>
          <leafValues>
            7.1888720989227295e-01 -8.6304366588592529e-01</leafValues></_></weakClassifiers></_>
    <!-- stage 8 -->
    <_>
      <maxWeakCount>3</maxWeakCount>
      <stageThreshold>-9.6381866931915283e-01</stageThreshold>
      <weakClassifiers>
        <_>
          <internalNodes>
            0 -1 27 2.3786753416061401e-02</internalNodes>
          <leafValues>
            1. -9.4931775331497192e-01</leafValues></_>
        <_>
          <internalNodes>
            0 -1 18 -4.1739171743392944e-01</internalNodes>
          <leafValues>
            1. -8.6339753866195679e-01</leafValues></_>
        <_>
          <internalNodes>
            0 -1 5 -2.6099869981408119e-02</internalNodes>
          <leafValues>
            8.4889662265777588e-01 -9.4972109794616699e-01</leafValues></_></weakClassifiers></_></stages>
  <features>
    <_>
      <rects>
        <_>
          0 2 4 4 -1.</_>
        <_>
          0 2 2 2 2.</_>
        <_>
          2 4 2 2 2.</_></rects>
      <tilted>0</tilted></_>
    <_>
      <rects>
        <_>
          0 4 8 10 -1.</_>
        <_>
          4 4 4 10 2.</_></rects>
      <tilted>0</tilted></_>
    <_>
      <rects>
        <_>
          0 7 9 6 -1.</_>
        <_>
          0 10 9 3 2.</_></rects>
      <tilted>0</tilted></_>
    <_>
      <rects>
        <_>
          1 1 9 1 -1.</_>
        <_>
          4 4 3 1 3.</_></rects>
      <tilted>1</tilted></_>
    <_>
      <rects>
        <_>
          1 4 3 3 -1.</_>
        <_>
          2 5 1 1 9.</_></rects>
      <tilted>0</tilted></_>
    <_>
      <rects>
        <_>
          1 4 3 3 -1.</_>
        <_>
          1 5 3 1 3.</_></rects>
      <tilted>0</tilted></_>
    <_>
      <rects>
        <_>
          2 0 6 15 -1.</_>
        <_>
          4 5 2 5 9.</_></rects>
      <tilted>0</tilted></_>
    <_>
      <rects>
        <_>
          2 1 7 9 -1.</_>
        <_>
          2 4 7 3 3.</_></rects>
      <tilted>0</tilted></_>
    <_>
      <rects>
        <_>
          2 2 6 9 -1.</_>
        <_>
          4 5 2 3 9.</_></rects>
      <tilted>0</tilted></_>
    <_>
      <rects>
        <_>
          2 2 6 6 -1.</_>
        <_>
          2 4 6 2 3.</_></rects>
      <tilted>0</tilted></_>
    <_>
      <rects>
        <_>
          2 5 3 6 -1.</_>
        <_>
          3 7 1 2 9.</_></rects>
      <tilted>0</tilted></_>
    <_>
      <rects>
        <_>
          2 5 4 10 -1.</_>
        <_>
          4 5 2 10 2.</_></rects>
      <tilted>0</tilted></_>
    <_>
      <rects>
        <_>
          2 5 6 2 -1.</_>
        <_>
          2 6 6 1 2.</_></rects>
      <tilted>0</tilted></_>
    <_>
      <rects>
        <_>
          2 5 6 6 -1.</_>
        <_>
          2 7 6 2 3.</_></rects>
      <tilted>0</tilted></_>
    <_>
      <rects>
        <_>
          2 6 6 8 -1.</_>
        <_>
          4 6 2 8 3.</_></rects>
      <tilted>0</tilted></_>
    <_>
      <rects>
        <_>
          2 6 6 2 -1.</_>
        <_>
          2 6 3 2 2.</_></rects>
      <tilted>1</tilted></_>
    <_>
      <rects>
        <_>
          3 0 2 12 -1.</_>
        <_>
          3 0 1 6 2.</_>
        <_>
          4 6 1 6 2.</_></rects>
      <tilted>0</tilted></_>
    <_>
      <rects>
        <_>
          3 13 4 2 -1.</_>
        <_>
          3 14 4 1 2.</_></rects>
      <tilted>0</tilted></_>
    <_>
      <rects>
        <_>
          4 0 3 15 -1.</_>
        <_>
          5 5 1 5 9.</_></rects>
      <tilted>0</tilted></_>
    <_>
      <rects>
        <_>
          4 1 4 4 -1.</_>
        <_>
          3 2 4 2 2.</_></rects>
      <tilted>1</tilted></_>
    <_>
      <rects>
        <_>
          4 4 4 10 -1.</_>
        <_>
          4 4 2 5 2.</_>
        <_>
          6 9 2 5 2.</_></rects>
      <tilted>0</tilted></_>
    <_>
      <rects>
        <_>
          4 7 6 2 -1.</_>
        <_>
          6 9 2 2 3.</_></rects>
      <tilted>1</tilted></_>
    <_>
      <rects>
        <_>
          5 1 1 8 -1.</_>
        <_>
          5 5 1 4 2.</_></rects>
      <tilted>0</tilted></_>
    <_>
      <rects>
        <_>
          6 2 4 4 -1.</_>
        <_>
          6 2 2 2 2.</_>
        <_>
          8 4 2 2 2.</_></rects>
      <tilted>0</tilted></_>
    <_>
      <rects>
        <_>
          6 3 4 1 -1.</_>
        <_>
          7 4 2 1 2.</_></rects>
      <tilted>1</tilted></_>
    <_>
      <rects>
        <_>
          6 4 4 2 -1.</_>
        <_>
          6 4 2 2 2.</_></rects>
      <tilted>1</tilted></_>
    <_>
      <rects>
        <_>
          6 12 2 1 -1.</_>
        <_>
          6 12 1 1 2.</_></rects>
      <tilted>1</tilted></_>
    <_>
      <rects>
        <_>
          9 1 1 12 -1.</_>
        <_>
          9 7 1 6 2.</_></rects>
      <tilted>0</tilted></_>
    <_>
      <rects>
        <_>
          9 3 1 2 -1.</_>
        <_>
          9 3 1 1 2.</_></rects>
      <tilted>1</tilted></_></features></cascade>
</opencv_storage>
