<?xml version="1.0"?>
<opencv_storage>
<stage8>
  <maxWeakCount>6</maxWeakCount>
  <stageThreshold>-8.2439911365509033e-01</stageThreshold>
  <weakClassifiers>
    <_>
      <internalNodes>
        0 -1 6430 6.8053558468818665e-02</internalNodes>
      <leafValues>
        -5.9616917371749878e-01 1.</leafValues></_>
    <_>
      <internalNodes>
        0 -1 13006 1.0232239961624146e-01</internalNodes>
      <leafValues>
        -7.6052772998809814e-01 5.1097387075424194e-01</leafValues></_>
    <_>
      <internalNodes>
        0 -1 2711 -1.1640949547290802e-01</internalNodes>
      <leafValues>
        7.2300708293914795e-01 -5.2620351314544678e-01</leafValues></_>
    <_>
      <internalNodes>
        0 -1 8307 3.0375568196177483e-02</internalNodes>
      <leafValues>
        -4.3577808141708374e-01 8.5321164131164551e-01</leafValues></_>
    <_>
      <internalNodes>
        0 -1 11598 7.8161120414733887e-02</internalNodes>
      <leafValues>
        -6.0031592845916748e-01 5.9208405017852783e-01</leafValues></_>
    <_>
      <internalNodes>
        0 -1 5693 1.1852955818176270e-01</internalNodes>
      <leafValues>
        -3.4701523184776306e-01 9.1270470619201660e-01</leafValues></_></weakClassifiers></stage8>
</opencv_storage>
