<?xml version="1.0"?>
<opencv_storage>
<stage6>
  <maxWeakCount>6</maxWeakCount>
  <stageThreshold>-1.2760287523269653e+00</stageThreshold>
  <weakClassifiers>
    <_>
      <internalNodes>
        0 -1 12243 -8.1126496195793152e-02</internalNodes>
      <leafValues>
        8.7234044075012207e-01 -6.1247944831848145e-01</leafValues></_>
    <_>
      <internalNodes>
        0 -1 7537 -6.7983262240886688e-02</internalNodes>
      <leafValues>
        4.8289629817008972e-01 -6.7130184173583984e-01</leafValues></_>
    <_>
      <internalNodes>
        0 -1 15050 -1.0412116348743439e-01</internalNodes>
      <leafValues>
        5.1137262582778931e-01 -7.2173511981964111e-01</leafValues></_>
    <_>
      <internalNodes>
        0 -1 6889 2.8386223316192627e-01</internalNodes>
      <leafValues>
        -7.6524198055267334e-01 3.6287507414817810e-01</leafValues></_>
    <_>
      <internalNodes>
        0 -1 1379 -2.3609754443168640e-01</internalNodes>
      <leafValues>
        8.1206583976745605e-01 -4.1679406166076660e-01</leafValues></_>
    <_>
      <internalNodes>
        0 -1 5523 -2.0963223278522491e-01</internalNodes>
      <leafValues>
        8.5985934734344482e-01 -3.7079149484634399e-01</leafValues></_></weakClassifiers></stage6>
</opencv_storage>
