<?xml version="1.0"?>
<opencv_storage>
<stage5>
  <maxWeakCount>5</maxWeakCount>
  <stageThreshold>-1.4871128797531128e+00</stageThreshold>
  <weakClassifiers>
    <_>
      <internalNodes>
        0 -1 14209 -1.4455869793891907e-01</internalNodes>
      <leafValues>
        5.7166945934295654e-01 -9.2502754926681519e-01</leafValues></_>
    <_>
      <internalNodes>
        0 -1 10192 -1.2178778648376465e-01</internalNodes>
      <leafValues>
        6.0655409097671509e-01 -8.4725201129913330e-01</leafValues></_>
    <_>
      <internalNodes>
        0 -1 16646 2.4145474657416344e-02</internalNodes>
      <leafValues>
        -7.5085818767547607e-01 6.8204438686370850e-01</leafValues></_>
    <_>
      <internalNodes>
        0 -1 11324 -1.6525620222091675e-01</internalNodes>
      <leafValues>
        4.9195620417594910e-01 -9.1023153066635132e-01</leafValues></_>
    <_>
      <internalNodes>
        0 -1 12063 -6.7702792584896088e-02</internalNodes>
      <leafValues>
        5.4406857490539551e-01 -6.6817879676818848e-01</leafValues></_></weakClassifiers></stage5>
</opencv_storage>
