<?xml version="1.0"?>
<opencv_storage>
<cascade>
  <stageType>BOOST</stageType>
  <featureType>HAAR</featureType>
  <height>15</height>
  <width>10</width>
  <stageParams>
    <boostType>GAB</boostType>
    <minHitRate>9.9500000476837158e-01</minHitRate>
    <maxFalseAlarm>4.0000000596046448e-01</maxFalseAlarm>
    <weightTrimRate>9.4999999999999996e-01</weightTrimRate>
    <maxDepth>1</maxDepth>
    <maxWeakCount>100</maxWeakCount></stageParams>
  <featureParams>
    <maxCatCount>0</maxCatCount>
    <featSize>1</featSize>
    <mode>ALL</mode></featureParams>
  <stageNum>7</stageNum>
  <stages>
    <!-- stage 0 -->
    <_>
      <maxWeakCount>2</maxWeakCount>
      <stageThreshold>-2.7934243902564049e-02</stageThreshold>
      <weakClassifiers>
        <_>
          <internalNodes>
            0 -1 12 -8.4971308708190918e-02</internalNodes>
          <leafValues>
            9.5652174949645996e-01 -9.8993963003158569e-01</leafValues></_>
        <_>
          <internalNodes>
            0 -1 15 1.0740206390619278e-01</internalNodes>
          <leafValues>
            -9.8445600271224976e-01 9.6362042427062988e-01</leafValues></_></weakClassifiers></_>
    <!-- stage 1 -->
    <_>
      <maxWeakCount>2</maxWeakCount>
      <stageThreshold>-1.6838325560092926e-01</stageThreshold>
      <weakClassifiers>
        <_>
          <internalNodes>
            0 -1 11 1.1213652789592743e-01</internalNodes>
          <leafValues>
            -9.8142415285110474e-01 8.4934085607528687e-01</leafValues></_>
        <_>
          <internalNodes>
            0 -1 8 -1.0630123317241669e-01</internalNodes>
          <leafValues>
            8.1304091215133667e-01 -9.6820247173309326e-01</leafValues></_></weakClassifiers></_>
    <!-- stage 2 -->
    <_>
      <maxWeakCount>3</maxWeakCount>
      <stageThreshold>-1.1188563108444214e+00</stageThreshold>
      <weakClassifiers>
        <_>
          <internalNodes>
            0 -1 14 -3.8773044943809509e-02</internalNodes>
          <leafValues>
            8.5020244121551514e-01 -9.1451293230056763e-01</leafValues></_>
        <_>
          <internalNodes>
            0 -1 1 -1.8835878372192383e-01</internalNodes>
          <leafValues>
            7.1490281820297241e-01 -9.4794148206710815e-01</leafValues></_>
        <_>
          <internalNodes>
            0 -1 7 2.1615728735923767e-01</internalNodes>
          <leafValues>
            -9.1924625635147095e-01 7.6361519098281860e-01</leafValues></_></weakClassifiers></_>
    <!-- stage 3 -->
    <_>
      <maxWeakCount>3</maxWeakCount>
      <stageThreshold>-1.0154001712799072e+00</stageThreshold>
      <weakClassifiers>
        <_>
          <internalNodes>
            0 -1 0 -4.2598944902420044e-01</internalNodes>
          <leafValues>
            7.7319586277008057e-01 -8.6206895112991333e-01</leafValues></_>
        <_>
          <internalNodes>
            0 -1 17 -9.0455263853073120e-02</internalNodes>
          <leafValues>
            6.2255829572677612e-01 -8.9302474260330200e-01</leafValues></_>
        <_>
          <internalNodes>
            0 -1 12 -1.1184699833393097e-01</internalNodes>
          <leafValues>
            7.7840954065322876e-01 -7.7588951587677002e-01</leafValues></_></weakClassifiers></_>
    <!-- stage 4 -->
    <_>
      <maxWeakCount>3</maxWeakCount>
      <stageThreshold>-1.1490629911422729e+00</stageThreshold>
      <weakClassifiers>
        <_>
          <internalNodes>
            0 -1 18 -1.0510645061731339e-01</internalNodes>
          <leafValues>
            6.5567767620086670e-01 -8.9937108755111694e-01</leafValues></_>
        <_>
          <internalNodes>
            0 -1 5 1.1272516846656799e-01</internalNodes>
          <leafValues>
            -9.0113925933837891e-01 6.2221014499664307e-01</leafValues></_>
        <_>
          <internalNodes>
            0 -1 11 1.3029551506042480e-01</internalNodes>
          <leafValues>
            -8.2252234220504761e-01 6.5144735574722290e-01</leafValues></_></weakClassifiers></_>
    <!-- stage 5 -->
    <_>
      <maxWeakCount>4</maxWeakCount>
      <stageThreshold>-5.9693807363510132e-01</stageThreshold>
      <weakClassifiers>
        <_>
          <internalNodes>
            0 -1 2 -3.9155399799346924e-01</internalNodes>
          <leafValues>
            8.4753364324569702e-01 -8.3301705121994019e-01</leafValues></_>
        <_>
          <internalNodes>
            0 -1 16 5.0017163157463074e-02</internalNodes>
          <leafValues>
            -8.6855465173721313e-01 6.2389153242111206e-01</leafValues></_>
        <_>
          <internalNodes>
            0 -1 6 1.0778941214084625e-01</internalNodes>
          <leafValues>
            -8.8995617628097534e-01 5.1772558689117432e-01</leafValues></_>
        <_>
          <internalNodes>
            0 -1 4 -9.2634847387671471e-03</internalNodes>
          <leafValues>
            5.8690804243087769e-01 -8.2266789674758911e-01</leafValues></_></weakClassifiers></_>
    <!-- stage 6 -->
    <_>
      <maxWeakCount>5</maxWeakCount>
      <stageThreshold>-1.0777001380920410e+00</stageThreshold>
      <weakClassifiers>
        <_>
          <internalNodes>
            0 -1 3 -2.5731283426284790e-01</internalNodes>
          <leafValues>
            8.2844245433807373e-01 -8.2024598121643066e-01</leafValues></_>
        <_>
          <internalNodes>
            0 -1 19 -4.6407744288444519e-02</internalNodes>
          <leafValues>
            6.1638498306274414e-01 -8.3536368608474731e-01</leafValues></_>
        <_>
          <internalNodes>
            0 -1 13 1.3307015597820282e-01</internalNodes>
          <leafValues>
            -7.4388033151626587e-01 7.2873973846435547e-01</leafValues></_>
        <_>
          <internalNodes>
            0 -1 10 -1.7956066131591797e-01</internalNodes>
          <leafValues>
            7.1851223707199097e-01 -7.6693314313888550e-01</leafValues></_>
        <_>
          <internalNodes>
            0 -1 9 1.3662664219737053e-02</internalNodes>
          <leafValues>
            -8.3564567565917969e-01 6.1662125587463379e-01</leafValues></_></weakClassifiers></_></stages>
  <features>
    <_>
      <rects>
        <_>
          0 0 6 6 -1.</_>
        <_>
          2 2 2 2 9.</_></rects>
      <tilted>0</tilted></_>
    <_>
      <rects>
        <_>
          0 1 4 14 -1.</_>
        <_>
          2 1 2 14 2.</_></rects>
      <tilted>0</tilted></_>
    <_>
      <rects>
        <_>
          1 0 3 12 -1.</_>
        <_>
          2 4 1 4 9.</_></rects>
      <tilted>0</tilted></_>
    <_>
      <rects>
        <_>
          1 1 9 3 -1.</_>
        <_>
          4 2 3 1 9.</_></rects>
      <tilted>0</tilted></_>
    <_>
      <rects>
        <_>
          1 2 2 1 -1.</_>
        <_>
          2 2 1 1 2.</_></rects>
      <tilted>0</tilted></_>
    <_>
      <rects>
        <_>
          1 2 5 12 -1.</_>
        <_>
          1 5 5 6 2.</_></rects>
      <tilted>0</tilted></_>
    <_>
      <rects>
        <_>
          2 6 2 8 -1.</_>
        <_>
          2 8 2 4 2.</_></rects>
      <tilted>0</tilted></_>
    <_>
      <rects>
        <_>
          2 6 4 8 -1.</_>
        <_>
          2 8 4 4 2.</_></rects>
      <tilted>0</tilted></_>
    <_>
      <rects>
        <_>
          3 6 6 4 -1.</_>
        <_>
          3 6 3 2 2.</_>
        <_>
          6 8 3 2 2.</_></rects>
      <tilted>0</tilted></_>
    <_>
      <rects>
        <_>
          4 0 2 2 -1.</_>
        <_>
          4 0 2 1 2.</_></rects>
      <tilted>1</tilted></_>
    <_>
      <rects>
        <_>
          4 3 6 3 -1.</_>
        <_>
          3 4 6 1 3.</_></rects>
      <tilted>1</tilted></_>
    <_>
      <rects>
        <_>
          5 2 2 6 -1.</_>
        <_>
          5 4 2 2 3.</_></rects>
      <tilted>0</tilted></_>
    <_>
      <rects>
        <_>
          5 4 2 4 -1.</_>
        <_>
          4 5 2 2 2.</_></rects>
      <tilted>1</tilted></_>
    <_>
      <rects>
        <_>
          5 9 4 6 -1.</_>
        <_>
          5 9 2 3 2.</_>
        <_>
          7 12 2 3 2.</_></rects>
      <tilted>0</tilted></_>
    <_>
      <rects>
        <_>
          6 0 4 1 -1.</_>
        <_>
          7 1 2 1 2.</_></rects>
      <tilted>1</tilted></_>
    <_>
      <rects>
        <_>
          6 7 3 4 -1.</_>
        <_>
          5 8 3 2 2.</_></rects>
      <tilted>1</tilted></_>
    <_>
      <rects>
        <_>
          7 2 1 8 -1.</_>
        <_>
          7 4 1 4 2.</_></rects>
      <tilted>0</tilted></_>
    <_>
      <rects>
        <_>
          7 10 3 2 -1.</_>
        <_>
          8 11 1 2 3.</_></rects>
      <tilted>1</tilted></_>
    <_>
      <rects>
        <_>
          8 6 2 3 -1.</_>
        <_>
          7 7 2 1 3.</_></rects>
      <tilted>1</tilted></_>
    <_>
      <rects>
        <_>
          9 3 1 8 -1.</_>
        <_>
          7 5 1 4 2.</_></rects>
      <tilted>1</tilted></_></features></cascade>
</opencv_storage>
