<?xml version="1.0"?>
<opencv_storage>
<cascade>
  <stageType>BOOST</stageType>
  <featureType>HAAR</featureType>
  <height>30</height>
  <width>20</width>
  <stageParams>
    <boostType>GAB</boostType>
    <minHitRate>9.9500000476837158e-01</minHitRate>
    <maxFalseAlarm>4.0000000596046448e-01</maxFalseAlarm>
    <weightTrimRate>9.4999999999999996e-01</weightTrimRate>
    <maxDepth>1</maxDepth>
    <maxWeakCount>100</maxWeakCount></stageParams>
  <featureParams>
    <maxCatCount>0</maxCatCount>
    <featSize>1</featSize>
    <mode>ALL</mode></featureParams>
  <stageNum>8</stageNum>
  <stages>
    <!-- stage 0 -->
    <_>
      <maxWeakCount>2</maxWeakCount>
      <stageThreshold>-7.5528234243392944e-02</stageThreshold>
      <weakClassifiers>
        <_>
          <internalNodes>
            0 -1 22 -1.3352876901626587e-01</internalNodes>
          <leafValues>
            9.8782962560653687e-01 -9.8013901710510254e-01</leafValues></_>
        <_>
          <internalNodes>
            0 -1 6 -3.1306931376457214e-01</internalNodes>
          <leafValues>
            9.0461081266403198e-01 -9.7010982036590576e-01</leafValues></_></weakClassifiers></_>
    <!-- stage 1 -->
    <_>
      <maxWeakCount>3</maxWeakCount>
      <stageThreshold>-1.1252485513687134e+00</stageThreshold>
      <weakClassifiers>
        <_>
          <internalNodes>
            0 -1 2 -5.5868816375732422e-01</internalNodes>
          <leafValues>
            8.9147287607192993e-01 -9.7560977935791016e-01</leafValues></_>
        <_>
          <internalNodes>
            0 -1 21 -6.5642707049846649e-02</internalNodes>
          <leafValues>
            8.5527628660202026e-01 -9.0060889720916748e-01</leafValues></_>
        <_>
          <internalNodes>
            0 -1 11 -2.9583194851875305e-01</internalNodes>
          <leafValues>
            7.5097012519836426e-01 -8.3479261398315430e-01</leafValues></_></weakClassifiers></_>
    <!-- stage 2 -->
    <_>
      <maxWeakCount>3</maxWeakCount>
      <stageThreshold>-1.2784693241119385e+00</stageThreshold>
      <weakClassifiers>
        <_>
          <internalNodes>
            0 -1 20 6.1055077239871025e-03</internalNodes>
          <leafValues>
            -9.3145161867141724e-01 8.3464568853378296e-01</leafValues></_>
        <_>
          <internalNodes>
            0 -1 10 -6.4324036240577698e-02</internalNodes>
          <leafValues>
            8.4743618965148926e-01 -8.6936271190643311e-01</leafValues></_>
        <_>
          <internalNodes>
            0 -1 1 -1.4498475007712841e-02</internalNodes>
          <leafValues>
            5.2234500646591187e-01 -9.1450327634811401e-01</leafValues></_></weakClassifiers></_>
    <!-- stage 3 -->
    <_>
      <maxWeakCount>4</maxWeakCount>
      <stageThreshold>-5.7305204868316650e-01</stageThreshold>
      <weakClassifiers>
        <_>
          <internalNodes>
            0 -1 12 -1.8206693232059479e-02</internalNodes>
          <leafValues>
            7.6569038629531860e-01 -8.4735810756683350e-01</leafValues></_>
        <_>
          <internalNodes>
            0 -1 8 -2.7622193098068237e-01</internalNodes>
          <leafValues>
            7.7734148502349854e-01 -8.1318897008895874e-01</leafValues></_>
        <_>
          <internalNodes>
            0 -1 19 -9.8472610116004944e-02</internalNodes>
          <leafValues>
            5.8557337522506714e-01 -9.1452455520629883e-01</leafValues></_>
        <_>
          <internalNodes>
            0 -1 15 3.1121782376430929e-04</internalNodes>
          <leafValues>
            -8.6747235059738159e-01 5.0192165374755859e-01</leafValues></_></weakClassifiers></_>
    <!-- stage 4 -->
    <_>
      <maxWeakCount>3</maxWeakCount>
      <stageThreshold>-1.0482316017150879e+00</stageThreshold>
      <weakClassifiers>
        <_>
          <internalNodes>
            0 -1 14 -1.1336794495582581e-01</internalNodes>
          <leafValues>
            8.8571429252624512e-01 -8.6411482095718384e-01</leafValues></_>
        <_>
          <internalNodes>
            0 -1 5 3.5268686711788177e-02</internalNodes>
          <leafValues>
            -9.2362534999847412e-01 7.9688274860382080e-01</leafValues></_>
        <_>
          <internalNodes>
            0 -1 7 -3.5274320840835571e-01</internalNodes>
          <leafValues>
            7.3950856924057007e-01 -7.0117557048797607e-01</leafValues></_></weakClassifiers></_>
    <!-- stage 5 -->
    <_>
      <maxWeakCount>3</maxWeakCount>
      <stageThreshold>-9.4665741920471191e-01</stageThreshold>
      <weakClassifiers>
        <_>
          <internalNodes>
            0 -1 13 -8.4677904844284058e-02</internalNodes>
          <leafValues>
            8.5398232936859131e-01 -8.4541982412338257e-01</leafValues></_>
        <_>
          <internalNodes>
            0 -1 3 -7.9212158918380737e-02</internalNodes>
          <leafValues>
            7.4458640813827515e-01 -8.5156625509262085e-01</leafValues></_>
        <_>
          <internalNodes>
            0 -1 18 -1.0769205540418625e-01</internalNodes>
          <leafValues>
            7.5032866001129150e-01 -7.7185386419296265e-01</leafValues></_></weakClassifiers></_>
    <!-- stage 6 -->
    <_>
      <maxWeakCount>4</maxWeakCount>
      <stageThreshold>-4.6179121732711792e-01</stageThreshold>
      <weakClassifiers>
        <_>
          <internalNodes>
            0 -1 17 -1.1798860505223274e-02</internalNodes>
          <leafValues>
            7.6015472412109375e-01 -9.0844351053237915e-01</leafValues></_>
        <_>
          <internalNodes>
            0 -1 9 -3.3325273543596268e-02</internalNodes>
          <leafValues>
            5.5407297611236572e-01 -9.3659240007400513e-01</leafValues></_>
        <_>
          <internalNodes>
            0 -1 4 -4.4850364327430725e-01</internalNodes>
          <leafValues>
            6.9159585237503052e-01 -8.5611164569854736e-01</leafValues></_>
        <_>
          <internalNodes>
            0 -1 16 -8.2927588373422623e-03</internalNodes>
          <leafValues>
            7.4869102239608765e-01 -7.8224223852157593e-01</leafValues></_></weakClassifiers></_>
    <!-- stage 7 -->
    <_>
      <maxWeakCount>1</maxWeakCount>
      <stageThreshold>1.</stageThreshold>
      <weakClassifiers>
        <_>
          <internalNodes>
            0 -1 0 -4.7372318804264069e-02</internalNodes>
          <leafValues>
            1. -1.</leafValues></_></weakClassifiers></_></stages>
  <features>
    <_>
      <rects>
        <_>
          0 0 16 20 -1.</_>
        <_>
          8 0 8 20 2.</_></rects>
      <tilted>0</tilted></_>
    <_>
      <rects>
        <_>
          0 5 10 6 -1.</_>
        <_>
          0 5 5 3 2.</_>
        <_>
          5 8 5 3 2.</_></rects>
      <tilted>0</tilted></_>
    <_>
      <rects>
        <_>
          0 5 18 12 -1.</_>
        <_>
          6 9 6 4 9.</_></rects>
      <tilted>0</tilted></_>
    <_>
      <rects>
        <_>
          0 10 20 3 -1.</_>
        <_>
          5 10 10 3 2.</_></rects>
      <tilted>0</tilted></_>
    <_>
      <rects>
        <_>
          2 7 18 9 -1.</_>
        <_>
          8 10 6 3 9.</_></rects>
      <tilted>0</tilted></_>
    <_>
      <rects>
        <_>
          4 11 12 8 -1.</_>
        <_>
          4 13 12 4 2.</_></rects>
      <tilted>0</tilted></_>
    <_>
      <rects>
        <_>
          4 12 12 17 -1.</_>
        <_>
          8 12 4 17 3.</_></rects>
      <tilted>0</tilted></_>
    <_>
      <rects>
        <_>
          4 14 12 12 -1.</_>
        <_>
          8 14 4 12 3.</_></rects>
      <tilted>0</tilted></_>
    <_>
      <rects>
        <_>
          4 21 12 9 -1.</_>
        <_>
          8 24 4 3 9.</_></rects>
      <tilted>0</tilted></_>
    <_>
      <rects>
        <_>
          5 4 8 24 -1.</_>
        <_>
          5 4 4 12 2.</_>
        <_>
          9 16 4 12 2.</_></rects>
      <tilted>0</tilted></_>
    <_>
      <rects>
        <_>
          5 9 7 4 -1.</_>
        <_>
          5 9 7 2 2.</_></rects>
      <tilted>1</tilted></_>
    <_>
      <rects>
        <_>
          6 15 9 15 -1.</_>
        <_>
          9 20 3 5 9.</_></rects>
      <tilted>0</tilted></_>
    <_>
      <rects>
        <_>
          8 7 1 6 -1.</_>
        <_>
          6 9 1 2 3.</_></rects>
      <tilted>1</tilted></_>
    <_>
      <rects>
        <_>
          9 0 2 20 -1.</_>
        <_>
          9 10 2 10 2.</_></rects>
      <tilted>0</tilted></_>
    <_>
      <rects>
        <_>
          9 0 3 18 -1.</_>
        <_>
          9 9 3 9 2.</_></rects>
      <tilted>0</tilted></_>
    <_>
      <rects>
        <_>
          9 28 1 2 -1.</_>
        <_>
          9 29 1 1 2.</_></rects>
      <tilted>0</tilted></_>
    <_>
      <rects>
        <_>
          10 18 10 12 -1.</_>
        <_>
          10 21 10 6 2.</_></rects>
      <tilted>0</tilted></_>
    <_>
      <rects>
        <_>
          11 15 4 4 -1.</_>
        <_>
          10 16 4 2 2.</_></rects>
      <tilted>1</tilted></_>
    <_>
      <rects>
        <_>
          12 6 6 9 -1.</_>
        <_>
          14 9 2 3 9.</_></rects>
      <tilted>0</tilted></_>
    <_>
      <rects>
        <_>
          14 9 6 6 -1.</_>
        <_>
          14 9 3 6 2.</_></rects>
      <tilted>1</tilted></_>
    <_>
      <rects>
        <_>
          14 10 6 1 -1.</_>
        <_>
          17 10 3 1 2.</_></rects>
      <tilted>0</tilted></_>
    <_>
      <rects>
        <_>
          16 9 4 7 -1.</_>
        <_>
          16 9 2 7 2.</_></rects>
      <tilted>1</tilted></_>
    <_>
      <rects>
        <_>
          18 3 2 15 -1.</_>
        <_>
          13 8 2 5 3.</_></rects>
      <tilted>1</tilted></_></features></cascade>
</opencv_storage>
