<?xml version="1.0"?>
<opencv_storage>
<cascade>
  <stageType>BOOST</stageType>
  <featureType>HAAR</featureType>
  <height>30</height>
  <width>20</width>
  <stageParams>
    <boostType>GAB</boostType>
    <minHitRate>9.9500000476837158e-01</minHitRate>
    <maxFalseAlarm>4.0000000596046448e-01</maxFalseAlarm>
    <weightTrimRate>9.4999999999999996e-01</weightTrimRate>
    <maxDepth>1</maxDepth>
    <maxWeakCount>100</maxWeakCount></stageParams>
  <featureParams>
    <maxCatCount>0</maxCatCount>
    <featSize>1</featSize>
    <mode>ALL</mode></featureParams>
  <stageNum>6</stageNum>
  <stages>
    <!-- stage 0 -->
    <_>
      <maxWeakCount>2</maxWeakCount>
      <stageThreshold>-2.0253013819456100e-02</stageThreshold>
      <weakClassifiers>
        <_>
          <internalNodes>
            0 -1 6 4.1923213005065918e-01</internalNodes>
          <leafValues>
            -9.8753118515014648e-01 9.8492461442947388e-01</leafValues></_>
        <_>
          <internalNodes>
            0 -1 16 7.6880976557731628e-02</internalNodes>
          <leafValues>
            -9.7273272275924683e-01 9.6727818250656128e-01</leafValues></_></weakClassifiers></_>
    <!-- stage 1 -->
    <_>
      <maxWeakCount>3</maxWeakCount>
      <stageThreshold>-1.0780410766601562e+00</stageThreshold>
      <weakClassifiers>
        <_>
          <internalNodes>
            0 -1 18 -6.8105943500995636e-02</internalNodes>
          <leafValues>
            9.6391755342483521e-01 -9.5320194959640503e-01</leafValues></_>
        <_>
          <internalNodes>
            0 -1 11 -1.3061979413032532e-01</internalNodes>
          <leafValues>
            9.0298128128051758e-01 -9.1997307538986206e-01</leafValues></_>
        <_>
          <internalNodes>
            0 -1 9 -2.0071635022759438e-02</internalNodes>
          <leafValues>
            7.9513394832611084e-01 -9.8245352506637573e-01</leafValues></_></weakClassifiers></_>
    <!-- stage 2 -->
    <_>
      <maxWeakCount>3</maxWeakCount>
      <stageThreshold>-1.0760294198989868e+00</stageThreshold>
      <weakClassifiers>
        <_>
          <internalNodes>
            0 -1 19 9.5484435558319092e-02</internalNodes>
          <leafValues>
            -9.2611467838287354e-01 7.8795182704925537e-01</leafValues></_>
        <_>
          <internalNodes>
            0 -1 5 -2.9800191521644592e-02</internalNodes>
          <leafValues>
            8.2737910747528076e-01 -7.9915910959243774e-01</leafValues></_>
        <_>
          <internalNodes>
            0 -1 22 -2.9364902526140213e-02</internalNodes>
          <leafValues>
            6.4924430847167969e-01 -8.3017325401306152e-01</leafValues></_></weakClassifiers></_>
    <!-- stage 3 -->
    <_>
      <maxWeakCount>5</maxWeakCount>
      <stageThreshold>-1.2435444593429565e+00</stageThreshold>
      <weakClassifiers>
        <_>
          <internalNodes>
            0 -1 8 1.2401548773050308e-01</internalNodes>
          <leafValues>
            -8.3454990386962891e-01 7.5661373138427734e-01</leafValues></_>
        <_>
          <internalNodes>
            0 -1 14 -8.1916339695453644e-02</internalNodes>
          <leafValues>
            7.7598297595977783e-01 -6.9099050760269165e-01</leafValues></_>
        <_>
          <internalNodes>
            0 -1 13 -8.8893339037895203e-02</internalNodes>
          <leafValues>
            5.9562027454376221e-01 -7.2546327114105225e-01</leafValues></_>
        <_>
          <internalNodes>
            0 -1 1 -1.7606217414140701e-02</internalNodes>
          <leafValues>
            6.2677699327468872e-01 -7.0068567991256714e-01</leafValues></_>
        <_>
          <internalNodes>
            0 -1 2 -6.6758215427398682e-02</internalNodes>
          <leafValues>
            3.8706132769584656e-01 -9.5028322935104370e-01</leafValues></_></weakClassifiers></_>
    <!-- stage 4 -->
    <_>
      <maxWeakCount>5</maxWeakCount>
      <stageThreshold>-1.1952430009841919e+00</stageThreshold>
      <weakClassifiers>
        <_>
          <internalNodes>
            0 -1 3 3.5911262035369873e-01</internalNodes>
          <leafValues>
            -8.5372340679168701e-01 5.4017859697341919e-01</leafValues></_>
        <_>
          <internalNodes>
            0 -1 17 -2.9921535402536392e-02</internalNodes>
          <leafValues>
            6.9415950775146484e-01 -6.6991442441940308e-01</leafValues></_>
        <_>
          <internalNodes>
            0 -1 4 -2.9755879193544388e-02</internalNodes>
          <leafValues>
            5.7090771198272705e-01 -7.1000772714614868e-01</leafValues></_>
        <_>
          <internalNodes>
            0 -1 10 -7.3149062693119049e-02</internalNodes>
          <leafValues>
            4.6699213981628418e-01 -8.9542692899703979e-01</leafValues></_>
        <_>
          <internalNodes>
            0 -1 21 1.0420626401901245e-01</internalNodes>
          <leafValues>
            -6.5032267570495605e-01 5.7141041755676270e-01</leafValues></_></weakClassifiers></_>
    <!-- stage 5 -->
    <_>
      <maxWeakCount>5</maxWeakCount>
      <stageThreshold>-1.0559256076812744e+00</stageThreshold>
      <weakClassifiers>
        <_>
          <internalNodes>
            0 -1 7 2.0559626817703247e-01</internalNodes>
          <leafValues>
            -8.0267965793609619e-01 6.8337732553482056e-01</leafValues></_>
        <_>
          <internalNodes>
            0 -1 0 -2.1220248192548752e-02</internalNodes>
          <leafValues>
            8.2418620586395264e-01 -6.4896911382675171e-01</leafValues></_>
        <_>
          <internalNodes>
            0 -1 15 4.8720926046371460e-02</internalNodes>
          <leafValues>
            -7.6801514625549316e-01 5.5286008119583130e-01</leafValues></_>
        <_>
          <internalNodes>
            0 -1 12 -1.5042348764836788e-02</internalNodes>
          <leafValues>
            6.8781656026840210e-01 -5.2513694763183594e-01</leafValues></_>
        <_>
          <internalNodes>
            0 -1 20 -4.9353518988937140e-05</internalNodes>
          <leafValues>
            -8.0398190021514893e-01 4.7592180967330933e-01</leafValues></_></weakClassifiers></_></stages>
  <features>
    <_>
      <rects>
        <_>
          0 0 13 18 -1.</_>
        <_>
          0 9 13 9 2.</_></rects>
      <tilted>0</tilted></_>
    <_>
      <rects>
        <_>
          0 1 16 4 -1.</_>
        <_>
          0 1 8 2 2.</_>
        <_>
          8 3 8 2 2.</_></rects>
      <tilted>0</tilted></_>
    <_>
      <rects>
        <_>
          2 17 18 8 -1.</_>
        <_>
          11 17 9 8 2.</_></rects>
      <tilted>0</tilted></_>
    <_>
      <rects>
        <_>
          3 6 15 9 -1.</_>
        <_>
          8 9 5 3 9.</_></rects>
      <tilted>0</tilted></_>
    <_>
      <rects>
        <_>
          4 0 10 26 -1.</_>
        <_>
          4 13 10 13 2.</_></rects>
      <tilted>0</tilted></_>
    <_>
      <rects>
        <_>
          4 1 1 20 -1.</_>
        <_>
          4 6 1 10 2.</_></rects>
      <tilted>0</tilted></_>
    <_>
      <rects>
        <_>
          4 4 12 15 -1.</_>
        <_>
          8 9 4 5 9.</_></rects>
      <tilted>0</tilted></_>
    <_>
      <rects>
        <_>
          4 7 12 15 -1.</_>
        <_>
          8 7 4 15 3.</_></rects>
      <tilted>0</tilted></_>
    <_>
      <rects>
        <_>
          4 8 12 6 -1.</_>
        <_>
          7 8 6 6 2.</_></rects>
      <tilted>0</tilted></_>
    <_>
      <rects>
        <_>
          5 25 12 2 -1.</_>
        <_>
          8 25 6 2 2.</_></rects>
      <tilted>0</tilted></_>
    <_>
      <rects>
        <_>
          6 10 8 16 -1.</_>
        <_>
          6 10 4 8 2.</_>
        <_>
          10 18 4 8 2.</_></rects>
      <tilted>0</tilted></_>
    <_>
      <rects>
        <_>
          6 10 10 6 -1.</_>
        <_>
          6 10 10 3 2.</_></rects>
      <tilted>1</tilted></_>
    <_>
      <rects>
        <_>
          6 22 6 4 -1.</_>
        <_>
          6 24 6 2 2.</_></rects>
      <tilted>0</tilted></_>
    <_>
      <rects>
        <_>
          8 0 5 28 -1.</_>
        <_>
          8 14 5 14 2.</_></rects>
      <tilted>0</tilted></_>
    <_>
      <rects>
        <_>
          8 19 12 3 -1.</_>
        <_>
          12 19 4 3 3.</_></rects>
      <tilted>0</tilted></_>
    <_>
      <rects>
        <_>
          9 2 4 24 -1.</_>
        <_>
          9 8 4 12 2.</_></rects>
      <tilted>0</tilted></_>
    <_>
      <rects>
        <_>
          9 5 8 4 -1.</_>
        <_>
          11 7 4 4 2.</_></rects>
      <tilted>1</tilted></_>
    <_>
      <rects>
        <_>
          12 11 8 1 -1.</_>
        <_>
          14 13 4 1 2.</_></rects>
      <tilted>1</tilted></_>
    <_>
      <rects>
        <_>
          12 19 6 4 -1.</_>
        <_>
          14 21 2 4 3.</_></rects>
      <tilted>1</tilted></_>
    <_>
      <rects>
        <_>
          13 5 4 8 -1.</_>
        <_>
          11 7 4 4 2.</_></rects>
      <tilted>1</tilted></_>
    <_>
      <rects>
        <_>
          14 3 2 2 -1.</_>
        <_>
          14 3 1 2 2.</_></rects>
      <tilted>1</tilted></_>
    <_>
      <rects>
        <_>
          15 6 3 9 -1.</_>
        <_>
          12 9 3 3 3.</_></rects>
      <tilted>1</tilted></_>
    <_>
      <rects>
        <_>
          15 14 4 16 -1.</_>
        <_>
          15 14 2 8 2.</_>
        <_>
          17 22 2 8 2.</_></rects>
      <tilted>0</tilted></_></features></cascade>
</opencv_storage>
