<?xml version="1.0"?>
<opencv_storage>
<stage4>
  <maxWeakCount>6</maxWeakCount>
  <stageThreshold>-1.3005340099334717e+00</stageThreshold>
  <weakClassifiers>
    <_>
      <internalNodes>
        0 -1 99280 1.9418787956237793e-01</internalNodes>
      <leafValues>
        -8.9517241716384888e-01 5.2421051263809204e-01</leafValues></_>
    <_>
      <internalNodes>
        0 -1 222255 -2.6110634207725525e-02</internalNodes>
      <leafValues>
        3.7037163972854614e-01 -8.7411469221115112e-01</leafValues></_>
    <_>
      <internalNodes>
        0 -1 206718 7.8691884875297546e-02</internalNodes>
      <leafValues>
        -7.9923444986343384e-01 4.0413334965705872e-01</leafValues></_>
    <_>
      <internalNodes>
        0 -1 37856 -1.0937386192381382e-02</internalNodes>
      <leafValues>
        3.7945690751075745e-01 -8.5016697645187378e-01</leafValues></_>
    <_>
      <internalNodes>
        0 -1 132073 7.0101749151945114e-03</internalNodes>
      <leafValues>
        -6.5199178457260132e-01 5.4758536815643311e-01</leafValues></_>
    <_>
      <internalNodes>
        0 -1 163712 -1.3845199346542358e-01</internalNodes>
      <leafValues>
        3.4094524383544922e-01 -8.4928679466247559e-01</leafValues></_></weakClassifiers></stage4>
</opencv_storage>
