<?xml version="1.0"?>
<opencv_storage>
<stage3>
  <maxWeakCount>5</maxWeakCount>
  <stageThreshold>-1.6885414123535156e+00</stageThreshold>
  <weakClassifiers>
    <_>
      <internalNodes>
        0 -1 13666 -1.9584500789642334e-01</internalNodes>
      <leafValues>
        7.0515972375869751e-01 -8.6633038520812988e-01</leafValues></_>
    <_>
      <internalNodes>
        0 -1 192853 -1.5045752748847008e-02</internalNodes>
      <leafValues>
        6.2798452377319336e-01 -8.6872231960296631e-01</leafValues></_>
    <_>
      <internalNodes>
        0 -1 254944 -3.5134725272655487e-02</internalNodes>
      <leafValues>
        5.7477259635925293e-01 -8.2889288663864136e-01</leafValues></_>
    <_>
      <internalNodes>
        0 -1 49005 -1.7025485634803772e-02</internalNodes>
      <leafValues>
        4.3672078847885132e-01 -9.2701089382171631e-01</leafValues></_>
    <_>
      <internalNodes>
        0 -1 207746 -2.7566310018301010e-02</internalNodes>
      <leafValues>
        4.3868339061737061e-01 -8.4316956996917725e-01</leafValues></_></weakClassifiers></stage3>
</opencv_storage>
