<?xml version="1.0"?>
<opencv_storage>
<stage2>
  <maxWeakCount>8</maxWeakCount>
  <stageThreshold>-1.4427406787872314e+00</stageThreshold>
  <weakClassifiers>
    <_>
      <internalNodes>
        0 -1 585752 -5.6111928075551987e-02</internalNodes>
      <leafValues>
        3.9088729023933411e-01 -7.1902936697006226e-01</leafValues></_>
    <_>
      <internalNodes>
        0 -1 211316 4.7621950507164001e-02</internalNodes>
      <leafValues>
        -5.9305590391159058e-01 4.7701442241668701e-01</leafValues></_>
    <_>
      <internalNodes>
        0 -1 15624 5.6861825287342072e-03</internalNodes>
      <leafValues>
        -4.9280661344528198e-01 5.2760213613510132e-01</leafValues></_>
    <_>
      <internalNodes>
        0 -1 130545 -1.8322500400245190e-03</internalNodes>
      <leafValues>
        2.8792306780815125e-01 -7.6108354330062866e-01</leafValues></_>
    <_>
      <internalNodes>
        0 -1 120645 -1.2002133578062057e-01</internalNodes>
      <leafValues>
        -9.0647846460342407e-01 2.1441501379013062e-01</leafValues></_>
    <_>
      <internalNodes>
        0 -1 853592 7.3164179921150208e-03</internalNodes>
      <leafValues>
        -5.7572674751281738e-01 3.8159897923469543e-01</leafValues></_>
    <_>
      <internalNodes>
        0 -1 615355 3.3371327444911003e-03</internalNodes>
      <leafValues>
        -7.9962742328643799e-01 1.9068783521652222e-01</leafValues></_>
    <_>
      <internalNodes>
        0 -1 954285 -3.1140627339482307e-02</internalNodes>
      <leafValues>
        -7.7796512842178345e-01 2.4485212564468384e-01</leafValues></_></weakClassifiers></stage2>
</opencv_storage>
