<?xml version="1.0"?>
<opencv_storage>
<cascade>
  <stageType>BOOST</stageType>
  <featureType>HAAR</featureType>
  <height>15</height>
  <width>10</width>
  <stageParams>
    <boostType>GAB</boostType>
    <minHitRate>9.9500000476837158e-01</minHitRate>
    <maxFalseAlarm>4.0000000596046448e-01</maxFalseAlarm>
    <weightTrimRate>9.4999999999999996e-01</weightTrimRate>
    <maxDepth>1</maxDepth>
    <maxWeakCount>100</maxWeakCount></stageParams>
  <featureParams>
    <maxCatCount>0</maxCatCount>
    <featSize>1</featSize>
    <mode>ALL</mode></featureParams>
  <stageNum>8</stageNum>
  <stages>
    <!-- stage 0 -->
    <_>
      <maxWeakCount>2</maxWeakCount>
      <stageThreshold>-5.7680819183588028e-02</stageThreshold>
      <weakClassifiers>
        <_>
          <internalNodes>
            0 -1 9 -1.9002196192741394e-01</internalNodes>
          <leafValues>
            9.8003989458084106e-01 -9.9199199676513672e-01</leafValues></_>
        <_>
          <internalNodes>
            0 -1 20 -9.7404479980468750e-02</internalNodes>
          <leafValues>
            9.3431115150451660e-01 -9.9800378084182739e-01</leafValues></_></weakClassifiers></_>
    <!-- stage 1 -->
    <_>
      <maxWeakCount>2</maxWeakCount>
      <stageThreshold>-1.0389938205480576e-01</stageThreshold>
      <weakClassifiers>
        <_>
          <internalNodes>
            0 -1 14 2.4502284824848175e-01</internalNodes>
          <leafValues>
            -9.4664031267166138e-01 9.3852460384368896e-01</leafValues></_>
        <_>
          <internalNodes>
            0 -1 3 8.0350339412689209e-02</internalNodes>
          <leafValues>
            -9.7754555940628052e-01 8.4274095296859741e-01</leafValues></_></weakClassifiers></_>
    <!-- stage 2 -->
    <_>
      <maxWeakCount>3</maxWeakCount>
      <stageThreshold>-1.2368999719619751e+00</stageThreshold>
      <weakClassifiers>
        <_>
          <internalNodes>
            0 -1 9 -2.3702031373977661e-01</internalNodes>
          <leafValues>
            7.9584121704101562e-01 -9.4850671291351318e-01</leafValues></_>
        <_>
          <internalNodes>
            0 -1 21 -3.6693468689918518e-02</internalNodes>
          <leafValues>
            7.6776963472366333e-01 -8.4473466873168945e-01</leafValues></_>
        <_>
          <internalNodes>
            0 -1 23 5.7778144255280495e-03</internalNodes>
          <leafValues>
            -8.9072793722152710e-01 5.5634140968322754e-01</leafValues></_></weakClassifiers></_>
    <!-- stage 3 -->
    <_>
      <maxWeakCount>3</maxWeakCount>
      <stageThreshold>-1.2428293228149414e+00</stageThreshold>
      <weakClassifiers>
        <_>
          <internalNodes>
            0 -1 12 5.5746681988239288e-02</internalNodes>
          <leafValues>
            -8.9930897951126099e-01 8.4394252300262451e-01</leafValues></_>
        <_>
          <internalNodes>
            0 -1 6 -1.3922886550426483e-01</internalNodes>
          <leafValues>
            6.6230612993240356e-01 -8.9541691541671753e-01</leafValues></_>
        <_>
          <internalNodes>
            0 -1 10 -1.6925325989723206e-01</internalNodes>
          <leafValues>
            5.5189657211303711e-01 -8.4727305173873901e-01</leafValues></_></weakClassifiers></_>
    <!-- stage 4 -->
    <_>
      <maxWeakCount>5</maxWeakCount>
      <stageThreshold>-1.5555775165557861e+00</stageThreshold>
      <weakClassifiers>
        <_>
          <internalNodes>
            0 -1 13 -1.8655699491500854e-01</internalNodes>
          <leafValues>
            6.3028168678283691e-01 -9.2060083150863647e-01</leafValues></_>
        <_>
          <internalNodes>
            0 -1 16 4.4150743633508682e-02</internalNodes>
          <leafValues>
            -8.3613258600234985e-01 6.1265736818313599e-01</leafValues></_>
        <_>
          <internalNodes>
            0 -1 11 7.1452014148235321e-02</internalNodes>
          <leafValues>
            -9.2859244346618652e-01 4.6877878904342651e-01</leafValues></_>
        <_>
          <internalNodes>
            0 -1 5 -3.8091620802879333e-01</internalNodes>
          <leafValues>
            4.8956847190856934e-01 -8.1498509645462036e-01</leafValues></_>
        <_>
          <internalNodes>
            0 -1 0 -2.2005008533596992e-02</internalNodes>
          <leafValues>
            5.4736232757568359e-01 -7.3240244388580322e-01</leafValues></_></weakClassifiers></_>
    <!-- stage 5 -->
    <_>
      <maxWeakCount>4</maxWeakCount>
      <stageThreshold>-7.0535939931869507e-01</stageThreshold>
      <weakClassifiers>
        <_>
          <internalNodes>
            0 -1 9 -2.7098757028579712e-01</internalNodes>
          <leafValues>
            7.4774771928787231e-01 -7.8787881135940552e-01</leafValues></_>
        <_>
          <internalNodes>
            0 -1 1 -5.0627432763576508e-02</internalNodes>
          <leafValues>
            6.1807882785797119e-01 -8.3302032947540283e-01</leafValues></_>
        <_>
          <internalNodes>
            0 -1 7 -2.5844451785087585e-01</internalNodes>
          <leafValues>
            4.8009836673736572e-01 -8.3436495065689087e-01</leafValues></_>
        <_>
          <internalNodes>
            0 -1 22 -7.9759806394577026e-02</internalNodes>
          <leafValues>
            4.3544131517410278e-01 -8.9386516809463501e-01</leafValues></_></weakClassifiers></_>
    <!-- stage 6 -->
    <_>
      <maxWeakCount>6</maxWeakCount>
      <stageThreshold>-1.5737546682357788e+00</stageThreshold>
      <weakClassifiers>
        <_>
          <internalNodes>
            0 -1 15 -2.4483062326908112e-02</internalNodes>
          <leafValues>
            1. -7.3913043737411499e-01</leafValues></_>
        <_>
          <internalNodes>
            0 -1 12 5.7077560573816299e-02</internalNodes>
          <leafValues>
            -6.2493747472763062e-01 6.8893027305603027e-01</leafValues></_>
        <_>
          <internalNodes>
            0 -1 4 -1.6706794500350952e-01</internalNodes>
          <leafValues>
            5.3673845529556274e-01 -7.9148048162460327e-01</leafValues></_>
        <_>
          <internalNodes>
            0 -1 2 1.3558991253376007e-02</internalNodes>
          <leafValues>
            -5.7841819524765015e-01 7.6543033123016357e-01</leafValues></_>
        <_>
          <internalNodes>
            0 -1 18 -1.6165167093276978e-01</internalNodes>
          <leafValues>
            5.8375656604766846e-01 -6.0658454895019531e-01</leafValues></_>
        <_>
          <internalNodes>
            0 -1 8 5.1083475351333618e-02</internalNodes>
          <leafValues>
            -9.8534518480300903e-01 4.3857753276824951e-01</leafValues></_></weakClassifiers></_>
    <!-- stage 7 -->
    <_>
      <maxWeakCount>3</maxWeakCount>
      <stageThreshold>-9.8592519760131836e-01</stageThreshold>
      <weakClassifiers>
        <_>
          <internalNodes>
            0 -1 18 -1.6153317689895630e-01</internalNodes>
          <leafValues>
            1. -8.6393290758132935e-01</leafValues></_>
        <_>
          <internalNodes>
            0 -1 17 1.1023516952991486e-01</internalNodes>
          <leafValues>
            -8.0138754844665527e-01 8.1837868690490723e-01</leafValues></_>
        <_>
          <internalNodes>
            0 -1 19 -4.4648930430412292e-02</internalNodes>
          <leafValues>
            6.7939525842666626e-01 -7.8125959634780884e-01</leafValues></_></weakClassifiers></_></stages>
  <features>
    <_>
      <rects>
        <_>
          0 2 4 3 -1.</_>
        <_>
          2 2 2 3 2.</_></rects>
      <tilted>0</tilted></_>
    <_>
      <rects>
        <_>
          1 1 3 3 -1.</_>
        <_>
          2 2 1 1 9.</_></rects>
      <tilted>0</tilted></_>
    <_>
      <rects>
        <_>
          1 1 2 14 -1.</_>
        <_>
          1 1 1 7 2.</_>
        <_>
          2 8 1 7 2.</_></rects>
      <tilted>0</tilted></_>
    <_>
      <rects>
        <_>
          2 2 4 4 -1.</_>
        <_>
          2 4 4 2 2.</_></rects>
      <tilted>0</tilted></_>
    <_>
      <rects>
        <_>
          2 8 4 7 -1.</_>
        <_>
          4 8 2 7 2.</_></rects>
      <tilted>0</tilted></_>
    <_>
      <rects>
        <_>
          2 9 6 6 -1.</_>
        <_>
          4 11 2 2 9.</_></rects>
      <tilted>0</tilted></_>
    <_>
      <rects>
        <_>
          2 9 4 5 -1.</_>
        <_>
          4 9 2 5 2.</_></rects>
      <tilted>0</tilted></_>
    <_>
      <rects>
        <_>
          2 9 6 5 -1.</_>
        <_>
          4 9 2 5 3.</_></rects>
      <tilted>0</tilted></_>
    <_>
      <rects>
        <_>
          3 2 7 12 -1.</_>
        <_>
          3 5 7 6 2.</_></rects>
      <tilted>0</tilted></_>
    <_>
      <rects>
        <_>
          3 7 6 4 -1.</_>
        <_>
          5 7 2 4 3.</_></rects>
      <tilted>0</tilted></_>
    <_>
      <rects>
        <_>
          4 0 5 6 -1.</_>
        <_>
          4 2 5 2 3.</_></rects>
      <tilted>0</tilted></_>
    <_>
      <rects>
        <_>
          4 1 1 12 -1.</_>
        <_>
          4 4 1 6 2.</_></rects>
      <tilted>0</tilted></_>
    <_>
      <rects>
        <_>
          4 2 4 1 -1.</_>
        <_>
          5 3 2 1 2.</_></rects>
      <tilted>1</tilted></_>
    <_>
      <rects>
        <_>
          4 4 6 3 -1.</_>
        <_>
          6 4 2 3 3.</_></rects>
      <tilted>0</tilted></_>
    <_>
      <rects>
        <_>
          4 4 4 10 -1.</_>
        <_>
          4 4 2 5 2.</_>
        <_>
          6 9 2 5 2.</_></rects>
      <tilted>0</tilted></_>
    <_>
      <rects>
        <_>
          5 2 2 1 -1.</_>
        <_>
          5 2 1 1 2.</_></rects>
      <tilted>1</tilted></_>
    <_>
      <rects>
        <_>
          5 2 1 6 -1.</_>
        <_>
          5 4 1 2 3.</_></rects>
      <tilted>0</tilted></_>
    <_>
      <rects>
        <_>
          5 3 4 2 -1.</_>
        <_>
          5 3 2 2 2.</_></rects>
      <tilted>1</tilted></_>
    <_>
      <rects>
        <_>
          5 8 4 3 -1.</_>
        <_>
          6 9 2 3 2.</_></rects>
      <tilted>1</tilted></_>
    <_>
      <rects>
        <_>
          6 1 3 3 -1.</_>
        <_>
          7 2 1 1 9.</_></rects>
      <tilted>0</tilted></_>
    <_>
      <rects>
        <_>
          6 6 4 3 -1.</_>
        <_>
          7 7 2 3 2.</_></rects>
      <tilted>1</tilted></_>
    <_>
      <rects>
        <_>
          7 0 1 8 -1.</_>
        <_>
          7 2 1 4 2.</_></rects>
      <tilted>0</tilted></_>
    <_>
      <rects>
        <_>
          7 0 3 4 -1.</_>
        <_>
          6 1 3 2 2.</_></rects>
      <tilted>1</tilted></_>
    <_>
      <rects>
        <_>
          8 2 2 1 -1.</_>
        <_>
          9 2 1 1 2.</_></rects>
      <tilted>0</tilted></_></features></cascade>
</opencv_storage>
