<?xml version="1.0"?>
<opencv_storage>
<cascade>
  <stageType>BOOST</stageType>
  <featureType>HAAR</featureType>
  <height>15</height>
  <width>10</width>
  <stageParams>
    <boostType>GAB</boostType>
    <minHitRate>9.9500000476837158e-01</minHitRate>
    <maxFalseAlarm>4.0000000596046448e-01</maxFalseAlarm>
    <weightTrimRate>9.4999999999999996e-01</weightTrimRate>
    <maxDepth>1</maxDepth>
    <maxWeakCount>100</maxWeakCount></stageParams>
  <featureParams>
    <maxCatCount>0</maxCatCount>
    <featSize>1</featSize>
    <mode>ALL</mode></featureParams>
  <stageNum>11</stageNum>
  <stages>
    <!-- stage 0 -->
    <_>
      <maxWeakCount>2</maxWeakCount>
      <stageThreshold>-2.3135265335440636e-02</stageThreshold>
      <weakClassifiers>
        <_>
          <internalNodes>
            0 -1 23 -9.0056717395782471e-02</internalNodes>
          <leafValues>
            9.7560977935791016e-01 -9.7222220897674561e-01</leafValues></_>
        <_>
          <internalNodes>
            0 -1 25 -1.3678973913192749e-01</internalNodes>
          <leafValues>
            9.4908696413040161e-01 -9.8450434207916260e-01</leafValues></_></weakClassifiers></_>
    <!-- stage 1 -->
    <_>
      <maxWeakCount>4</maxWeakCount>
      <stageThreshold>-2.0363833904266357e+00</stageThreshold>
      <weakClassifiers>
        <_>
          <internalNodes>
            0 -1 4 -6.7888927459716797e-01</internalNodes>
          <leafValues>
            8.1568628549575806e-01 -9.2525249719619751e-01</leafValues></_>
        <_>
          <internalNodes>
            0 -1 21 7.7498152852058411e-02</internalNodes>
          <leafValues>
            -8.4489101171493530e-01 8.0696910619735718e-01</leafValues></_>
        <_>
          <internalNodes>
            0 -1 26 -1.5440589189529419e-01</internalNodes>
          <leafValues>
            7.6803547143936157e-01 -7.9981154203414917e-01</leafValues></_>
        <_>
          <internalNodes>
            0 -1 12 -1.6322338581085205e-01</internalNodes>
          <leafValues>
            5.3357177972793579e-01 -9.1290938854217529e-01</leafValues></_></weakClassifiers></_>
    <!-- stage 2 -->
    <_>
      <maxWeakCount>3</maxWeakCount>
      <stageThreshold>-1.2734054327011108e+00</stageThreshold>
      <weakClassifiers>
        <_>
          <internalNodes>
            0 -1 30 -1.7438462376594543e-01</internalNodes>
          <leafValues>
            7.1375465393066406e-01 -9.1891890764236450e-01</leafValues></_>
        <_>
          <internalNodes>
            0 -1 39 -7.1060962975025177e-02</internalNodes>
          <leafValues>
            6.5185171365737915e-01 -9.0375107526779175e-01</leafValues></_>
        <_>
          <internalNodes>
            0 -1 18 7.5043156743049622e-02</internalNodes>
          <leafValues>
            -8.4214270114898682e-01 5.4926455020904541e-01</leafValues></_></weakClassifiers></_>
    <!-- stage 3 -->
    <_>
      <maxWeakCount>3</maxWeakCount>
      <stageThreshold>-1.1432380676269531e+00</stageThreshold>
      <weakClassifiers>
        <_>
          <internalNodes>
            0 -1 4 -7.0617449283599854e-01</internalNodes>
          <leafValues>
            7.3128598928451538e-01 -8.9989787340164185e-01</leafValues></_>
        <_>
          <internalNodes>
            0 -1 19 -6.6515207290649414e-02</internalNodes>
          <leafValues>
            7.0595884323120117e-01 -8.2068961858749390e-01</leafValues></_>
        <_>
          <internalNodes>
            0 -1 24 -2.1002076566219330e-01</internalNodes>
          <leafValues>
            5.7734942436218262e-01 -8.6039745807647705e-01</leafValues></_></weakClassifiers></_>
    <!-- stage 4 -->
    <_>
      <maxWeakCount>3</maxWeakCount>
      <stageThreshold>-1.0431638956069946e+00</stageThreshold>
      <weakClassifiers>
        <_>
          <internalNodes>
            0 -1 29 1.4615513384342194e-01</internalNodes>
          <leafValues>
            -8.9537221193313599e-01 7.7075099945068359e-01</leafValues></_>
        <_>
          <internalNodes>
            0 -1 37 -8.4373548626899719e-02</internalNodes>
          <leafValues>
            5.7466185092926025e-01 -8.4460633993148804e-01</leafValues></_>
        <_>
          <internalNodes>
            0 -1 21 8.6513347923755646e-02</internalNodes>
          <leafValues>
            -7.2245347499847412e-01 7.4549573659896851e-01</leafValues></_></weakClassifiers></_>
    <!-- stage 5 -->
    <_>
      <maxWeakCount>4</maxWeakCount>
      <stageThreshold>-9.9756109714508057e-01</stageThreshold>
      <weakClassifiers>
        <_>
          <internalNodes>
            0 -1 11 -3.0065155029296875e-01</internalNodes>
          <leafValues>
            5.9154927730560303e-01 -8.9699572324752808e-01</leafValues></_>
        <_>
          <internalNodes>
            0 -1 35 -8.1908732652664185e-02</internalNodes>
          <leafValues>
            4.7824871540069580e-01 -8.5484510660171509e-01</leafValues></_>
        <_>
          <internalNodes>
            0 -1 40 -9.3404620885848999e-02</internalNodes>
          <leafValues>
            4.9320751428604126e-01 -9.4346314668655396e-01</leafValues></_>
        <_>
          <internalNodes>
            0 -1 0 -2.9784947633743286e-01</internalNodes>
          <leafValues>
            3.6464902758598328e-01 -9.1806513071060181e-01</leafValues></_></weakClassifiers></_>
    <!-- stage 6 -->
    <_>
      <maxWeakCount>5</maxWeakCount>
      <stageThreshold>-1.6719392538070679e+00</stageThreshold>
      <weakClassifiers>
        <_>
          <internalNodes>
            0 -1 27 7.9903259873390198e-02</internalNodes>
          <leafValues>
            -8.3529412746429443e-01 7.3333334922790527e-01</leafValues></_>
        <_>
          <internalNodes>
            0 -1 13 -1.2529803812503815e-01</internalNodes>
          <leafValues>
            5.1585018634796143e-01 -8.3116030693054199e-01</leafValues></_>
        <_>
          <internalNodes>
            0 -1 38 -1.8179979175329208e-02</internalNodes>
          <leafValues>
            3.8350149989128113e-01 -8.5178530216217041e-01</leafValues></_>
        <_>
          <internalNodes>
            0 -1 3 -2.0574761554598808e-02</internalNodes>
          <leafValues>
            5.1983577013015747e-01 -7.5650644302368164e-01</leafValues></_>
        <_>
          <internalNodes>
            0 -1 5 -1.3155590742826462e-02</internalNodes>
          <leafValues>
            3.6752003431320190e-01 -8.9685034751892090e-01</leafValues></_></weakClassifiers></_>
    <!-- stage 7 -->
    <_>
      <maxWeakCount>6</maxWeakCount>
      <stageThreshold>-1.2875933647155762e+00</stageThreshold>
      <weakClassifiers>
        <_>
          <internalNodes>
            0 -1 28 9.3706563115119934e-02</internalNodes>
          <leafValues>
            -8.3244961500167847e-01 5.1166963577270508e-01</leafValues></_>
        <_>
          <internalNodes>
            0 -1 16 -5.9564735740423203e-02</internalNodes>
          <leafValues>
            5.2425295114517212e-01 -7.7438551187515259e-01</leafValues></_>
        <_>
          <internalNodes>
            0 -1 32 3.4069299697875977e-02</internalNodes>
          <leafValues>
            -8.1841617822647095e-01 4.4031584262847900e-01</leafValues></_>
        <_>
          <internalNodes>
            0 -1 15 5.6294865906238556e-02</internalNodes>
          <leafValues>
            -8.9193367958068848e-01 4.2807674407958984e-01</leafValues></_>
        <_>
          <internalNodes>
            0 -1 17 -7.1210354566574097e-02</internalNodes>
          <leafValues>
            3.1420281529426575e-01 -9.1027355194091797e-01</leafValues></_>
        <_>
          <internalNodes>
            0 -1 39 -8.2342565059661865e-02</internalNodes>
          <leafValues>
            4.5665669441223145e-01 -6.6743981838226318e-01</leafValues></_></weakClassifiers></_>
    <!-- stage 8 -->
    <_>
      <maxWeakCount>7</maxWeakCount>
      <stageThreshold>-1.5055831670761108e+00</stageThreshold>
      <weakClassifiers>
        <_>
          <internalNodes>
            0 -1 29 1.5443049371242523e-01</internalNodes>
          <leafValues>
            -8.4564501047134399e-01 4.5025295019149780e-01</leafValues></_>
        <_>
          <internalNodes>
            0 -1 8 -2.2680088877677917e-02</internalNodes>
          <leafValues>
            5.6269496679306030e-01 -6.3538420200347900e-01</leafValues></_>
        <_>
          <internalNodes>
            0 -1 34 -9.1372027993202209e-02</internalNodes>
          <leafValues>
            6.2894397974014282e-01 -5.7515704631805420e-01</leafValues></_>
        <_>
          <internalNodes>
            0 -1 31 2.5147825479507446e-02</internalNodes>
          <leafValues>
            -8.5922193527221680e-01 3.9287501573562622e-01</leafValues></_>
        <_>
          <internalNodes>
            0 -1 2 9.7281811758875847e-03</internalNodes>
          <leafValues>
            -7.1086418628692627e-01 4.1340902447700500e-01</leafValues></_>
        <_>
          <internalNodes>
            0 -1 22 5.5891219526529312e-02</internalNodes>
          <leafValues>
            -6.4747452735900879e-01 5.0713533163070679e-01</leafValues></_>
        <_>
          <internalNodes>
            0 -1 36 7.3619127273559570e-02</internalNodes>
          <leafValues>
            -8.1589603424072266e-01 3.9179363846778870e-01</leafValues></_></weakClassifiers></_>
    <!-- stage 9 -->
    <_>
      <maxWeakCount>5</maxWeakCount>
      <stageThreshold>-1.1692429780960083e+00</stageThreshold>
      <weakClassifiers>
        <_>
          <internalNodes>
            0 -1 14 -2.5263048708438873e-02</internalNodes>
          <leafValues>
            8.3027523756027222e-01 -8.1015038490295410e-01</leafValues></_>
        <_>
          <internalNodes>
            0 -1 1 9.6236616373062134e-03</internalNodes>
          <leafValues>
            -7.9996758699417114e-01 5.8738005161285400e-01</leafValues></_>
        <_>
          <internalNodes>
            0 -1 20 -8.9002162218093872e-02</internalNodes>
          <leafValues>
            5.2753132581710815e-01 -8.4170508384704590e-01</leafValues></_>
        <_>
          <internalNodes>
            0 -1 6 -9.5658823847770691e-03</internalNodes>
          <leafValues>
            6.8536436557769775e-01 -7.1292597055435181e-01</leafValues></_>
        <_>
          <internalNodes>
            0 -1 7 -1.7265386413782835e-03</internalNodes>
          <leafValues>
            -7.6011091470718384e-01 6.2626957893371582e-01</leafValues></_></weakClassifiers></_>
    <!-- stage 10 -->
    <_>
      <maxWeakCount>3</maxWeakCount>
      <stageThreshold>-7.4661034345626831e-01</stageThreshold>
      <weakClassifiers>
        <_>
          <internalNodes>
            0 -1 33 4.2845021933317184e-02</internalNodes>
          <leafValues>
            -8.6219739913940430e-01 1.</leafValues></_>
        <_>
          <internalNodes>
            0 -1 10 -2.2300578653812408e-01</internalNodes>
          <leafValues>
            1. -6.5784144401550293e-01</leafValues></_>
        <_>
          <internalNodes>
            0 -1 9 3.0935304239392281e-03</internalNodes>
          <leafValues>
            -7.2181665897369385e-01 7.7342849969863892e-01</leafValues></_></weakClassifiers></_></stages>
  <features>
    <_>
      <rects>
        <_>
          0 2 8 10 -1.</_>
        <_>
          4 2 4 10 2.</_></rects>
      <tilted>0</tilted></_>
    <_>
      <rects>
        <_>
          0 5 10 4 -1.</_>
        <_>
          0 6 10 2 2.</_></rects>
      <tilted>0</tilted></_>
    <_>
      <rects>
        <_>
          0 6 4 8 -1.</_>
        <_>
          0 6 2 4 2.</_>
        <_>
          2 10 2 4 2.</_></rects>
      <tilted>0</tilted></_>
    <_>
      <rects>
        <_>
          1 1 6 2 -1.</_>
        <_>
          1 1 3 1 2.</_>
        <_>
          4 2 3 1 2.</_></rects>
      <tilted>0</tilted></_>
    <_>
      <rects>
        <_>
          1 1 9 6 -1.</_>
        <_>
          4 3 3 2 9.</_></rects>
      <tilted>0</tilted></_>
    <_>
      <rects>
        <_>
          1 2 2 6 -1.</_>
        <_>
          2 2 1 6 2.</_></rects>
      <tilted>0</tilted></_>
    <_>
      <rects>
        <_>
          1 9 9 6 -1.</_>
        <_>
          1 11 9 2 3.</_></rects>
      <tilted>0</tilted></_>
    <_>
      <rects>
        <_>
          1 11 4 3 -1.</_>
        <_>
          3 11 2 3 2.</_></rects>
      <tilted>0</tilted></_>
    <_>
      <rects>
        <_>
          1 11 9 4 -1.</_>
        <_>
          1 12 9 2 2.</_></rects>
      <tilted>0</tilted></_>
    <_>
      <rects>
        <_>
          1 13 8 2 -1.</_>
        <_>
          1 13 4 1 2.</_>
        <_>
          5 14 4 1 2.</_></rects>
      <tilted>0</tilted></_>
    <_>
      <rects>
        <_>
          2 0 8 14 -1.</_>
        <_>
          2 0 4 7 2.</_>
        <_>
          6 7 4 7 2.</_></rects>
      <tilted>0</tilted></_>
    <_>
      <rects>
        <_>
          2 1 3 9 -1.</_>
        <_>
          3 4 1 3 9.</_></rects>
      <tilted>0</tilted></_>
    <_>
      <rects>
        <_>
          2 1 8 4 -1.</_>
        <_>
          4 1 4 4 2.</_></rects>
      <tilted>0</tilted></_>
    <_>
      <rects>
        <_>
          2 2 4 6 -1.</_>
        <_>
          2 4 4 2 3.</_></rects>
      <tilted>0</tilted></_>
    <_>
      <rects>
        <_>
          2 6 6 2 -1.</_>
        <_>
          2 6 3 1 2.</_>
        <_>
          5 7 3 1 2.</_></rects>
      <tilted>0</tilted></_>
    <_>
      <rects>
        <_>
          2 6 8 1 -1.</_>
        <_>
          2 6 4 1 2.</_></rects>
      <tilted>1</tilted></_>
    <_>
      <rects>
        <_>
          3 2 6 1 -1.</_>
        <_>
          5 2 2 1 3.</_></rects>
      <tilted>0</tilted></_>
    <_>
      <rects>
        <_>
          3 2 5 6 -1.</_>
        <_>
          3 4 5 2 3.</_></rects>
      <tilted>0</tilted></_>
    <_>
      <rects>
        <_>
          3 4 2 6 -1.</_>
        <_>
          3 7 2 3 2.</_></rects>
      <tilted>0</tilted></_>
    <_>
      <rects>
        <_>
          3 5 5 2 -1.</_>
        <_>
          3 5 5 1 2.</_></rects>
      <tilted>1</tilted></_>
    <_>
      <rects>
        <_>
          4 0 1 9 -1.</_>
        <_>
          4 3 1 3 3.</_></rects>
      <tilted>0</tilted></_>
    <_>
      <rects>
        <_>
          4 5 4 2 -1.</_>
        <_>
          5 6 2 2 2.</_></rects>
      <tilted>1</tilted></_>
    <_>
      <rects>
        <_>
          4 5 4 4 -1.</_>
        <_>
          3 6 4 2 2.</_></rects>
      <tilted>1</tilted></_>
    <_>
      <rects>
        <_>
          5 1 3 3 -1.</_>
        <_>
          6 2 1 3 3.</_></rects>
      <tilted>1</tilted></_>
    <_>
      <rects>
        <_>
          5 2 4 12 -1.</_>
        <_>
          6 2 2 12 2.</_></rects>
      <tilted>0</tilted></_>
    <_>
      <rects>
        <_>
          5 3 4 12 -1.</_>
        <_>
          6 3 2 12 2.</_></rects>
      <tilted>0</tilted></_>
    <_>
      <rects>
        <_>
          5 3 4 4 -1.</_>
        <_>
          5 3 4 2 2.</_></rects>
      <tilted>1</tilted></_>
    <_>
      <rects>
        <_>
          5 4 3 2 -1.</_>
        <_>
          6 5 1 2 3.</_></rects>
      <tilted>1</tilted></_>
    <_>
      <rects>
        <_>
          5 4 3 3 -1.</_>
        <_>
          6 5 1 3 3.</_></rects>
      <tilted>1</tilted></_>
    <_>
      <rects>
        <_>
          6 0 2 5 -1.</_>
        <_>
          6 0 1 5 2.</_></rects>
      <tilted>1</tilted></_>
    <_>
      <rects>
        <_>
          6 0 3 5 -1.</_>
        <_>
          7 1 1 5 3.</_></rects>
      <tilted>1</tilted></_>
    <_>
      <rects>
        <_>
          6 0 4 4 -1.</_>
        <_>
          6 0 2 2 2.</_>
        <_>
          8 2 2 2 2.</_></rects>
      <tilted>0</tilted></_>
    <_>
      <rects>
        <_>
          6 1 4 2 -1.</_>
        <_>
          6 1 4 1 2.</_></rects>
      <tilted>1</tilted></_>
    <_>
      <rects>
        <_>
          6 6 2 4 -1.</_>
        <_>
          6 6 1 4 2.</_></rects>
      <tilted>1</tilted></_>
    <_>
      <rects>
        <_>
          6 7 4 2 -1.</_>
        <_>
          7 8 2 2 2.</_></rects>
      <tilted>1</tilted></_>
    <_>
      <rects>
        <_>
          6 9 4 2 -1.</_>
        <_>
          7 10 2 2 2.</_></rects>
      <tilted>1</tilted></_>
    <_>
      <rects>
        <_>
          6 12 4 3 -1.</_>
        <_>
          8 12 2 3 2.</_></rects>
      <tilted>0</tilted></_>
    <_>
      <rects>
        <_>
          7 0 3 4 -1.</_>
        <_>
          6 1 3 2 2.</_></rects>
      <tilted>1</tilted></_>
    <_>
      <rects>
        <_>
          7 12 1 2 -1.</_>
        <_>
          7 12 1 1 2.</_></rects>
      <tilted>1</tilted></_>
    <_>
      <rects>
        <_>
          8 9 2 4 -1.</_>
        <_>
          7 10 2 2 2.</_></rects>
      <tilted>1</tilted></_>
    <_>
      <rects>
        <_>
          9 0 1 8 -1.</_>
        <_>
          7 2 1 4 2.</_></rects>
      <tilted>1</tilted></_></features></cascade>
</opencv_storage>
