<?xml version="1.0"?>
<opencv_storage>
<cascade>
  <stageType>BOOST</stageType>
  <featureType>HAAR</featureType>
  <height>30</height>
  <width>20</width>
  <stageParams>
    <boostType>GAB</boostType>
    <minHitRate>9.9500000476837158e-01</minHitRate>
    <maxFalseAlarm>4.0000000596046448e-01</maxFalseAlarm>
    <weightTrimRate>9.4999999999999996e-01</weightTrimRate>
    <maxDepth>1</maxDepth>
    <maxWeakCount>100</maxWeakCount></stageParams>
  <featureParams>
    <maxCatCount>0</maxCatCount>
    <featSize>1</featSize>
    <mode>ALL</mode></featureParams>
  <stageNum>7</stageNum>
  <stages>
    <!-- stage 0 -->
    <_>
      <maxWeakCount>2</maxWeakCount>
      <stageThreshold>-7.0720873773097992e-02</stageThreshold>
      <weakClassifiers>
        <_>
          <internalNodes>
            0 -1 4 7.1762762963771820e-02</internalNodes>
          <leafValues>
            -9.9394553899765015e-01 9.5284873247146606e-01</leafValues></_>
        <_>
          <internalNodes>
            0 -1 0 -6.2120959162712097e-02</internalNodes>
          <leafValues>
            9.2322462797164917e-01 -9.7455340623855591e-01</leafValues></_></weakClassifiers></_>
    <!-- stage 1 -->
    <_>
      <maxWeakCount>2</maxWeakCount>
      <stageThreshold>-1.0253208130598068e-01</stageThreshold>
      <weakClassifiers>
        <_>
          <internalNodes>
            0 -1 7 -2.1882711350917816e-01</internalNodes>
          <leafValues>
            8.5660380125045776e-01 -9.8350512981414795e-01</leafValues></_>
        <_>
          <internalNodes>
            0 -1 16 3.4124672412872314e-02</internalNodes>
          <leafValues>
            -9.3767070770263672e-01 8.8097310066223145e-01</leafValues></_></weakClassifiers></_>
    <!-- stage 2 -->
    <_>
      <maxWeakCount>3</maxWeakCount>
      <stageThreshold>-1.2026109695434570e+00</stageThreshold>
      <weakClassifiers>
        <_>
          <internalNodes>
            0 -1 9 -7.1528621017932892e-02</internalNodes>
          <leafValues>
            8.9775049686431885e-01 -9.2878335714340210e-01</leafValues></_>
        <_>
          <internalNodes>
            0 -1 15 -1.0387373715639114e-01</internalNodes>
          <leafValues>
            6.2312781810760498e-01 -9.5303535461425781e-01</leafValues></_>
        <_>
          <internalNodes>
            0 -1 8 -1.5450118482112885e-01</internalNodes>
          <leafValues>
            6.7920780181884766e-01 -8.9004790782928467e-01</leafValues></_></weakClassifiers></_>
    <!-- stage 3 -->
    <_>
      <maxWeakCount>3</maxWeakCount>
      <stageThreshold>-1.0177292823791504e+00</stageThreshold>
      <weakClassifiers>
        <_>
          <internalNodes>
            0 -1 21 -3.0634924769401550e-02</internalNodes>
          <leafValues>
            8.0079680681228638e-01 -9.0380764007568359e-01</leafValues></_>
        <_>
          <internalNodes>
            0 -1 5 -1.0588563978672028e-01</internalNodes>
          <leafValues>
            8.4840708971023560e-01 -7.5252562761306763e-01</leafValues></_>
        <_>
          <internalNodes>
            0 -1 17 -7.4328169226646423e-02</internalNodes>
          <leafValues>
            6.3860398530960083e-01 -8.8686561584472656e-01</leafValues></_></weakClassifiers></_>
    <!-- stage 4 -->
    <_>
      <maxWeakCount>5</maxWeakCount>
      <stageThreshold>-1.3148931264877319e+00</stageThreshold>
      <weakClassifiers>
        <_>
          <internalNodes>
            0 -1 13 7.1954235434532166e-02</internalNodes>
          <leafValues>
            -8.5560977458953857e-01 7.9368418455123901e-01</leafValues></_>
        <_>
          <internalNodes>
            0 -1 6 2.2785227745771408e-02</internalNodes>
          <leafValues>
            -7.5703978538513184e-01 6.8030828237533569e-01</leafValues></_>
        <_>
          <internalNodes>
            0 -1 2 1.1352892220020294e-01</internalNodes>
          <leafValues>
            -8.2093119621276855e-01 6.1204952001571655e-01</leafValues></_>
        <_>
          <internalNodes>
            0 -1 11 -3.3253950532525778e-03</internalNodes>
          <leafValues>
            4.2237871885299683e-01 -9.0117216110229492e-01</leafValues></_>
        <_>
          <internalNodes>
            0 -1 18 -7.6714068651199341e-02</internalNodes>
          <leafValues>
            7.2156971693038940e-01 -7.3667174577713013e-01</leafValues></_></weakClassifiers></_>
    <!-- stage 5 -->
    <_>
      <maxWeakCount>5</maxWeakCount>
      <stageThreshold>-1.0373748540878296e+00</stageThreshold>
      <weakClassifiers>
        <_>
          <internalNodes>
            0 -1 3 -1.2517321854829788e-02</internalNodes>
          <leafValues>
            8.3333331346511841e-01 -8.6240309476852417e-01</leafValues></_>
        <_>
          <internalNodes>
            0 -1 12 3.2997544854879379e-02</internalNodes>
          <leafValues>
            -7.9066377878189087e-01 7.0128011703491211e-01</leafValues></_>
        <_>
          <internalNodes>
            0 -1 10 6.1797469854354858e-02</internalNodes>
          <leafValues>
            -6.3627636432647705e-01 8.4428000450134277e-01</leafValues></_>
        <_>
          <internalNodes>
            0 -1 19 -1.2142991181463003e-03</internalNodes>
          <leafValues>
            6.6705089807510376e-01 -6.4912873506546021e-01</leafValues></_>
        <_>
          <internalNodes>
            0 -1 1 4.9168515950441360e-02</internalNodes>
          <leafValues>
            -8.1269323825836182e-01 5.8491742610931396e-01</leafValues></_></weakClassifiers></_>
    <!-- stage 6 -->
    <_>
      <maxWeakCount>2</maxWeakCount>
      <stageThreshold>2.7613412588834763e-02</stageThreshold>
      <weakClassifiers>
        <_>
          <internalNodes>
            0 -1 14 -2.4271219968795776e-02</internalNodes>
          <leafValues>
            1. -9.7238659858703613e-01</leafValues></_>
        <_>
          <internalNodes>
            0 -1 20 -1.6791123896837234e-02</internalNodes>
          <leafValues>
            1. -9.4443666934967041e-01</leafValues></_></weakClassifiers></_></stages>
  <features>
    <_>
      <rects>
        <_>
          1 10 6 15 -1.</_>
        <_>
          3 10 2 15 3.</_></rects>
      <tilted>0</tilted></_>
    <_>
      <rects>
        <_>
          1 14 8 12 -1.</_>
        <_>
          1 14 4 6 2.</_>
        <_>
          5 20 4 6 2.</_></rects>
      <tilted>0</tilted></_>
    <_>
      <rects>
        <_>
          2 22 16 6 -1.</_>
        <_>
          6 22 8 6 2.</_></rects>
      <tilted>0</tilted></_>
    <_>
      <rects>
        <_>
          3 24 3 6 -1.</_>
        <_>
          4 26 1 2 9.</_></rects>
      <tilted>0</tilted></_>
    <_>
      <rects>
        <_>
          4 10 12 5 -1.</_>
        <_>
          7 10 6 5 2.</_></rects>
      <tilted>0</tilted></_>
    <_>
      <rects>
        <_>
          4 11 15 4 -1.</_>
        <_>
          4 11 15 2 2.</_></rects>
      <tilted>1</tilted></_>
    <_>
      <rects>
        <_>
          4 12 12 1 -1.</_>
        <_>
          7 12 6 1 2.</_></rects>
      <tilted>0</tilted></_>
    <_>
      <rects>
        <_>
          6 5 11 21 -1.</_>
        <_>
          6 12 11 7 3.</_></rects>
      <tilted>0</tilted></_>
    <_>
      <rects>
        <_>
          8 8 4 21 -1.</_>
        <_>
          8 15 4 7 3.</_></rects>
      <tilted>0</tilted></_>
    <_>
      <rects>
        <_>
          8 15 11 4 -1.</_>
        <_>
          8 15 11 2 2.</_></rects>
      <tilted>1</tilted></_>
    <_>
      <rects>
        <_>
          9 17 4 6 -1.</_>
        <_>
          7 19 4 2 3.</_></rects>
      <tilted>1</tilted></_>
    <_>
      <rects>
        <_>
          9 19 2 2 -1.</_>
        <_>
          9 19 2 1 2.</_></rects>
      <tilted>1</tilted></_>
    <_>
      <rects>
        <_>
          10 8 8 1 -1.</_>
        <_>
          10 8 4 1 2.</_></rects>
      <tilted>1</tilted></_>
    <_>
      <rects>
        <_>
          10 16 9 2 -1.</_>
        <_>
          13 19 3 2 3.</_></rects>
      <tilted>1</tilted></_>
    <_>
      <rects>
        <_>
          11 4 8 26 -1.</_>
        <_>
          11 4 4 13 2.</_>
        <_>
          15 17 4 13 2.</_></rects>
      <tilted>0</tilted></_>
    <_>
      <rects>
        <_>
          12 9 8 21 -1.</_>
        <_>
          14 9 4 21 2.</_></rects>
      <tilted>0</tilted></_>
    <_>
      <rects>
        <_>
          12 17 6 2 -1.</_>
        <_>
          14 19 2 2 3.</_></rects>
      <tilted>1</tilted></_>
    <_>
      <rects>
        <_>
          13 0 2 27 -1.</_>
        <_>
          13 9 2 9 3.</_></rects>
      <tilted>0</tilted></_>
    <_>
      <rects>
        <_>
          14 1 3 16 -1.</_>
        <_>
          14 9 3 8 2.</_></rects>
      <tilted>0</tilted></_>
    <_>
      <rects>
        <_>
          14 20 5 4 -1.</_>
        <_>
          14 22 5 2 2.</_></rects>
      <tilted>0</tilted></_>
    <_>
      <rects>
        <_>
          16 2 1 26 -1.</_>
        <_>
          16 15 1 13 2.</_></rects>
      <tilted>0</tilted></_>
    <_>
      <rects>
        <_>
          18 12 2 15 -1.</_>
        <_>
          18 12 1 15 2.</_></rects>
      <tilted>1</tilted></_></features></cascade>
</opencv_storage>
