<?xml version="1.0"?>
<opencv_storage>
<cascade>
  <stageType>BOOST</stageType>
  <featureType>HAAR</featureType>
  <height>30</height>
  <width>20</width>
  <stageParams>
    <boostType>GAB</boostType>
    <minHitRate>9.9500000476837158e-01</minHitRate>
    <maxFalseAlarm>4.0000000596046448e-01</maxFalseAlarm>
    <weightTrimRate>9.4999999999999996e-01</weightTrimRate>
    <maxDepth>1</maxDepth>
    <maxWeakCount>100</maxWeakCount></stageParams>
  <featureParams>
    <maxCatCount>0</maxCatCount>
    <featSize>1</featSize>
    <mode>ALL</mode></featureParams>
  <stageNum>6</stageNum>
  <stages>
    <!-- stage 0 -->
    <_>
      <maxWeakCount>2</maxWeakCount>
      <stageThreshold>-2.3369785398244858e-02</stageThreshold>
      <weakClassifiers>
        <_>
          <internalNodes>
            0 -1 9 3.3509647846221924e-01</internalNodes>
          <leafValues>
            -9.9001246690750122e-01 9.8496240377426147e-01</leafValues></_>
        <_>
          <internalNodes>
            0 -1 13 -3.0266409739851952e-02</internalNodes>
          <leafValues>
            9.6664267778396606e-01 -9.6542340517044067e-01</leafValues></_></weakClassifiers></_>
    <!-- stage 1 -->
    <_>
      <maxWeakCount>3</maxWeakCount>
      <stageThreshold>-1.1211363077163696e+00</stageThreshold>
      <weakClassifiers>
        <_>
          <internalNodes>
            0 -1 4 -5.2067153155803680e-02</internalNodes>
          <leafValues>
            9.3611794710159302e-01 -9.8486757278442383e-01</leafValues></_>
        <_>
          <internalNodes>
            0 -1 12 -9.8697371780872345e-02</internalNodes>
          <leafValues>
            8.9278852939605713e-01 -9.1885912418365479e-01</leafValues></_>
        <_>
          <internalNodes>
            0 -1 15 1.0272914171218872e-01</internalNodes>
          <leafValues>
            -9.4352334737777710e-01 7.8259044885635376e-01</leafValues></_></weakClassifiers></_>
    <!-- stage 2 -->
    <_>
      <maxWeakCount>3</maxWeakCount>
      <stageThreshold>-1.0910850763320923e+00</stageThreshold>
      <weakClassifiers>
        <_>
          <internalNodes>
            0 -1 6 -7.4426785111427307e-02</internalNodes>
          <leafValues>
            9.2802053689956665e-01 -9.3834769725799561e-01</leafValues></_>
        <_>
          <internalNodes>
            0 -1 7 -2.1668871864676476e-02</internalNodes>
          <leafValues>
            7.6061409711837769e-01 -9.5839232206344604e-01</leafValues></_>
        <_>
          <internalNodes>
            0 -1 17 -3.4731559455394745e-02</internalNodes>
          <leafValues>
            8.3785390853881836e-01 -9.1335141658782959e-01</leafValues></_></weakClassifiers></_>
    <!-- stage 3 -->
    <_>
      <maxWeakCount>3</maxWeakCount>
      <stageThreshold>-1.1196647882461548e+00</stageThreshold>
      <weakClassifiers>
        <_>
          <internalNodes>
            0 -1 2 -1.0443381220102310e-01</internalNodes>
          <leafValues>
            7.6309794187545776e-01 -9.6583443880081177e-01</leafValues></_>
        <_>
          <internalNodes>
            0 -1 11 -1.0268240422010422e-01</internalNodes>
          <leafValues>
            7.6454800367355347e-01 -9.2642956972122192e-01</leafValues></_>
        <_>
          <internalNodes>
            0 -1 1 -3.9775714278221130e-02</internalNodes>
          <leafValues>
            7.7259922027587891e-01 -8.2729858160018921e-01</leafValues></_></weakClassifiers></_>
    <!-- stage 4 -->
    <_>
      <maxWeakCount>4</maxWeakCount>
      <stageThreshold>-5.9473335742950439e-01</stageThreshold>
      <weakClassifiers>
        <_>
          <internalNodes>
            0 -1 3 -2.1151591837406158e-01</internalNodes>
          <leafValues>
            7.1219509840011597e-01 -8.7594938278198242e-01</leafValues></_>
        <_>
          <internalNodes>
            0 -1 14 2.3201767355203629e-02</internalNodes>
          <leafValues>
            -9.0238076448440552e-01 6.4203006029129028e-01</leafValues></_>
        <_>
          <internalNodes>
            0 -1 5 -6.0224499553442001e-02</internalNodes>
          <leafValues>
            4.9627444148063660e-01 -8.9829695224761963e-01</leafValues></_>
        <_>
          <internalNodes>
            0 -1 16 1.7713817954063416e-01</internalNodes>
          <leafValues>
            -8.1414127349853516e-01 6.8732237815856934e-01</leafValues></_></weakClassifiers></_>
    <!-- stage 5 -->
    <_>
      <maxWeakCount>3</maxWeakCount>
      <stageThreshold>-9.5593684911727905e-01</stageThreshold>
      <weakClassifiers>
        <_>
          <internalNodes>
            0 -1 8 -1.2679469585418701e-01</internalNodes>
          <leafValues>
            8.9999997615814209e-01 -8.6190474033355713e-01</leafValues></_>
        <_>
          <internalNodes>
            0 -1 10 5.3501944988965988e-02</internalNodes>
          <leafValues>
            -6.8859308958053589e-01 8.6502909660339355e-01</leafValues></_>
        <_>
          <internalNodes>
            0 -1 0 2.6877138763666153e-02</internalNodes>
          <leafValues>
            -8.9187711477279663e-01 5.9456104040145874e-01</leafValues></_></weakClassifiers></_></stages>
  <features>
    <_>
      <rects>
        <_>
          1 4 18 1 -1.</_>
        <_>
          1 4 9 1 2.</_></rects>
      <tilted>1</tilted></_>
    <_>
      <rects>
        <_>
          2 8 12 1 -1.</_>
        <_>
          5 11 6 1 2.</_></rects>
      <tilted>1</tilted></_>
    <_>
      <rects>
        <_>
          2 19 10 10 -1.</_>
        <_>
          2 19 5 5 2.</_>
        <_>
          7 24 5 5 2.</_></rects>
      <tilted>0</tilted></_>
    <_>
      <rects>
        <_>
          3 1 14 26 -1.</_>
        <_>
          3 14 14 13 2.</_></rects>
      <tilted>0</tilted></_>
    <_>
      <rects>
        <_>
          3 5 12 5 -1.</_>
        <_>
          6 5 6 5 2.</_></rects>
      <tilted>0</tilted></_>
    <_>
      <rects>
        <_>
          4 1 2 24 -1.</_>
        <_>
          4 13 2 12 2.</_></rects>
      <tilted>0</tilted></_>
    <_>
      <rects>
        <_>
          4 11 8 3 -1.</_>
        <_>
          6 13 4 3 2.</_></rects>
      <tilted>1</tilted></_>
    <_>
      <rects>
        <_>
          5 0 1 18 -1.</_>
        <_>
          5 9 1 9 2.</_></rects>
      <tilted>0</tilted></_>
    <_>
      <rects>
        <_>
          5 0 5 24 -1.</_>
        <_>
          5 6 5 12 2.</_></rects>
      <tilted>0</tilted></_>
    <_>
      <rects>
        <_>
          5 15 12 12 -1.</_>
        <_>
          9 19 4 4 9.</_></rects>
      <tilted>0</tilted></_>
    <_>
      <rects>
        <_>
          7 6 12 7 -1.</_>
        <_>
          10 6 6 7 2.</_></rects>
      <tilted>0</tilted></_>
    <_>
      <rects>
        <_>
          10 1 6 6 -1.</_>
        <_>
          12 3 2 6 3.</_></rects>
      <tilted>1</tilted></_>
    <_>
      <rects>
        <_>
          11 0 6 8 -1.</_>
        <_>
          13 2 2 8 3.</_></rects>
      <tilted>1</tilted></_>
    <_>
      <rects>
        <_>
          11 10 8 4 -1.</_>
        <_>
          10 11 8 2 2.</_></rects>
      <tilted>1</tilted></_>
    <_>
      <rects>
        <_>
          11 26 5 4 -1.</_>
        <_>
          11 28 5 2 2.</_></rects>
      <tilted>0</tilted></_>
    <_>
      <rects>
        <_>
          12 15 5 8 -1.</_>
        <_>
          10 17 5 4 2.</_></rects>
      <tilted>1</tilted></_>
    <_>
      <rects>
        <_>
          13 14 5 9 -1.</_>
        <_>
          10 17 5 3 3.</_></rects>
      <tilted>1</tilted></_>
    <_>
      <rects>
        <_>
          15 2 1 24 -1.</_>
        <_>
          15 14 1 12 2.</_></rects>
      <tilted>0</tilted></_></features></cascade>
</opencv_storage>
