<?xml version="1.0"?>
<opencv_storage>
<stage4>
  <maxWeakCount>5</maxWeakCount>
  <stageThreshold>-1.4316506385803223e+00</stageThreshold>
  <weakClassifiers>
    <_>
      <internalNodes>
        0 -1 11553 -1.3289365172386169e-01</internalNodes>
      <leafValues>
        5.8596491813659668e-01 -8.9677417278289795e-01</leafValues></_>
    <_>
      <internalNodes>
        0 -1 15518 8.0431960523128510e-02</internalNodes>
      <leafValues>
        -8.0619704723358154e-01 6.3537901639938354e-01</leafValues></_>
    <_>
      <internalNodes>
        0 -1 15171 1.1127549223601818e-02</internalNodes>
      <leafValues>
        -8.8915598392486572e-01 4.5840492844581604e-01</leafValues></_>
    <_>
      <internalNodes>
        0 -1 5027 -1.4279416203498840e-01</internalNodes>
      <leafValues>
        5.8822256326675415e-01 -7.5143343210220337e-01</leafValues></_>
    <_>
      <internalNodes>
        0 -1 12832 -1.6175761818885803e-01</internalNodes>
      <leafValues>
        5.6434905529022217e-01 -6.8310004472732544e-01</leafValues></_></weakClassifiers></stage4>
</opencv_storage>
