<?xml version="1.0"?>
<opencv_storage>
<stage4>
  <maxWeakCount>5</maxWeakCount>
  <stageThreshold>-1.1329702138900757e+00</stageThreshold>
  <weakClassifiers>
    <_>
      <internalNodes>
        0 -1 66542 -8.9474916458129883e-02</internalNodes>
      <leafValues>
        6.9658118486404419e-01 -8.0038762092590332e-01</leafValues></_>
    <_>
      <internalNodes>
        0 -1 165973 2.0316166803240776e-02</internalNodes>
      <leafValues>
        -7.1786493062973022e-01 6.7435902357101440e-01</leafValues></_>
    <_>
      <internalNodes>
        0 -1 232780 8.5202142596244812e-02</internalNodes>
      <leafValues>
        -8.3504325151443481e-01 5.1920443773269653e-01</leafValues></_>
    <_>
      <internalNodes>
        0 -1 237802 9.7662396728992462e-02</internalNodes>
      <leafValues>
        -6.4455008506774902e-01 5.3435128927230835e-01</leafValues></_>
    <_>
      <internalNodes>
        0 -1 220920 4.2343061417341232e-02</internalNodes>
      <leafValues>
        -6.6827344894409180e-01 5.2358078956604004e-01</leafValues></_></weakClassifiers></stage4>
</opencv_storage>
