<?xml version="1.0"?>
<opencv_storage>
<stage6>
  <maxWeakCount>5</maxWeakCount>
  <stageThreshold>-9.9616336822509766e-01</stageThreshold>
  <weakClassifiers>
    <_>
      <internalNodes>
        0 -1 173100 -7.6811551116406918e-03</internalNodes>
      <leafValues>
        8.5507243871688843e-01 -7.8637200593948364e-01</leafValues></_>
    <_>
      <internalNodes>
        0 -1 1311 -2.8616078197956085e-02</internalNodes>
      <leafValues>
        7.0221173763275146e-01 -7.4304759502410889e-01</leafValues></_>
    <_>
      <internalNodes>
        0 -1 200523 3.0642375349998474e-02</internalNodes>
      <leafValues>
        -6.3900184631347656e-01 7.8729265928268433e-01</leafValues></_>
    <_>
      <internalNodes>
        0 -1 26928 -7.4600800871849060e-02</internalNodes>
      <leafValues>
        5.6172066926956177e-01 -8.8472950458526611e-01</leafValues></_>
    <_>
      <internalNodes>
        0 -1 193215 -2.9922107933089137e-04</internalNodes>
      <leafValues>
        6.1053735017776489e-01 -7.7326840162277222e-01</leafValues></_></weakClassifiers></stage6>
</opencv_storage>
