<?xml version="1.0"?>
<opencv_storage>
<stage5>
  <maxWeakCount>6</maxWeakCount>
  <stageThreshold>-1.4965589046478271e+00</stageThreshold>
  <weakClassifiers>
    <_>
      <internalNodes>
        0 -1 47999 -6.5438389778137207e-02</internalNodes>
      <leafValues>
        6.7248910665512085e-01 -7.7543187141418457e-01</leafValues></_>
    <_>
      <internalNodes>
        0 -1 72594 3.5911262035369873e-01</internalNodes>
      <leafValues>
        -7.0231616497039795e-01 6.1143165826797485e-01</leafValues></_>
    <_>
      <internalNodes>
        0 -1 106526 1.0134146548807621e-02</internalNodes>
      <leafValues>
        7.7174013853073120e-01 -5.3363138437271118e-01</leafValues></_>
    <_>
      <internalNodes>
        0 -1 173100 -7.6811551116406918e-03</internalNodes>
      <leafValues>
        6.8797028064727783e-01 -5.1900166273117065e-01</leafValues></_>
    <_>
      <internalNodes>
        0 -1 256827 5.8289855951443315e-04</internalNodes>
      <leafValues>
        -7.7732014656066895e-01 5.0255781412124634e-01</leafValues></_>
    <_>
      <internalNodes>
        0 -1 251993 4.6225759433582425e-04</internalNodes>
      <leafValues>
        5.3126430511474609e-01 -7.1870607137680054e-01</leafValues></_></weakClassifiers></stage5>
</opencv_storage>
